<?xml version="1.0" encoding="UTF-8"?>
<PMML version="4.2" xmlns="http://www.dmg.org/PMML-4_2">
  <Header copyright="vfed">
    <Application name="KNIME" version="3.3.2"/>
  </Header>
  <DataDictionary numberOfFields="5">
    <DataField dataType="double" name="Sepal_Length" optype="continuous">
      <Interval closure="closedClosed" leftMargin="4.3" rightMargin="7.9"/>
    </DataField>
    <DataField dataType="double" name="Sepal_Width" optype="continuous">
      <Interval closure="closedClosed" leftMargin="2.0" rightMargin="4.4"/>
    </DataField>
    <DataField dataType="double" name="Petal_Length" optype="continuous">
      <Interval closure="closedClosed" leftMargin="1.0" rightMargin="6.9"/>
    </DataField>
    <DataField dataType="double" name="Petal_Width" optype="continuous">
      <Interval closure="closedClosed" leftMargin="0.1" rightMargin="2.5"/>
    </DataField>
    <DataField dataType="string" name="Species" optype="categorical">
      <Value value="setosa"/>
      <Value value="versicolor"/>
      <Value value="virginica"/>
    </DataField>
  </DataDictionary>
  <MiningModel functionName="classification">
    <MiningSchema>
      <MiningField invalidValueTreatment="asIs" name="Sepal_Length" highValue="0.0" lowValue="0.0"/>
      <MiningField invalidValueTreatment="asIs" name="Sepal_Width" highValue="0.0" lowValue="0.0"/>
      <MiningField invalidValueTreatment="asIs" name="Species" usageType="target" highValue="0.0" lowValue="0.0"/>
      <MiningField invalidValueTreatment="asIs" name="Petal_Length" highValue="0.0" lowValue="0.0"/>
      <MiningField invalidValueTreatment="asIs" name="Petal_Width" highValue="0.0" lowValue="0.0"/>
    </MiningSchema>
    <Segmentation multipleModelMethod="majorityVote">
      <Segment>
        <True/>
        <TreeModel functionName="classification" missingValueStrategy="lastPrediction" modelName="DecisionTree" noTrueChildStrategy="returnNullPrediction" splitCharacteristic="binarySplit">
          <MiningSchema>
            <MiningField invalidValueTreatment="asIs" name="Sepal_Length"/>
            <MiningField invalidValueTreatment="asIs" name="Sepal_Width"/>
            <MiningField invalidValueTreatment="asIs" name="Petal_Length"/>
            <MiningField invalidValueTreatment="asIs" name="Petal_Width"/>
            <MiningField invalidValueTreatment="asIs" name="Species" usageType="target"/>
          </MiningSchema>
          <Node id="0" recordCount="100.0" score="versicolor">
            <True/>
            <ScoreDistribution recordCount="34.0" value="versicolor"/>
            <ScoreDistribution recordCount="34.0" value="setosa"/>
            <ScoreDistribution recordCount="32.0" value="virginica"/>
            <Node id="1" recordCount="34.0" score="setosa">
              <SimplePredicate field="Petal_Width" operator="lessOrEqual" value="0.8"/>
              <ScoreDistribution recordCount="0.0" value="versicolor"/>
              <ScoreDistribution recordCount="34.0" value="setosa"/>
              <ScoreDistribution recordCount="0.0" value="virginica"/>
            </Node>
            <Node id="2" recordCount="66.0" score="versicolor">
              <SimplePredicate field="Petal_Width" operator="greaterThan" value="0.8"/>
              <ScoreDistribution recordCount="34.0" value="versicolor"/>
              <ScoreDistribution recordCount="0.0" value="setosa"/>
              <ScoreDistribution recordCount="32.0" value="virginica"/>
              <Node id="3" recordCount="37.0" score="versicolor">
                <SimplePredicate field="Petal_Width" operator="lessOrEqual" value="1.75"/>
                <ScoreDistribution recordCount="33.0" value="versicolor"/>
                <ScoreDistribution recordCount="0.0" value="setosa"/>
                <ScoreDistribution recordCount="4.0" value="virginica"/>
                <Node id="4" recordCount="33.0" score="versicolor">
                  <SimplePredicate field="Petal_Length" operator="lessOrEqual" value="5.05"/>
                  <ScoreDistribution recordCount="32.0" value="versicolor"/>
                  <ScoreDistribution recordCount="0.0" value="setosa"/>
                  <ScoreDistribution recordCount="1.0" value="virginica"/>
                </Node>
                <Node id="7" recordCount="4.0" score="virginica">
                  <SimplePredicate field="Petal_Length" operator="greaterThan" value="5.05"/>
                  <ScoreDistribution recordCount="1.0" value="versicolor"/>
                  <ScoreDistribution recordCount="0.0" value="setosa"/>
                  <ScoreDistribution recordCount="3.0" value="virginica"/>
                </Node>
              </Node>
              <Node id="10" recordCount="29.0" score="virginica">
                <SimplePredicate field="Petal_Width" operator="greaterThan" value="1.75"/>
                <ScoreDistribution recordCount="1.0" value="versicolor"/>
                <ScoreDistribution recordCount="0.0" value="setosa"/>
                <ScoreDistribution recordCount="28.0" value="virginica"/>
              </Node>
            </Node>
          </Node>
        </TreeModel>
      </Segment>
      <Segment>
        <True/>
        <TreeModel functionName="classification" missingValueStrategy="lastPrediction" modelName="DecisionTree" noTrueChildStrategy="returnNullPrediction" splitCharacteristic="binarySplit">
          <MiningSchema>
            <MiningField invalidValueTreatment="asIs" name="Sepal_Length"/>
            <MiningField invalidValueTreatment="asIs" name="Sepal_Width"/>
            <MiningField invalidValueTreatment="asIs" name="Petal_Length"/>
            <MiningField invalidValueTreatment="asIs" name="Petal_Width"/>
            <MiningField invalidValueTreatment="asIs" name="Species" usageType="target"/>
          </MiningSchema>
          <Node id="0" recordCount="100.0" score="setosa">
            <True/>
            <ScoreDistribution recordCount="38.0" value="setosa"/>
            <ScoreDistribution recordCount="31.0" value="versicolor"/>
            <ScoreDistribution recordCount="31.0" value="virginica"/>
            <Node id="1" recordCount="38.0" score="setosa">
              <SimplePredicate field="Petal_Width" operator="lessOrEqual" value="0.8"/>
              <ScoreDistribution recordCount="38.0" value="setosa"/>
              <ScoreDistribution recordCount="0.0" value="versicolor"/>
              <ScoreDistribution recordCount="0.0" value="virginica"/>
            </Node>
            <Node id="2" recordCount="62.0" score="versicolor">
              <SimplePredicate field="Petal_Width" operator="greaterThan" value="0.8"/>
              <ScoreDistribution recordCount="0.0" value="setosa"/>
              <ScoreDistribution recordCount="31.0" value="versicolor"/>
              <ScoreDistribution recordCount="31.0" value="virginica"/>
              <Node id="3" recordCount="33.0" score="versicolor">
                <SimplePredicate field="Petal_Width" operator="lessOrEqual" value="1.75"/>
                <ScoreDistribution recordCount="0.0" value="setosa"/>
                <ScoreDistribution recordCount="30.0" value="versicolor"/>
                <ScoreDistribution recordCount="3.0" value="virginica"/>
                <Node id="4" recordCount="31.0" score="versicolor">
                  <SimplePredicate field="Petal_Length" operator="lessOrEqual" value="5.35"/>
                  <ScoreDistribution recordCount="0.0" value="setosa"/>
                  <ScoreDistribution recordCount="30.0" value="versicolor"/>
                  <ScoreDistribution recordCount="1.0" value="virginica"/>
                </Node>
                <Node id="7" recordCount="2.0" score="virginica">
                  <SimplePredicate field="Petal_Length" operator="greaterThan" value="5.35"/>
                  <ScoreDistribution recordCount="0.0" value="setosa"/>
                  <ScoreDistribution recordCount="0.0" value="versicolor"/>
                  <ScoreDistribution recordCount="2.0" value="virginica"/>
                </Node>
              </Node>
              <Node id="8" recordCount="29.0" score="virginica">
                <SimplePredicate field="Petal_Width" operator="greaterThan" value="1.75"/>
                <ScoreDistribution recordCount="0.0" value="setosa"/>
                <ScoreDistribution recordCount="1.0" value="versicolor"/>
                <ScoreDistribution recordCount="28.0" value="virginica"/>
              </Node>
            </Node>
          </Node>
        </TreeModel>
      </Segment>
      <Segment>
        <True/>
        <TreeModel functionName="classification" missingValueStrategy="lastPrediction" modelName="DecisionTree" noTrueChildStrategy="returnNullPrediction" splitCharacteristic="binarySplit">
          <MiningSchema>
            <MiningField invalidValueTreatment="asIs" name="Sepal_Length"/>
            <MiningField invalidValueTreatment="asIs" name="Sepal_Width"/>
            <MiningField invalidValueTreatment="asIs" name="Petal_Length"/>
            <MiningField invalidValueTreatment="asIs" name="Petal_Width"/>
            <MiningField invalidValueTreatment="asIs" name="Species" usageType="target"/>
          </MiningSchema>
          <Node id="0" recordCount="100.0" score="versicolor">
            <True/>
            <ScoreDistribution recordCount="31.0" value="virginica"/>
            <ScoreDistribution recordCount="32.0" value="setosa"/>
            <ScoreDistribution recordCount="37.0" value="versicolor"/>
            <Node id="1" recordCount="32.0" score="setosa">
              <SimplePredicate field="Petal_Width" operator="lessOrEqual" value="0.8"/>
              <ScoreDistribution recordCount="0.0" value="virginica"/>
              <ScoreDistribution recordCount="32.0" value="setosa"/>
              <ScoreDistribution recordCount="0.0" value="versicolor"/>
            </Node>
            <Node id="2" recordCount="68.0" score="versicolor">
              <SimplePredicate field="Petal_Width" operator="greaterThan" value="0.8"/>
              <ScoreDistribution recordCount="31.0" value="virginica"/>
              <ScoreDistribution recordCount="0.0" value="setosa"/>
              <ScoreDistribution recordCount="37.0" value="versicolor"/>
              <Node id="3" recordCount="39.0" score="versicolor">
                <SimplePredicate field="Petal_Width" operator="lessOrEqual" value="1.75"/>
                <ScoreDistribution recordCount="3.0" value="virginica"/>
                <ScoreDistribution recordCount="0.0" value="setosa"/>
                <ScoreDistribution recordCount="36.0" value="versicolor"/>
              </Node>
              <Node id="10" recordCount="29.0" score="virginica">
                <SimplePredicate field="Petal_Width" operator="greaterThan" value="1.75"/>
                <ScoreDistribution recordCount="28.0" value="virginica"/>
                <ScoreDistribution recordCount="0.0" value="setosa"/>
                <ScoreDistribution recordCount="1.0" value="versicolor"/>
              </Node>
            </Node>
          </Node>
        </TreeModel>
      </Segment>
      <Segment>
        <True/>
        <TreeModel functionName="classification" missingValueStrategy="lastPrediction" modelName="DecisionTree" noTrueChildStrategy="returnNullPrediction" splitCharacteristic="binarySplit">
          <MiningSchema>
            <MiningField invalidValueTreatment="asIs" name="Sepal_Length"/>
            <MiningField invalidValueTreatment="asIs" name="Sepal_Width"/>
            <MiningField invalidValueTreatment="asIs" name="Petal_Length"/>
            <MiningField invalidValueTreatment="asIs" name="Petal_Width"/>
            <MiningField invalidValueTreatment="asIs" name="Species" usageType="target"/>
          </MiningSchema>
          <Node id="0" recordCount="100.0" score="setosa">
            <True/>
            <ScoreDistribution recordCount="29.0" value="versicolor"/>
            <ScoreDistribution recordCount="30.0" value="virginica"/>
            <ScoreDistribution recordCount="41.0" value="setosa"/>
            <Node id="1" recordCount="41.0" score="setosa">
              <SimplePredicate field="Petal_Width" operator="lessOrEqual" value="0.7"/>
              <ScoreDistribution recordCount="0.0" value="versicolor"/>
              <ScoreDistribution recordCount="0.0" value="virginica"/>
              <ScoreDistribution recordCount="41.0" value="setosa"/>
            </Node>
            <Node id="2" recordCount="59.0" score="virginica">
              <SimplePredicate field="Petal_Width" operator="greaterThan" value="0.7"/>
              <ScoreDistribution recordCount="29.0" value="versicolor"/>
              <ScoreDistribution recordCount="30.0" value="virginica"/>
              <ScoreDistribution recordCount="0.0" value="setosa"/>
              <Node id="3" recordCount="32.0" score="versicolor">
                <SimplePredicate field="Petal_Width" operator="lessOrEqual" value="1.75"/>
                <ScoreDistribution recordCount="28.0" value="versicolor"/>
                <ScoreDistribution recordCount="4.0" value="virginica"/>
                <ScoreDistribution recordCount="0.0" value="setosa"/>
                <Node id="4" recordCount="27.0" score="versicolor">
                  <SimplePredicate field="Petal_Length" operator="lessOrEqual" value="4.95"/>
                  <ScoreDistribution recordCount="26.0" value="versicolor"/>
                  <ScoreDistribution recordCount="1.0" value="virginica"/>
                  <ScoreDistribution recordCount="0.0" value="setosa"/>
                </Node>
                <Node id="7" recordCount="5.0" score="virginica">
                  <SimplePredicate field="Petal_Length" operator="greaterThan" value="4.95"/>
                  <ScoreDistribution recordCount="2.0" value="versicolor"/>
                  <ScoreDistribution recordCount="3.0" value="virginica"/>
                  <ScoreDistribution recordCount="0.0" value="setosa"/>
                  <Node id="8" recordCount="3.0" score="virginica">
                    <SimplePredicate field="Petal_Width" operator="lessOrEqual" value="1.55"/>
                    <ScoreDistribution recordCount="0.0" value="versicolor"/>
                    <ScoreDistribution recordCount="3.0" value="virginica"/>
                    <ScoreDistribution recordCount="0.0" value="setosa"/>
                  </Node>
                  <Node id="9" recordCount="2.0" score="versicolor">
                    <SimplePredicate field="Petal_Width" operator="greaterThan" value="1.55"/>
                    <ScoreDistribution recordCount="2.0" value="versicolor"/>
                    <ScoreDistribution recordCount="0.0" value="virginica"/>
                    <ScoreDistribution recordCount="0.0" value="setosa"/>
                  </Node>
                </Node>
              </Node>
              <Node id="10" recordCount="27.0" score="virginica">
                <SimplePredicate field="Petal_Width" operator="greaterThan" value="1.75"/>
                <ScoreDistribution recordCount="1.0" value="versicolor"/>
                <ScoreDistribution recordCount="26.0" value="virginica"/>
                <ScoreDistribution recordCount="0.0" value="setosa"/>
              </Node>
            </Node>
          </Node>
        </TreeModel>
      </Segment>
      <Segment>
        <True/>
        <TreeModel functionName="classification" missingValueStrategy="lastPrediction" modelName="DecisionTree" noTrueChildStrategy="returnNullPrediction" splitCharacteristic="binarySplit">
          <MiningSchema>
            <MiningField invalidValueTreatment="asIs" name="Sepal_Length"/>
            <MiningField invalidValueTreatment="asIs" name="Sepal_Width"/>
            <MiningField invalidValueTreatment="asIs" name="Petal_Length"/>
            <MiningField invalidValueTreatment="asIs" name="Petal_Width"/>
            <MiningField invalidValueTreatment="asIs" name="Species" usageType="target"/>
          </MiningSchema>
          <Node id="0" recordCount="100.0" score="virginica">
            <True/>
            <ScoreDistribution recordCount="31.0" value="versicolor"/>
            <ScoreDistribution recordCount="34.0" value="setosa"/>
            <ScoreDistribution recordCount="35.0" value="virginica"/>
            <Node id="1" recordCount="34.0" score="setosa">
              <SimplePredicate field="Petal_Width" operator="lessOrEqual" value="0.8"/>
              <ScoreDistribution recordCount="0.0" value="versicolor"/>
              <ScoreDistribution recordCount="34.0" value="setosa"/>
              <ScoreDistribution recordCount="0.0" value="virginica"/>
            </Node>
            <Node id="2" recordCount="66.0" score="virginica">
              <SimplePredicate field="Petal_Width" operator="greaterThan" value="0.8"/>
              <ScoreDistribution recordCount="31.0" value="versicolor"/>
              <ScoreDistribution recordCount="0.0" value="setosa"/>
              <ScoreDistribution recordCount="35.0" value="virginica"/>
              <Node id="3" recordCount="34.0" score="versicolor">
                <SimplePredicate field="Petal_Width" operator="lessOrEqual" value="1.75"/>
                <ScoreDistribution recordCount="30.0" value="versicolor"/>
                <ScoreDistribution recordCount="0.0" value="setosa"/>
                <ScoreDistribution recordCount="4.0" value="virginica"/>
                <Node id="4" recordCount="30.0" score="versicolor">
                  <SimplePredicate field="Petal_Length" operator="lessOrEqual" value="5.05"/>
                  <ScoreDistribution recordCount="29.0" value="versicolor"/>
                  <ScoreDistribution recordCount="0.0" value="setosa"/>
                  <ScoreDistribution recordCount="1.0" value="virginica"/>
                </Node>
                <Node id="7" recordCount="4.0" score="virginica">
                  <SimplePredicate field="Petal_Length" operator="greaterThan" value="5.05"/>
                  <ScoreDistribution recordCount="1.0" value="versicolor"/>
                  <ScoreDistribution recordCount="0.0" value="setosa"/>
                  <ScoreDistribution recordCount="3.0" value="virginica"/>
                </Node>
              </Node>
              <Node id="10" recordCount="32.0" score="virginica">
                <SimplePredicate field="Petal_Width" operator="greaterThan" value="1.75"/>
                <ScoreDistribution recordCount="1.0" value="versicolor"/>
                <ScoreDistribution recordCount="0.0" value="setosa"/>
                <ScoreDistribution recordCount="31.0" value="virginica"/>
              </Node>
            </Node>
          </Node>
        </TreeModel>
      </Segment>
    </Segmentation>
  </MiningModel>
</PMML>