<?xml version="1.0" encoding="UTF-8"?>
<PMML version="4.2" xmlns="http://www.dmg.org/PMML-4_2">
  <Header copyright="vfed">
    <Application name="KNIME" version="3.1.2"/>
  </Header>
  <DataDictionary numberOfFields="8">
    <DataField dataType="double" name="mpg" optype="continuous">
      <Interval closure="closedClosed" leftMargin="9.0" rightMargin="46.6"/>
    </DataField>
    <DataField dataType="integer" name="cylinders" optype="continuous">
      <Interval closure="closedClosed" leftMargin="3.0" rightMargin="8.0"/>
    </DataField>
    <DataField dataType="double" name="displacement" optype="continuous">
      <Interval closure="closedClosed" leftMargin="68.0" rightMargin="455.0"/>
    </DataField>
    <DataField dataType="integer" name="horsepower" optype="continuous">
      <Interval closure="closedClosed" leftMargin="46.0" rightMargin="230.0"/>
    </DataField>
    <DataField dataType="integer" name="weight" optype="continuous">
      <Interval closure="closedClosed" leftMargin="1613.0" rightMargin="5140.0"/>
    </DataField>
    <DataField dataType="double" name="acceleration" optype="continuous">
      <Interval closure="closedClosed" leftMargin="8.0" rightMargin="24.8"/>
    </DataField>
    <DataField dataType="integer" name="model_year" optype="continuous">
      <Interval closure="closedClosed" leftMargin="70.0" rightMargin="82.0"/>
    </DataField>
    <DataField dataType="integer" name="origin" optype="continuous">
      <Interval closure="closedClosed" leftMargin="1.0" rightMargin="3.0"/>
    </DataField>
  </DataDictionary>
  <MiningModel functionName="regression">
    <MiningSchema>
      <MiningField invalidValueTreatment="asIs" name="acceleration" highValue="0.0" lowValue="0.0"/>
      <MiningField invalidValueTreatment="asIs" name="horsepower" highValue="0.0" lowValue="0.0"/>
      <MiningField invalidValueTreatment="asIs" name="mpg" usageType="target" highValue="0.0" lowValue="0.0"/>
      <MiningField invalidValueTreatment="asIs" name="origin" highValue="0.0" lowValue="0.0"/>
      <MiningField invalidValueTreatment="asIs" name="weight" highValue="0.0" lowValue="0.0"/>
      <MiningField invalidValueTreatment="asIs" name="model_year" highValue="0.0" lowValue="0.0"/>
      <MiningField invalidValueTreatment="asIs" name="displacement" highValue="0.0" lowValue="0.0"/>
      <MiningField invalidValueTreatment="asIs" name="cylinders" highValue="0.0" lowValue="0.0"/>
    </MiningSchema>
    <Segmentation multipleModelMethod="weightedAverage">
      <Segment>
        <True/>
        <GeneralRegressionModel algorithmName="LinearRegression" functionName="regression" modelName="KNIME Linear Regression" modelType="generalLinear">
          <MiningSchema>
            <MiningField invalidValueTreatment="asIs" name="cylinders"/>
            <MiningField invalidValueTreatment="asIs" name="displacement"/>
            <MiningField invalidValueTreatment="asIs" name="horsepower"/>
            <MiningField invalidValueTreatment="asIs" name="weight"/>
            <MiningField invalidValueTreatment="asIs" name="acceleration"/>
            <MiningField invalidValueTreatment="asIs" name="model_year"/>
            <MiningField invalidValueTreatment="asIs" name="origin"/>
            <MiningField invalidValueTreatment="asIs" name="mpg" usageType="target"/>
          </MiningSchema>
          <ParameterList>
            <Parameter label="Intercept" name="p0"/>
            <Parameter label="cylinders" name="p1"/>
            <Parameter label="displacement" name="p2"/>
            <Parameter label="horsepower" name="p3"/>
            <Parameter label="weight" name="p4"/>
            <Parameter label="acceleration" name="p5"/>
            <Parameter label="model_year" name="p6"/>
            <Parameter label="origin" name="p7"/>
          </ParameterList>
          <FactorList/>
          <CovariateList>
            <Predictor name="cylinders"/>
            <Predictor name="displacement"/>
            <Predictor name="horsepower"/>
            <Predictor name="weight"/>
            <Predictor name="acceleration"/>
            <Predictor name="model_year"/>
            <Predictor name="origin"/>
          </CovariateList>
          <PPMatrix>
            <PPCell parameterName="p1" predictorName="cylinders" value="1"/>
            <PPCell parameterName="p2" predictorName="displacement" value="1"/>
            <PPCell parameterName="p3" predictorName="horsepower" value="1"/>
            <PPCell parameterName="p4" predictorName="weight" value="1"/>
            <PPCell parameterName="p5" predictorName="acceleration" value="1"/>
            <PPCell parameterName="p6" predictorName="model_year" value="1"/>
            <PPCell parameterName="p7" predictorName="origin" value="1"/>
          </PPMatrix>
          <ParamMatrix>
            <PCell beta="-12.439432208283897" df="1" parameterName="p0"/>
            <PCell beta="-0.8869350085931691" df="1" parameterName="p1"/>
            <PCell beta="0.02307558380768596" df="1" parameterName="p2"/>
            <PCell beta="-0.020007328504007608" df="1" parameterName="p3"/>
            <PCell beta="-0.006099591588824569" df="1" parameterName="p4"/>
            <PCell beta="-0.06304284083396461" df="1" parameterName="p5"/>
            <PCell beta="0.7268849667904106" df="1" parameterName="p6"/>
            <PCell beta="1.3922942154636158" df="1" parameterName="p7"/>
          </ParamMatrix>
        </GeneralRegressionModel>
      </Segment>
      <Segment>
        <True/>
        <GeneralRegressionModel algorithmName="LinearRegression" functionName="regression" modelName="KNIME Linear Regression" modelType="generalLinear">
          <MiningSchema>
            <MiningField invalidValueTreatment="asIs" name="cylinders"/>
            <MiningField invalidValueTreatment="asIs" name="displacement"/>
            <MiningField invalidValueTreatment="asIs" name="horsepower"/>
            <MiningField invalidValueTreatment="asIs" name="weight"/>
            <MiningField invalidValueTreatment="asIs" name="acceleration"/>
            <MiningField invalidValueTreatment="asIs" name="model_year"/>
            <MiningField invalidValueTreatment="asIs" name="origin"/>
            <MiningField invalidValueTreatment="asIs" name="mpg" usageType="target"/>
          </MiningSchema>
          <ParameterList>
            <Parameter label="Intercept" name="p0"/>
            <Parameter label="cylinders" name="p1"/>
            <Parameter label="displacement" name="p2"/>
            <Parameter label="horsepower" name="p3"/>
            <Parameter label="weight" name="p4"/>
            <Parameter label="acceleration" name="p5"/>
            <Parameter label="model_year" name="p6"/>
            <Parameter label="origin" name="p7"/>
          </ParameterList>
          <FactorList/>
          <CovariateList>
            <Predictor name="cylinders"/>
            <Predictor name="displacement"/>
            <Predictor name="horsepower"/>
            <Predictor name="weight"/>
            <Predictor name="acceleration"/>
            <Predictor name="model_year"/>
            <Predictor name="origin"/>
          </CovariateList>
          <PPMatrix>
            <PPCell parameterName="p1" predictorName="cylinders" value="1"/>
            <PPCell parameterName="p2" predictorName="displacement" value="1"/>
            <PPCell parameterName="p3" predictorName="horsepower" value="1"/>
            <PPCell parameterName="p4" predictorName="weight" value="1"/>
            <PPCell parameterName="p5" predictorName="acceleration" value="1"/>
            <PPCell parameterName="p6" predictorName="model_year" value="1"/>
            <PPCell parameterName="p7" predictorName="origin" value="1"/>
          </PPMatrix>
          <ParamMatrix>
            <PCell beta="-15.918996076485449" df="1" parameterName="p0"/>
            <PCell beta="-0.4729823637477273" df="1" parameterName="p1"/>
            <PCell beta="0.02182050861331382" df="1" parameterName="p2"/>
            <PCell beta="-0.019254309771860722" df="1" parameterName="p3"/>
            <PCell beta="-0.006948916640977267" df="1" parameterName="p4"/>
            <PCell beta="0.03558820312305995" df="1" parameterName="p5"/>
            <PCell beta="0.7601896869811664" df="1" parameterName="p6"/>
            <PCell beta="1.2836915949469472" df="1" parameterName="p7"/>
          </ParamMatrix>
        </GeneralRegressionModel>
      </Segment>
      <Segment>
        <True/>
        <GeneralRegressionModel algorithmName="LinearRegression" functionName="regression" modelName="KNIME Linear Regression" modelType="generalLinear">
          <MiningSchema>
            <MiningField invalidValueTreatment="asIs" name="cylinders"/>
            <MiningField invalidValueTreatment="asIs" name="displacement"/>
            <MiningField invalidValueTreatment="asIs" name="horsepower"/>
            <MiningField invalidValueTreatment="asIs" name="weight"/>
            <MiningField invalidValueTreatment="asIs" name="acceleration"/>
            <MiningField invalidValueTreatment="asIs" name="model_year"/>
            <MiningField invalidValueTreatment="asIs" name="origin"/>
            <MiningField invalidValueTreatment="asIs" name="mpg" usageType="target"/>
          </MiningSchema>
          <ParameterList>
            <Parameter label="Intercept" name="p0"/>
            <Parameter label="cylinders" name="p1"/>
            <Parameter label="displacement" name="p2"/>
            <Parameter label="horsepower" name="p3"/>
            <Parameter label="weight" name="p4"/>
            <Parameter label="acceleration" name="p5"/>
            <Parameter label="model_year" name="p6"/>
            <Parameter label="origin" name="p7"/>
          </ParameterList>
          <FactorList/>
          <CovariateList>
            <Predictor name="cylinders"/>
            <Predictor name="displacement"/>
            <Predictor name="horsepower"/>
            <Predictor name="weight"/>
            <Predictor name="acceleration"/>
            <Predictor name="model_year"/>
            <Predictor name="origin"/>
          </CovariateList>
          <PPMatrix>
            <PPCell parameterName="p1" predictorName="cylinders" value="1"/>
            <PPCell parameterName="p2" predictorName="displacement" value="1"/>
            <PPCell parameterName="p3" predictorName="horsepower" value="1"/>
            <PPCell parameterName="p4" predictorName="weight" value="1"/>
            <PPCell parameterName="p5" predictorName="acceleration" value="1"/>
            <PPCell parameterName="p6" predictorName="model_year" value="1"/>
            <PPCell parameterName="p7" predictorName="origin" value="1"/>
          </PPMatrix>
          <ParamMatrix>
            <PCell beta="-19.45657133225124" df="1" parameterName="p0"/>
            <PCell beta="-0.5571456561820507" df="1" parameterName="p1"/>
            <PCell beta="0.02438096534316131" df="1" parameterName="p2"/>
            <PCell beta="-0.021315394738372673" df="1" parameterName="p3"/>
            <PCell beta="-0.006805733267869775" df="1" parameterName="p4"/>
            <PCell beta="0.10369628753316609" df="1" parameterName="p5"/>
            <PCell beta="0.7917475120573308" df="1" parameterName="p6"/>
            <PCell beta="1.2371655987714378" df="1" parameterName="p7"/>
          </ParamMatrix>
        </GeneralRegressionModel>
      </Segment>
      <Segment>
        <True/>
        <GeneralRegressionModel algorithmName="LinearRegression" functionName="regression" modelName="KNIME Linear Regression" modelType="generalLinear">
          <MiningSchema>
            <MiningField invalidValueTreatment="asIs" name="cylinders"/>
            <MiningField invalidValueTreatment="asIs" name="displacement"/>
            <MiningField invalidValueTreatment="asIs" name="horsepower"/>
            <MiningField invalidValueTreatment="asIs" name="weight"/>
            <MiningField invalidValueTreatment="asIs" name="acceleration"/>
            <MiningField invalidValueTreatment="asIs" name="model_year"/>
            <MiningField invalidValueTreatment="asIs" name="origin"/>
            <MiningField invalidValueTreatment="asIs" name="mpg" usageType="target"/>
          </MiningSchema>
          <ParameterList>
            <Parameter label="Intercept" name="p0"/>
            <Parameter label="cylinders" name="p1"/>
            <Parameter label="displacement" name="p2"/>
            <Parameter label="horsepower" name="p3"/>
            <Parameter label="weight" name="p4"/>
            <Parameter label="acceleration" name="p5"/>
            <Parameter label="model_year" name="p6"/>
            <Parameter label="origin" name="p7"/>
          </ParameterList>
          <FactorList/>
          <CovariateList>
            <Predictor name="cylinders"/>
            <Predictor name="displacement"/>
            <Predictor name="horsepower"/>
            <Predictor name="weight"/>
            <Predictor name="acceleration"/>
            <Predictor name="model_year"/>
            <Predictor name="origin"/>
          </CovariateList>
          <PPMatrix>
            <PPCell parameterName="p1" predictorName="cylinders" value="1"/>
            <PPCell parameterName="p2" predictorName="displacement" value="1"/>
            <PPCell parameterName="p3" predictorName="horsepower" value="1"/>
            <PPCell parameterName="p4" predictorName="weight" value="1"/>
            <PPCell parameterName="p5" predictorName="acceleration" value="1"/>
            <PPCell parameterName="p6" predictorName="model_year" value="1"/>
            <PPCell parameterName="p7" predictorName="origin" value="1"/>
          </PPMatrix>
          <ParamMatrix>
            <PCell beta="-20.610295178704344" df="1" parameterName="p0"/>
            <PCell beta="-0.3519188820025994" df="1" parameterName="p1"/>
            <PCell beta="0.02274651755962797" df="1" parameterName="p2"/>
            <PCell beta="-0.019700931315394937" df="1" parameterName="p3"/>
            <PCell beta="-0.0069104564563219105" df="1" parameterName="p4"/>
            <PCell beta="0.09975835690219625" df="1" parameterName="p5"/>
            <PCell beta="0.7978633408651994" df="1" parameterName="p6"/>
            <PCell beta="1.3015594069815393" df="1" parameterName="p7"/>
          </ParamMatrix>
        </GeneralRegressionModel>
      </Segment>
      <Segment>
        <True/>
        <GeneralRegressionModel algorithmName="LinearRegression" functionName="regression" modelName="KNIME Linear Regression" modelType="generalLinear">
          <MiningSchema>
            <MiningField invalidValueTreatment="asIs" name="cylinders"/>
            <MiningField invalidValueTreatment="asIs" name="displacement"/>
            <MiningField invalidValueTreatment="asIs" name="horsepower"/>
            <MiningField invalidValueTreatment="asIs" name="weight"/>
            <MiningField invalidValueTreatment="asIs" name="acceleration"/>
            <MiningField invalidValueTreatment="asIs" name="model_year"/>
            <MiningField invalidValueTreatment="asIs" name="origin"/>
            <MiningField invalidValueTreatment="asIs" name="mpg" usageType="target"/>
          </MiningSchema>
          <ParameterList>
            <Parameter label="Intercept" name="p0"/>
            <Parameter label="cylinders" name="p1"/>
            <Parameter label="displacement" name="p2"/>
            <Parameter label="horsepower" name="p3"/>
            <Parameter label="weight" name="p4"/>
            <Parameter label="acceleration" name="p5"/>
            <Parameter label="model_year" name="p6"/>
            <Parameter label="origin" name="p7"/>
          </ParameterList>
          <FactorList/>
          <CovariateList>
            <Predictor name="cylinders"/>
            <Predictor name="displacement"/>
            <Predictor name="horsepower"/>
            <Predictor name="weight"/>
            <Predictor name="acceleration"/>
            <Predictor name="model_year"/>
            <Predictor name="origin"/>
          </CovariateList>
          <PPMatrix>
            <PPCell parameterName="p1" predictorName="cylinders" value="1"/>
            <PPCell parameterName="p2" predictorName="displacement" value="1"/>
            <PPCell parameterName="p3" predictorName="horsepower" value="1"/>
            <PPCell parameterName="p4" predictorName="weight" value="1"/>
            <PPCell parameterName="p5" predictorName="acceleration" value="1"/>
            <PPCell parameterName="p6" predictorName="model_year" value="1"/>
            <PPCell parameterName="p7" predictorName="origin" value="1"/>
          </PPMatrix>
          <ParamMatrix>
            <PCell beta="-20.699028200214517" df="1" parameterName="p0"/>
            <PCell beta="-0.4678150431091112" df="1" parameterName="p1"/>
            <PCell beta="0.017746564856851707" df="1" parameterName="p2"/>
            <PCell beta="-0.010428856615179036" df="1" parameterName="p3"/>
            <PCell beta="-0.006443154001937203" df="1" parameterName="p4"/>
            <PCell beta="0.11260156312710337" df="1" parameterName="p5"/>
            <PCell beta="0.7836288389805104" df="1" parameterName="p6"/>
            <PCell beta="1.560828001895141" df="1" parameterName="p7"/>
          </ParamMatrix>
        </GeneralRegressionModel>
      </Segment>
    </Segmentation>
  </MiningModel>
</PMML>