<?xml version="1.0" encoding="UTF-8"?>
<PMML version="4.2" xmlns="http://www.dmg.org/PMML-4_2">
  <Header copyright="vfed">
    <Application name="KNIME" version="2.11.2"/>
  </Header>
  <DataDictionary numberOfFields="8">
    <DataField name="mpg" optype="continuous" dataType="double">
      <Interval closure="closedClosed" leftMargin="9.0" rightMargin="46.6"/>
    </DataField>
    <DataField name="cylinders" optype="continuous" dataType="integer">
      <Interval closure="closedClosed" leftMargin="3.0" rightMargin="8.0"/>
    </DataField>
    <DataField name="displacement" optype="continuous" dataType="double">
      <Interval closure="closedClosed" leftMargin="68.0" rightMargin="455.0"/>
    </DataField>
    <DataField name="horsepower" optype="continuous" dataType="integer">
      <Interval closure="closedClosed" leftMargin="46.0" rightMargin="230.0"/>
    </DataField>
    <DataField name="weight" optype="continuous" dataType="integer">
      <Interval closure="closedClosed" leftMargin="1613.0" rightMargin="5140.0"/>
    </DataField>
    <DataField name="acceleration" optype="continuous" dataType="double">
      <Interval closure="closedClosed" leftMargin="8.0" rightMargin="24.8"/>
    </DataField>
    <DataField name="model_year" optype="continuous" dataType="integer">
      <Interval closure="closedClosed" leftMargin="70.0" rightMargin="82.0"/>
    </DataField>
    <DataField name="origin" optype="continuous" dataType="integer">
      <Interval closure="closedClosed" leftMargin="1.0" rightMargin="3.0"/>
    </DataField>
  </DataDictionary>
  <RegressionModel functionName="regression" algorithmName="PolynomialRegression" modelName="KNIME Polynomial Regression" targetFieldName="mpg">
    <MiningSchema>
      <MiningField name="cylinders" invalidValueTreatment="asIs"/>
      <MiningField name="displacement" invalidValueTreatment="asIs"/>
      <MiningField name="horsepower" invalidValueTreatment="asIs"/>
      <MiningField name="weight" invalidValueTreatment="asIs"/>
      <MiningField name="acceleration" invalidValueTreatment="asIs"/>
      <MiningField name="model_year" invalidValueTreatment="asIs"/>
      <MiningField name="origin" invalidValueTreatment="asIs"/>
      <MiningField name="mpg" invalidValueTreatment="asIs" usageType="target"/>
    </MiningSchema>
    <RegressionTable intercept="-17.218434622011074">
      <NumericPredictor name="cylinders" coefficient="-0.4933763188587452"/>
      <NumericPredictor name="displacement" coefficient="0.019895643742003366"/>
      <NumericPredictor name="horsepower" coefficient="-0.01695114422749011"/>
      <NumericPredictor name="weight" coefficient="-0.006474043397440489"/>
      <NumericPredictor name="acceleration" coefficient="0.08057583832497806"/>
      <NumericPredictor name="model_year" coefficient="0.7507726779501963"/>
      <NumericPredictor name="origin" coefficient="1.4261404954232262"/>
    </RegressionTable>
  </RegressionModel>
</PMML>