<?xml version="1.0"?>
<PMML version="4.3" xmlns="http://www.dmg.org/PMML-4_3" xmlns:xsi="http://www.w3.org/2001/XMLSchema-instance" xsi:schemaLocation="http://www.dmg.org/PMML-4_3 http://www.dmg.org/pmml/v4-3/pmml-4-3.xsd">
 <Header copyright="Copyright (c) 2017 vfed" description="Support Vector Machine Model">
  <Extension name="user" value="vfed" extender="R-PMML"/>
  <Application name="R-PMML" version="1.4"/>
  <Timestamp>2017-05-20 21:29:18</Timestamp>
 </Header>
 <DataDictionary numberOfFields="10">
  <DataField name="Adjusted" optype="categorical" dataType="string"/>
  <DataField name="Age" optype="continuous" dataType="double"/>
  <DataField name="Employment" optype="categorical" dataType="string"/>
  <DataField name="Education" optype="categorical" dataType="string"/>
  <DataField name="Marital" optype="categorical" dataType="string"/>
  <DataField name="Occupation" optype="categorical" dataType="string"/>
  <DataField name="Income" optype="continuous" dataType="double"/>
  <DataField name="Gender" optype="categorical" dataType="string"/>
  <DataField name="Deductions" optype="continuous" dataType="double"/>
  <DataField name="Hours" optype="continuous" dataType="double"/>
 </DataDictionary>
 <SupportVectorMachineModel modelName="LIBSVM_Model" functionName="classification" algorithmName="LIBSVM">
  <MiningSchema>
   <MiningField name="Adjusted" usageType="predicted"/>
   <MiningField name="Age" usageType="active"/>
   <MiningField name="Employment" usageType="active"/>
   <MiningField name="Education" usageType="active"/>
   <MiningField name="Marital" usageType="active"/>
   <MiningField name="Occupation" usageType="active"/>
   <MiningField name="Income" usageType="active"/>
   <MiningField name="Gender" usageType="active"/>
   <MiningField name="Deductions" usageType="active"/>
   <MiningField name="Hours" usageType="active"/>
  </MiningSchema>
  <Output>
   <OutputField name="Predicted_Adjusted" feature="predictedValue"/>
  </Output>
  <LocalTransformations>
   <DerivedField name="algorithm_derived_nc_Age" dataType="double" optype="continuous">
    <NormContinuous field="Age">
     <LinearNorm orig="0" norm="-2.94325546911022"/>
     <LinearNorm orig="38.3027909426014" norm="0"/>
    </NormContinuous>
   </DerivedField>
   <DerivedField name="algorithm_derived_nc_Income" dataType="double" optype="continuous">
    <NormContinuous field="Income">
     <LinearNorm orig="0" norm="-1.21116526182256"/>
     <LinearNorm orig="84404.8706951027" norm="0"/>
    </NormContinuous>
   </DerivedField>
   <DerivedField name="algorithm_derived_nc_Deductions" dataType="double" optype="continuous">
    <NormContinuous field="Deductions">
     <LinearNorm orig="0" norm="-0.201497514569885"/>
     <LinearNorm orig="68.659645427418" norm="0"/>
    </NormContinuous>
   </DerivedField>
   <DerivedField name="algorithm_derived_nc_Hours" dataType="double" optype="continuous">
    <NormContinuous field="Hours">
     <LinearNorm orig="0" norm="-3.47937073203343"/>
     <LinearNorm orig="40.567140600316" norm="0"/>
    </NormContinuous>
   </DerivedField>
   <DerivedField name="algorithm_derived_nd_Employment_Consultant" dataType="double" optype="continuous">
    <NormDiscrete field="Employment" value="Consultant"/>
   </DerivedField>
   <DerivedField name="algorithm_derived_nd_Employment_Private" dataType="double" optype="continuous">
    <NormDiscrete field="Employment" value="Private"/>
   </DerivedField>
   <DerivedField name="algorithm_derived_nd_Employment_PSFederal" dataType="double" optype="continuous">
    <NormDiscrete field="Employment" value="PSFederal"/>
   </DerivedField>
   <DerivedField name="algorithm_derived_nd_Employment_PSLocal" dataType="double" optype="continuous">
    <NormDiscrete field="Employment" value="PSLocal"/>
   </DerivedField>
   <DerivedField name="algorithm_derived_nd_Employment_PSState" dataType="double" optype="continuous">
    <NormDiscrete field="Employment" value="PSState"/>
   </DerivedField>
   <DerivedField name="algorithm_derived_nd_Employment_SelfEmp" dataType="double" optype="continuous">
    <NormDiscrete field="Employment" value="SelfEmp"/>
   </DerivedField>
   <DerivedField name="algorithm_derived_nd_Employment_Volunteer" dataType="double" optype="continuous">
    <NormDiscrete field="Employment" value="Volunteer"/>
   </DerivedField>
   <DerivedField name="algorithm_derived_nd_Education_Bachelor" dataType="double" optype="continuous">
    <NormDiscrete field="Education" value="Bachelor"/>
   </DerivedField>
   <DerivedField name="algorithm_derived_nd_Education_College" dataType="double" optype="continuous">
    <NormDiscrete field="Education" value="College"/>
   </DerivedField>
   <DerivedField name="algorithm_derived_nd_Education_Doctorate" dataType="double" optype="continuous">
    <NormDiscrete field="Education" value="Doctorate"/>
   </DerivedField>
   <DerivedField name="algorithm_derived_nd_Education_HSgrad" dataType="double" optype="continuous">
    <NormDiscrete field="Education" value="HSgrad"/>
   </DerivedField>
   <DerivedField name="algorithm_derived_nd_Education_Master" dataType="double" optype="continuous">
    <NormDiscrete field="Education" value="Master"/>
   </DerivedField>
   <DerivedField name="algorithm_derived_nd_Education_Preschool" dataType="double" optype="continuous">
    <NormDiscrete field="Education" value="Preschool"/>
   </DerivedField>
   <DerivedField name="algorithm_derived_nd_Education_Professional" dataType="double" optype="continuous">
    <NormDiscrete field="Education" value="Professional"/>
   </DerivedField>
   <DerivedField name="algorithm_derived_nd_Education_Vocational" dataType="double" optype="continuous">
    <NormDiscrete field="Education" value="Vocational"/>
   </DerivedField>
   <DerivedField name="algorithm_derived_nd_Education_Yr10" dataType="double" optype="continuous">
    <NormDiscrete field="Education" value="Yr10"/>
   </DerivedField>
   <DerivedField name="algorithm_derived_nd_Education_Yr11" dataType="double" optype="continuous">
    <NormDiscrete field="Education" value="Yr11"/>
   </DerivedField>
   <DerivedField name="algorithm_derived_nd_Education_Yr12" dataType="double" optype="continuous">
    <NormDiscrete field="Education" value="Yr12"/>
   </DerivedField>
   <DerivedField name="algorithm_derived_nd_Education_Yr1t4" dataType="double" optype="continuous">
    <NormDiscrete field="Education" value="Yr1t4"/>
   </DerivedField>
   <DerivedField name="algorithm_derived_nd_Education_Yr5t6" dataType="double" optype="continuous">
    <NormDiscrete field="Education" value="Yr5t6"/>
   </DerivedField>
   <DerivedField name="algorithm_derived_nd_Education_Yr7t8" dataType="double" optype="continuous">
    <NormDiscrete field="Education" value="Yr7t8"/>
   </DerivedField>
   <DerivedField name="algorithm_derived_nd_Education_Yr9" dataType="double" optype="continuous">
    <NormDiscrete field="Education" value="Yr9"/>
   </DerivedField>
   <DerivedField name="algorithm_derived_nd_Marital_Divorced" dataType="double" optype="continuous">
    <NormDiscrete field="Marital" value="Divorced"/>
   </DerivedField>
   <DerivedField name="algorithm_derived_nd_Marital_Married" dataType="double" optype="continuous">
    <NormDiscrete field="Marital" value="Married"/>
   </DerivedField>
   <DerivedField name="algorithm_derived_nd_Marital_Married.spouse.absent" dataType="double" optype="continuous">
    <NormDiscrete field="Marital" value="Married.spouse.absent">
<!-- R Warning: The character '-' in the original data might have been replaced by the '.' character. Check the desired scoring data for consistency--> 
    </NormDiscrete>
   </DerivedField>
   <DerivedField name="algorithm_derived_nd_Marital_Unmarried" dataType="double" optype="continuous">
    <NormDiscrete field="Marital" value="Unmarried"/>
   </DerivedField>
   <DerivedField name="algorithm_derived_nd_Marital_Widowed" dataType="double" optype="continuous">
    <NormDiscrete field="Marital" value="Widowed"/>
   </DerivedField>
   <DerivedField name="algorithm_derived_nd_Occupation_Clerical" dataType="double" optype="continuous">
    <NormDiscrete field="Occupation" value="Clerical"/>
   </DerivedField>
   <DerivedField name="algorithm_derived_nd_Occupation_Executive" dataType="double" optype="continuous">
    <NormDiscrete field="Occupation" value="Executive"/>
   </DerivedField>
   <DerivedField name="algorithm_derived_nd_Occupation_Farming" dataType="double" optype="continuous">
    <NormDiscrete field="Occupation" value="Farming"/>
   </DerivedField>
   <DerivedField name="algorithm_derived_nd_Occupation_Home" dataType="double" optype="continuous">
    <NormDiscrete field="Occupation" value="Home"/>
   </DerivedField>
   <DerivedField name="algorithm_derived_nd_Occupation_Machinist" dataType="double" optype="continuous">
    <NormDiscrete field="Occupation" value="Machinist"/>
   </DerivedField>
   <DerivedField name="algorithm_derived_nd_Occupation_Military" dataType="double" optype="continuous">
    <NormDiscrete field="Occupation" value="Military"/>
   </DerivedField>
   <DerivedField name="algorithm_derived_nd_Occupation_Professional" dataType="double" optype="continuous">
    <NormDiscrete field="Occupation" value="Professional"/>
   </DerivedField>
   <DerivedField name="algorithm_derived_nd_Occupation_Protective" dataType="double" optype="continuous">
    <NormDiscrete field="Occupation" value="Protective"/>
   </DerivedField>
   <DerivedField name="algorithm_derived_nd_Occupation_Repair" dataType="double" optype="continuous">
    <NormDiscrete field="Occupation" value="Repair"/>
   </DerivedField>
   <DerivedField name="algorithm_derived_nd_Occupation_Sales" dataType="double" optype="continuous">
    <NormDiscrete field="Occupation" value="Sales"/>
   </DerivedField>
   <DerivedField name="algorithm_derived_nd_Occupation_Service" dataType="double" optype="continuous">
    <NormDiscrete field="Occupation" value="Service"/>
   </DerivedField>
   <DerivedField name="algorithm_derived_nd_Occupation_Support" dataType="double" optype="continuous">
    <NormDiscrete field="Occupation" value="Support"/>
   </DerivedField>
   <DerivedField name="algorithm_derived_nd_Occupation_Transport" dataType="double" optype="continuous">
    <NormDiscrete field="Occupation" value="Transport"/>
   </DerivedField>
   <DerivedField name="algorithm_derived_nd_Gender_Male" dataType="double" optype="continuous">
    <NormDiscrete field="Gender" value="Male"/>
   </DerivedField>
  </LocalTransformations>
  <RadialBasisKernelType gamma="0.0222222222222222" description="Radial basis kernel type"/>
  <VectorDictionary numberOfVectors="842">
   <VectorFields numberOfFields="45">
    <FieldRef field="algorithm_derived_nc_Age"/>
    <FieldRef field="algorithm_derived_nd_Employment_Consultant"/>
    <FieldRef field="algorithm_derived_nd_Employment_Private"/>
    <FieldRef field="algorithm_derived_nd_Employment_PSFederal"/>
    <FieldRef field="algorithm_derived_nd_Employment_PSLocal"/>
    <FieldRef field="algorithm_derived_nd_Employment_PSState"/>
    <FieldRef field="algorithm_derived_nd_Employment_SelfEmp"/>
    <FieldRef field="algorithm_derived_nd_Employment_Volunteer"/>
    <FieldRef field="algorithm_derived_nd_Education_Bachelor"/>
    <FieldRef field="algorithm_derived_nd_Education_College"/>
    <FieldRef field="algorithm_derived_nd_Education_Doctorate"/>
    <FieldRef field="algorithm_derived_nd_Education_HSgrad"/>
    <FieldRef field="algorithm_derived_nd_Education_Master"/>
    <FieldRef field="algorithm_derived_nd_Education_Preschool"/>
    <FieldRef field="algorithm_derived_nd_Education_Professional"/>
    <FieldRef field="algorithm_derived_nd_Education_Vocational"/>
    <FieldRef field="algorithm_derived_nd_Education_Yr10"/>
    <FieldRef field="algorithm_derived_nd_Education_Yr11"/>
    <FieldRef field="algorithm_derived_nd_Education_Yr12"/>
    <FieldRef field="algorithm_derived_nd_Education_Yr1t4"/>
    <FieldRef field="algorithm_derived_nd_Education_Yr5t6"/>
    <FieldRef field="algorithm_derived_nd_Education_Yr7t8"/>
    <FieldRef field="algorithm_derived_nd_Education_Yr9"/>
    <FieldRef field="algorithm_derived_nd_Marital_Divorced"/>
    <FieldRef field="algorithm_derived_nd_Marital_Married"/>
    <FieldRef field="algorithm_derived_nd_Marital_Married.spouse.absent"/>
    <FieldRef field="algorithm_derived_nd_Marital_Unmarried"/>
    <FieldRef field="algorithm_derived_nd_Marital_Widowed"/>
    <FieldRef field="algorithm_derived_nd_Occupation_Clerical"/>
    <FieldRef field="algorithm_derived_nd_Occupation_Executive"/>
    <FieldRef field="algorithm_derived_nd_Occupation_Farming"/>
    <FieldRef field="algorithm_derived_nd_Occupation_Home"/>
    <FieldRef field="algorithm_derived_nd_Occupation_Machinist"/>
    <FieldRef field="algorithm_derived_nd_Occupation_Military"/>
    <FieldRef field="algorithm_derived_nd_Occupation_Professional"/>
    <FieldRef field="algorithm_derived_nd_Occupation_Protective"/>
    <FieldRef field="algorithm_derived_nd_Occupation_Repair"/>
    <FieldRef field="algorithm_derived_nd_Occupation_Sales"/>
    <FieldRef field="algorithm_derived_nd_Occupation_Service"/>
    <FieldRef field="algorithm_derived_nd_Occupation_Support"/>
    <FieldRef field="algorithm_derived_nd_Occupation_Transport"/>
    <FieldRef field="algorithm_derived_nc_Income"/>
    <FieldRef field="algorithm_derived_nd_Gender_Male"/>
    <FieldRef field="algorithm_derived_nc_Deductions"/>
    <FieldRef field="algorithm_derived_nc_Hours"/>
   </VectorFields>
   <VectorInstance id="1">
    <REAL-SparseArray n="45">
     <Indices> 1 2 3 4 5 6 7 8 9 10 11 12 13 14 15 16 17 18 19 20 21 22 23 24 25 26 27 28 29 30 31 32 33 34 35 36 37 38 39 40 41 42 43 44 45</Indices>
     <REAL-Entries> -0.25379240692164 0 1 0 0 0 0 0 0 0 0 0 0 0 0 0 0 0 1 0 0 0 0 0 1 0 0 0 0 0 0 0 1 0 0 0 0 0 0 0 0 -0.351536512502382 1 -0.201497514569885 -0.0486426298843416</REAL-Entries>
    </REAL-SparseArray>
   </VectorInstance>
   <VectorInstance id="2">
    <REAL-SparseArray n="45">
     <Indices> 1 2 3 4 5 6 7 8 9 10 11 12 13 14 15 16 17 18 19 20 21 22 23 24 25 26 27 28 29 30 31 32 33 34 35 36 37 38 39 40 41 42 43 44 45</Indices>
     <REAL-Entries> 2.05146164638286 0 0 0 0 0 1 0 0 1 0 0 0 0 0 0 0 0 0 0 0 0 0 0 1 0 0 0 0 0 0 0 0 0 0 0 0 1 0 0 0 -0.738158046111896 1 -0.201497514569885 -0.0486426298843416</REAL-Entries>
    </REAL-SparseArray>
   </VectorInstance>
   <VectorInstance id="3">
    <REAL-SparseArray n="45">
     <Indices> 1 2 3 4 5 6 7 8 9 10 11 12 13 14 15 16 17 18 19 20 21 22 23 24 25 26 27 28 29 30 31 32 33 34 35 36 37 38 39 40 41 42 43 44 45</Indices>
     <REAL-Entries> -0.791685019359356 0 1 0 0 0 0 0 0 1 0 0 0 0 0 0 0 0 0 0 0 0 0 0 1 0 0 0 0 1 0 0 0 0 0 0 0 0 0 0 0 -0.75865511777429 1 -0.201497514569885 1.23788040842157</REAL-Entries>
    </REAL-SparseArray>
   </VectorInstance>
   <VectorInstance id="4">
    <REAL-SparseArray n="45">
     <Indices> 1 2 3 4 5 6 7 8 9 10 11 12 13 14 15 16 17 18 19 20 21 22 23 24 25 26 27 28 29 30 31 32 33 34 35 36 37 38 39 40 41 42 43 44 45</Indices>
     <REAL-Entries> 0.20725840373926 0 0 0 0 1 0 0 1 0 0 0 0 0 0 0 0 0 0 0 0 0 0 1 0 0 0 0 0 1 0 0 0 0 0 0 0 0 0 0 0 -0.198039501520873 1 -0.201497514569885 -0.0486426298843416</REAL-Entries>
    </REAL-SparseArray>
   </VectorInstance>
   <VectorInstance id="5">
    <REAL-SparseArray n="45">
     <Indices> 1 2 3 4 5 6 7 8 9 10 11 12 13 14 15 16 17 18 19 20 21 22 23 24 25 26 27 28 29 30 31 32 33 34 35 36 37 38 39 40 41 42 43 44 45</Indices>
     <REAL-Entries> 0.20725840373926 0 0 1 0 0 0 0 1 0 0 0 0 0 0 0 0 0 0 0 0 0 0 0 1 0 0 0 0 0 0 0 0 0 0 0 0 0 0 1 0 -0.426918446102679 1 -0.201497514569885 -1.42093387074398</REAL-Entries>
    </REAL-SparseArray>
   </VectorInstance>
   <VectorInstance id="6">
    <REAL-SparseArray n="45">
     <Indices> 1 2 3 4 5 6 7 8 9 10 11 12 13 14 15 16 17 18 19 20 21 22 23 24 25 26 27 28 29 30 31 32 33 34 35 36 37 38 39 40 41 42 43 44 45</Indices>
     <REAL-Entries> 0.66830921440016 0 0 0 1 0 0 0 0 0 1 0 0 0 0 0 0 0 0 0 0 0 0 0 0 0 0 0 0 0 0 0 0 0 1 0 0 0 0 0 0 1.11112087210901 0 -0.201497514569885 -0.0486426298843416</REAL-Entries>
    </REAL-SparseArray>
   </VectorInstance>
   <VectorInstance id="7">
    <REAL-SparseArray n="45">
     <Indices> 1 2 3 4 5 6 7 8 9 10 11 12 13 14 15 16 17 18 19 20 21 22 23 24 25 26 27 28 29 30 31 32 33 34 35 36 37 38 39 40 41 42 43 44 45</Indices>
     <REAL-Entries> 0.514625610846526 0 1 0 0 0 0 0 0 0 0 0 0 0 0 1 0 0 0 0 0 0 0 0 1 0 0 0 0 0 0 0 0 0 0 0 1 0 0 0 0 -0.827783408327592 1 -0.201497514569885 -0.0486426298843416</REAL-Entries>
    </REAL-SparseArray>
   </VectorInstance>
   <VectorInstance id="8">
    <REAL-SparseArray n="45">
     <Indices> 1 2 3 4 5 6 7 8 9 10 11 12 13 14 15 16 17 18 19 20 21 22 23 24 25 26 27 28 29 30 31 32 33 34 35 36 37 38 39 40 41 42 43 44 45</Indices>
     <REAL-Entries> -0.25379240692164 0 1 0 0 0 0 0 0 1 0 0 0 0 0 0 0 0 0 0 0 0 0 0 1 0 0 0 0 0 0 0 0 0 0 0 0 0 0 1 0 -0.577916640168092 1 -0.201497514569885 0.380198382884294</REAL-Entries>
    </REAL-SparseArray>
   </VectorInstance>
   <VectorInstance id="9">
    <REAL-SparseArray n="45">
     <Indices> 1 2 3 4 5 6 7 8 9 10 11 12 13 14 15 16 17 18 19 20 21 22 23 24 25 26 27 28 29 30 31 32 33 34 35 36 37 38 39 40 41 42 43 44 45</Indices>
     <REAL-Entries> 0.0535748001856267 0 0 0 0 1 0 0 1 0 0 0 0 0 0 0 0 0 0 0 0 0 0 0 0 0 0 0 0 1 0 0 0 0 0 0 0 0 0 0 0 0.112841505202866 0 -0.201497514569885 -0.0486426298843416</REAL-Entries>
    </REAL-SparseArray>
   </VectorInstance>
   <VectorInstance id="10">
    <REAL-SparseArray n="45">
     <Indices> 1 2 3 4 5 6 7 8 9 10 11 12 13 14 15 16 17 18 19 20 21 22 23 24 25 26 27 28 29 30 31 32 33 34 35 36 37 38 39 40 41 42 43 44 45</Indices>
     <REAL-Entries> -0.561159614028906 0 1 0 0 0 0 0 1 0 0 0 0 0 0 0 0 0 0 0 0 0 0 0 0 0 0 0 0 1 0 0 0 0 0 0 0 0 0 0 0 -0.0181044508075903 1 3.20474565959097 -0.220179034991796</REAL-Entries>
    </REAL-SparseArray>
   </VectorInstance>
   <VectorInstance id="11">
    <REAL-SparseArray n="45">
     <Indices> 1 2 3 4 5 6 7 8 9 10 11 12 13 14 15 16 17 18 19 20 21 22 23 24 25 26 27 28 29 30 31 32 33 34 35 36 37 38 39 40 41 42 43 44 45</Indices>
     <REAL-Entries> 1.82093624105241 0 0 0 0 0 0 1 0 0 0 0 0 0 0 0 0 0 0 0 0 0 0 0 1 0 0 0 0 0 1 0 0 0 0 0 0 0 0 0 0 -0.476034677120405 1 -0.201497514569885 0.80903939565293</REAL-Entries>
    </REAL-SparseArray>
   </VectorInstance>
   <VectorInstance id="12">
    <REAL-SparseArray n="45">
     <Indices> 1 2 3 4 5 6 7 8 9 10 11 12 13 14 15 16 17 18 19 20 21 22 23 24 25 26 27 28 29 30 31 32 33 34 35 36 37 38 39 40 41 42 43 44 45</Indices>
     <REAL-Entries> 0.0535748001856267 0 1 0 0 0 0 0 0 0 0 1 0 0 0 0 0 0 0 0 0 0 0 0 1 0 0 0 0 1 0 0 0 0 0 0 0 0 0 0 0 -0.796359214340593 1 -0.201497514569885 -0.0486426298843416</REAL-Entries>
    </REAL-SparseArray>
   </VectorInstance>
   <VectorInstance id="13">
    <REAL-SparseArray n="45">
     <Indices> 1 2 3 4 5 6 7 8 9 10 11 12 13 14 15 16 17 18 19 20 21 22 23 24 25 26 27 28 29 30 31 32 33 34 35 36 37 38 39 40 41 42 43 44 45</Indices>
     <REAL-Entries> 1.74409443927559 0 0 0 1 0 0 0 0 0 0 0 1 0 0 0 0 0 0 0 0 0 0 0 0 0 0 0 0 0 0 0 0 0 1 0 0 0 0 0 0 -1.13743566983182 0 -0.201497514569885 -1.33516566819025</REAL-Entries>
    </REAL-SparseArray>
   </VectorInstance>
   <VectorInstance id="14">
    <REAL-SparseArray n="45">
     <Indices> 1 2 3 4 5 6 7 8 9 10 11 12 13 14 15 16 17 18 19 20 21 22 23 24 25 26 27 28 29 30 31 32 33 34 35 36 37 38 39 40 41 42 43 44 45</Indices>
     <REAL-Entries> 0.360942007292893 0 1 0 0 0 0 0 0 1 0 0 0 0 0 0 0 0 0 0 0 0 0 0 1 0 0 0 0 0 0 0 0 0 0 0 1 0 0 0 0 -0.742159539652854 1 -0.201497514569885 -0.220179034991796</REAL-Entries>
    </REAL-SparseArray>
   </VectorInstance>
   <VectorInstance id="15">
    <REAL-SparseArray n="45">
     <Indices> 1 2 3 4 5 6 7 8 9 10 11 12 13 14 15 16 17 18 19 20 21 22 23 24 25 26 27 28 29 30 31 32 33 34 35 36 37 38 39 40 41 42 43 44 45</Indices>
     <REAL-Entries> 1.97461984460604 0 1 0 0 0 0 0 0 0 0 1 0 0 0 0 0 0 0 0 0 0 0 0 1 0 0 0 0 0 0 0 1 0 0 0 0 0 0 0 0 -0.327346604424707 1 -0.201497514569885 -0.0486426298843416</REAL-Entries>
    </REAL-SparseArray>
   </VectorInstance>
   <VectorInstance id="16">
    <REAL-SparseArray n="45">
     <Indices> 1 2 3 4 5 6 7 8 9 10 11 12 13 14 15 16 17 18 19 20 21 22 23 24 25 26 27 28 29 30 31 32 33 34 35 36 37 38 39 40 41 42 43 44 45</Indices>
     <REAL-Entries> -0.714843217582539 0 1 0 0 0 0 0 0 0 0 0 0 0 0 1 0 0 0 0 0 0 0 0 1 0 0 0 0 0 0 0 0 0 0 0 0 0 0 0 1 -0.846658415764676 1 -0.201497514569885 1.23788040842157</REAL-Entries>
    </REAL-SparseArray>
   </VectorInstance>
   <VectorInstance id="17">
    <REAL-SparseArray n="45">
     <Indices> 1 2 3 4 5 6 7 8 9 10 11 12 13 14 15 16 17 18 19 20 21 22 23 24 25 26 27 28 29 30 31 32 33 34 35 36 37 38 39 40 41 42 43 44 45</Indices>
     <REAL-Entries> -0.791685019359356 0 1 0 0 0 0 0 1 0 0 0 0 0 0 0 0 0 0 0 0 0 0 0 0 0 0 0 0 1 0 0 0 0 0 0 0 0 0 0 0 -0.112867067210327 0 -0.201497514569885 1.6667214211902</REAL-Entries>
    </REAL-SparseArray>
   </VectorInstance>
   <VectorInstance id="18">
    <REAL-SparseArray n="45">
     <Indices> 1 2 3 4 5 6 7 8 9 10 11 12 13 14 15 16 17 18 19 20 21 22 23 24 25 26 27 28 29 30 31 32 33 34 35 36 37 38 39 40 41 42 43 44 45</Indices>
     <REAL-Entries> 1.51356903394514 0 0 0 0 1 0 0 0 0 1 0 0 0 0 0 0 0 0 0 0 0 0 0 1 0 0 0 0 0 0 0 0 0 1 0 0 0 0 0 0 -0.73400530914441 1 -0.201497514569885 -0.0486426298843416</REAL-Entries>
    </REAL-SparseArray>
   </VectorInstance>
   <VectorInstance id="19">
    <REAL-SparseArray n="45">
     <Indices> 1 2 3 4 5 6 7 8 9 10 11 12 13 14 15 16 17 18 19 20 21 22 23 24 25 26 27 28 29 30 31 32 33 34 35 36 37 38 39 40 41 42 43 44 45</Indices>
     <REAL-Entries> 1.28304362861469 0 1 0 0 0 0 0 0 1 0 0 0 0 0 0 0 0 0 0 0 0 0 0 1 0 0 0 0 0 0 0 0 0 0 0 1 0 0 0 0 -0.650280162499865 1 -0.201497514569885 -0.0486426298843416</REAL-Entries>
    </REAL-SparseArray>
   </VectorInstance>
   <VectorInstance id="20">
    <REAL-SparseArray n="45">
     <Indices> 1 2 3 4 5 6 7 8 9 10 11 12 13 14 15 16 17 18 19 20 21 22 23 24 25 26 27 28 29 30 31 32 33 34 35 36 37 38 39 40 41 42 43 44 45</Indices>
     <REAL-Entries> 1.12936002506106 0 0 0 1 0 0 0 0 0 0 1 0 0 0 0 0 0 0 0 0 0 0 0 1 0 0 0 0 1 0 0 0 0 0 0 0 0 0 0 0 -0.406660436630604 1 -0.201497514569885 1.6667214211902</REAL-Entries>
    </REAL-SparseArray>
   </VectorInstance>
   <VectorInstance id="21">
    <REAL-SparseArray n="45">
     <Indices> 1 2 3 4 5 6 7 8 9 10 11 12 13 14 15 16 17 18 19 20 21 22 23 24 25 26 27 28 29 30 31 32 33 34 35 36 37 38 39 40 41 42 43 44 45</Indices>
     <REAL-Entries> -0.330634208698456 0 1 0 0 0 0 0 0 0 0 0 0 0 0 1 0 0 0 0 0 0 0 0 1 0 0 0 0 1 0 0 0 0 0 0 0 0 0 0 0 -0.695875320272665 1 -0.201497514569885 -0.0486426298843416</REAL-Entries>
    </REAL-SparseArray>
   </VectorInstance>
   <VectorInstance id="22">
    <REAL-SparseArray n="45">
     <Indices> 1 2 3 4 5 6 7 8 9 10 11 12 13 14 15 16 17 18 19 20 21 22 23 24 25 26 27 28 29 30 31 32 33 34 35 36 37 38 39 40 41 42 43 44 45</Indices>
     <REAL-Entries> -0.791685019359356 0 1 0 0 0 0 0 0 1 0 0 0 0 0 0 0 0 0 0 0 0 0 0 1 0 0 0 0 0 0 0 0 0 0 0 0 1 0 0 0 -0.676654634074189 1 -0.201497514569885 -0.0486426298843416</REAL-Entries>
    </REAL-SparseArray>
   </VectorInstance>
   <VectorInstance id="23">
    <REAL-SparseArray n="45">
     <Indices> 1 2 3 4 5 6 7 8 9 10 11 12 13 14 15 16 17 18 19 20 21 22 23 24 25 26 27 28 29 30 31 32 33 34 35 36 37 38 39 40 41 42 43 44 45</Indices>
     <REAL-Entries> 0.898834619730609 0 1 0 0 0 0 0 0 0 0 1 0 0 0 0 0 0 0 0 0 0 0 0 1 0 0 0 0 0 0 0 0 0 0 0 0 1 0 0 0 -0.53657107829343 1 -0.201497514569885 0.637502990545476</REAL-Entries>
    </REAL-SparseArray>
   </VectorInstance>
   <VectorInstance id="24">
    <REAL-SparseArray n="45">
     <Indices> 1 2 3 4 5 6 7 8 9 10 11 12 13 14 15 16 17 18 19 20 21 22 23 24 25 26 27 28 29 30 31 32 33 34 35 36 37 38 39 40 41 42 43 44 45</Indices>
     <REAL-Entries> 1.74409443927559 0 0 0 0 0 1 0 0 0 0 0 1 0 0 0 0 0 0 0 0 0 0 0 0 0 0 1 0 1 0 0 0 0 0 0 0 0 0 0 0 0.111259476002225 0 -0.201497514569885 5.01168132078556</REAL-Entries>
    </REAL-SparseArray>
   </VectorInstance>
   <VectorInstance id="25">
    <REAL-SparseArray n="45">
     <Indices> 1 2 3 4 5 6 7 8 9 10 11 12 13 14 15 16 17 18 19 20 21 22 23 24 25 26 27 28 29 30 31 32 33 34 35 36 37 38 39 40 41 42 43 44 45</Indices>
     <REAL-Entries> 0.360942007292893 0 1 0 0 0 0 0 0 1 0 0 0 0 0 0 0 0 0 0 0 0 0 0 1 0 0 0 0 0 0 0 0 0 1 0 0 0 0 0 0 -0.815058153765959 1 -0.201497514569885 -0.0486426298843416</REAL-Entries>
    </REAL-SparseArray>
   </VectorInstance>
   <VectorInstance id="26">
    <REAL-SparseArray n="45">
     <Indices> 1 2 3 4 5 6 7 8 9 10 11 12 13 14 15 16 17 18 19 20 21 22 23 24 25 26 27 28 29 30 31 32 33 34 35 36 37 38 39 40 41 42 43 44 45</Indices>
     <REAL-Entries> 1.89777804282923 0 1 0 0 0 0 0 0 1 0 0 0 0 0 0 0 0 0 0 0 0 0 0 1 0 0 0 0 0 0 0 0 0 0 0 1 0 0 0 0 -0.743914336486834 1 -0.201497514569885 0.380198382884294</REAL-Entries>
    </REAL-SparseArray>
   </VectorInstance>
   <VectorInstance id="27">
    <REAL-SparseArray n="45">
     <Indices> 1 2 3 4 5 6 7 8 9 10 11 12 13 14 15 16 17 18 19 20 21 22 23 24 25 26 27 28 29 30 31 32 33 34 35 36 37 38 39 40 41 42 43 44 45</Indices>
     <REAL-Entries> -0.561159614028906 0 1 0 0 0 0 0 0 1 0 0 0 0 0 0 0 0 0 0 0 0 0 0 1 0 0 0 1 0 0 0 0 0 0 0 0 0 0 0 0 -0.894233800564127 1 -0.201497514569885 -0.0486426298843416</REAL-Entries>
    </REAL-SparseArray>
   </VectorInstance>
   <VectorInstance id="28">
    <REAL-SparseArray n="45">
     <Indices> 1 2 3 4 5 6 7 8 9 10 11 12 13 14 15 16 17 18 19 20 21 22 23 24 25 26 27 28 29 30 31 32 33 34 35 36 37 38 39 40 41 42 43 44 45</Indices>
     <REAL-Entries> 0.0535748001856267 0 1 0 0 0 0 0 0 0 0 1 0 0 0 0 0 0 0 0 0 0 0 0 1 0 0 0 1 0 0 0 0 0 0 0 0 0 0 0 0 2.56636675484166 0 -0.201497514569885 -1.33516566819025</REAL-Entries>
    </REAL-SparseArray>
   </VectorInstance>
   <VectorInstance id="29">
    <REAL-SparseArray n="45">
     <Indices> 1 2 3 4 5 6 7 8 9 10 11 12 13 14 15 16 17 18 19 20 21 22 23 24 25 26 27 28 29 30 31 32 33 34 35 36 37 38 39 40 41 42 43 44 45</Indices>
     <REAL-Entries> 0.130416601962443 1 0 0 0 0 0 0 1 0 0 0 0 0 0 0 0 0 0 0 0 0 0 0 1 0 0 0 0 0 0 0 0 0 0 0 1 0 0 0 0 -0.713607679317485 1 -0.201497514569885 0.80903939565293</REAL-Entries>
    </REAL-SparseArray>
   </VectorInstance>
   <VectorInstance id="30">
    <REAL-SparseArray n="45">
     <Indices> 1 2 3 4 5 6 7 8 9 10 11 12 13 14 15 16 17 18 19 20 21 22 23 24 25 26 27 28 29 30 31 32 33 34 35 36 37 38 39 40 41 42 43 44 45</Indices>
     <REAL-Entries> -0.407476010475273 0 1 0 0 0 0 0 1 0 0 0 0 0 0 0 0 0 0 0 0 0 0 0 1 0 0 0 0 0 0 0 0 0 1 0 0 0 0 0 0 -1.07668904890561 1 -0.201497514569885 -0.0486426298843416</REAL-Entries>
    </REAL-SparseArray>
   </VectorInstance>
   <VectorInstance id="31">
    <REAL-SparseArray n="45">
     <Indices> 1 2 3 4 5 6 7 8 9 10 11 12 13 14 15 16 17 18 19 20 21 22 23 24 25 26 27 28 29 30 31 32 33 34 35 36 37 38 39 40 41 42 43 44 45</Indices>
     <REAL-Entries> 0.0535748001856267 0 1 0 0 0 0 0 1 0 0 0 0 0 0 0 0 0 0 0 0 0 0 0 1 0 0 0 0 1 0 0 0 0 0 0 0 0 0 0 0 -0.895041675793117 1 -0.201497514569885 0.380198382884294</REAL-Entries>
    </REAL-SparseArray>
   </VectorInstance>
   <VectorInstance id="32">
    <REAL-SparseArray n="45">
     <Indices> 1 2 3 4 5 6 7 8 9 10 11 12 13 14 15 16 17 18 19 20 21 22 23 24 25 26 27 28 29 30 31 32 33 34 35 36 37 38 39 40 41 42 43 44 45</Indices>
     <REAL-Entries> 1.82093624105241 0 0 0 0 1 0 0 1 0 0 0 0 0 0 0 0 0 0 0 0 0 0 1 0 0 0 0 0 0 0 0 0 0 1 0 0 0 0 0 0 -0.0967180288185557 1 -0.201497514569885 -0.0486426298843416</REAL-Entries>
    </REAL-SparseArray>
   </VectorInstance>
   <VectorInstance id="33">
    <REAL-SparseArray n="45">
     <Indices> 1 2 3 4 5 6 7 8 9 10 11 12 13 14 15 16 17 18 19 20 21 22 23 24 25 26 27 28 29 30 31 32 33 34 35 36 37 38 39 40 41 42 43 44 45</Indices>
     <REAL-Entries> 0.43778380906971 0 0 0 1 0 0 0 1 0 0 0 0 0 0 0 0 0 0 0 0 0 0 1 0 0 0 0 0 0 0 0 0 0 1 0 0 0 0 0 0 2.2768559851033 0 -0.201497514569885 1.6667214211902</REAL-Entries>
    </REAL-SparseArray>
   </VectorInstance>
   <VectorInstance id="34">
    <REAL-SparseArray n="45">
     <Indices> 1 2 3 4 5 6 7 8 9 10 11 12 13 14 15 16 17 18 19 20 21 22 23 24 25 26 27 28 29 30 31 32 33 34 35 36 37 38 39 40 41 42 43 44 45</Indices>
     <REAL-Entries> 0.284100205516077 0 1 0 0 0 0 0 1 0 0 0 0 0 0 0 0 0 0 0 0 0 0 0 1 0 0 0 0 1 0 0 0 0 0 0 0 0 0 0 0 -0.250435447677814 1 -0.201497514569885 -0.0486426298843416</REAL-Entries>
    </REAL-SparseArray>
   </VectorInstance>
   <VectorInstance id="35">
    <REAL-SparseArray n="45">
     <Indices> 1 2 3 4 5 6 7 8 9 10 11 12 13 14 15 16 17 18 19 20 21 22 23 24 25 26 27 28 29 30 31 32 33 34 35 36 37 38 39 40 41 42 43 44 45</Indices>
     <REAL-Entries> -0.638001415805723 0 1 0 0 0 0 0 0 0 0 1 0 0 0 0 0 0 0 0 0 0 0 0 1 0 0 0 0 1 0 0 0 0 0 0 0 0 0 0 0 -0.398657306053976 1 -0.201497514569885 0.80903939565293</REAL-Entries>
    </REAL-SparseArray>
   </VectorInstance>
   <VectorInstance id="36">
    <REAL-SparseArray n="45">
     <Indices> 1 2 3 4 5 6 7 8 9 10 11 12 13 14 15 16 17 18 19 20 21 22 23 24 25 26 27 28 29 30 31 32 33 34 35 36 37 38 39 40 41 42 43 44 45</Indices>
     <REAL-Entries> -0.25379240692164 0 0 0 0 0 1 0 1 0 0 0 0 0 0 0 0 0 0 0 0 0 0 0 0 0 1 0 0 0 0 0 0 0 1 0 0 0 0 0 0 -0.597915211200733 0 -0.201497514569885 0.80903939565293</REAL-Entries>
    </REAL-SparseArray>
   </VectorInstance>
   <VectorInstance id="37">
    <REAL-SparseArray n="45">
     <Indices> 1 2 3 4 5 6 7 8 9 10 11 12 13 14 15 16 17 18 19 20 21 22 23 24 25 26 27 28 29 30 31 32 33 34 35 36 37 38 39 40 41 42 43 44 45</Indices>
     <REAL-Entries> 0.284100205516077 0 1 0 0 0 0 0 1 0 0 0 0 0 0 0 0 0 0 0 0 0 0 0 0 1 0 0 0 0 0 0 0 0 0 0 0 0 0 0 1 0.183427271546726 1 -0.201497514569885 1.6667214211902</REAL-Entries>
    </REAL-SparseArray>
   </VectorInstance>
   <VectorInstance id="38">
    <REAL-SparseArray n="45">
     <Indices> 1 2 3 4 5 6 7 8 9 10 11 12 13 14 15 16 17 18 19 20 21 22 23 24 25 26 27 28 29 30 31 32 33 34 35 36 37 38 39 40 41 42 43 44 45</Indices>
     <REAL-Entries> -0.330634208698456 0 1 0 0 0 0 0 0 0 0 0 0 0 1 0 0 0 0 0 0 0 0 0 0 0 0 0 0 0 0 0 0 0 1 0 0 0 0 0 0 -0.197578166021548 0 -0.201497514569885 -0.0486426298843416</REAL-Entries>
    </REAL-SparseArray>
   </VectorInstance>
   <VectorInstance id="39">
    <REAL-SparseArray n="45">
     <Indices> 1 2 3 4 5 6 7 8 9 10 11 12 13 14 15 16 17 18 19 20 21 22 23 24 25 26 27 28 29 30 31 32 33 34 35 36 37 38 39 40 41 42 43 44 45</Indices>
     <REAL-Entries> 1.20620182683788 0 0 0 1 0 0 0 0 0 0 0 1 0 0 0 0 0 0 0 0 0 0 1 0 0 0 0 0 0 0 0 0 0 1 0 0 0 0 0 0 0.16328735822269 0 -0.201497514569885 -0.0486426298843416</REAL-Entries>
    </REAL-SparseArray>
   </VectorInstance>
   <VectorInstance id="40">
    <REAL-SparseArray n="45">
     <Indices> 1 2 3 4 5 6 7 8 9 10 11 12 13 14 15 16 17 18 19 20 21 22 23 24 25 26 27 28 29 30 31 32 33 34 35 36 37 38 39 40 41 42 43 44 45</Indices>
     <REAL-Entries> 0.0535748001856267 0 1 0 0 0 0 0 1 0 0 0 0 0 0 0 0 0 0 0 0 0 0 0 0 0 0 0 0 1 0 0 0 0 0 0 0 0 0 0 0 -0.389725621195503 1 -0.201497514569885 0.380198382884294</REAL-Entries>
    </REAL-SparseArray>
   </VectorInstance>
   <VectorInstance id="41">
    <REAL-SparseArray n="45">
     <Indices> 1 2 3 4 5 6 7 8 9 10 11 12 13 14 15 16 17 18 19 20 21 22 23 24 25 26 27 28 29 30 31 32 33 34 35 36 37 38 39 40 41 42 43 44 45</Indices>
     <REAL-Entries> 0.130416601962443 0 0 0 0 0 1 0 1 0 0 0 0 0 0 0 0 0 0 0 0 0 0 0 1 0 0 0 0 0 0 0 0 0 1 0 0 0 0 0 0 -0.778660146068974 1 -0.201497514569885 1.6667214211902</REAL-Entries>
    </REAL-SparseArray>
   </VectorInstance>
   <VectorInstance id="42">
    <REAL-SparseArray n="45">
     <Indices> 1 2 3 4 5 6 7 8 9 10 11 12 13 14 15 16 17 18 19 20 21 22 23 24 25 26 27 28 29 30 31 32 33 34 35 36 37 38 39 40 41 42 43 44 45</Indices>
     <REAL-Entries> 1.43672723216833 0 0 0 0 0 1 0 0 1 0 0 0 0 0 0 0 0 0 0 0 0 0 0 1 0 0 0 0 1 0 0 0 0 0 0 0 0 0 0 0 -1.16249142500217 1 -0.201497514569885 -0.0486426298843416</REAL-Entries>
    </REAL-SparseArray>
   </VectorInstance>
   <VectorInstance id="43">
    <REAL-SparseArray n="45">
     <Indices> 1 2 3 4 5 6 7 8 9 10 11 12 13 14 15 16 17 18 19 20 21 22 23 24 25 26 27 28 29 30 31 32 33 34 35 36 37 38 39 40 41 42 43 44 45</Indices>
     <REAL-Entries> 0.898834619730609 0 1 0 0 0 0 0 0 1 0 0 0 0 0 0 0 0 0 0 0 0 0 0 1 0 0 0 0 0 0 0 0 0 0 0 0 1 0 0 0 -0.73116956664436 1 -0.201497514569885 1.6667214211902</REAL-Entries>
    </REAL-SparseArray>
   </VectorInstance>
   <VectorInstance id="44">
    <REAL-SparseArray n="45">
     <Indices> 1 2 3 4 5 6 7 8 9 10 11 12 13 14 15 16 17 18 19 20 21 22 23 24 25 26 27 28 29 30 31 32 33 34 35 36 37 38 39 40 41 42 43 44 45</Indices>
     <REAL-Entries> 0.130416601962443 0 1 0 0 0 0 0 0 1 0 0 0 0 0 0 0 0 0 0 0 0 0 0 1 0 0 0 0 0 0 0 1 0 0 0 0 0 0 0 0 -0.645174333654768 1 -0.201497514569885 -0.0486426298843416</REAL-Entries>
    </REAL-SparseArray>
   </VectorInstance>
   <VectorInstance id="45">
    <REAL-SparseArray n="45">
     <Indices> 1 2 3 4 5 6 7 8 9 10 11 12 13 14 15 16 17 18 19 20 21 22 23 24 25 26 27 28 29 30 31 32 33 34 35 36 37 38 39 40 41 42 43 44 45</Indices>
     <REAL-Entries> 0.284100205516077 1 0 0 0 0 0 0 0 0 1 0 0 0 0 0 0 0 0 0 0 0 0 0 0 0 0 0 0 0 0 0 0 0 1 0 0 0 0 0 0 -0.138434811513359 0 -0.201497514569885 0.380198382884294</REAL-Entries>
    </REAL-SparseArray>
   </VectorInstance>
   <VectorInstance id="46">
    <REAL-SparseArray n="45">
     <Indices> 1 2 3 4 5 6 7 8 9 10 11 12 13 14 15 16 17 18 19 20 21 22 23 24 25 26 27 28 29 30 31 32 33 34 35 36 37 38 39 40 41 42 43 44 45</Indices>
     <REAL-Entries> -0.0232670015911899 0 0 0 0 1 0 0 1 0 0 0 0 0 0 0 0 0 0 0 0 0 0 0 0 0 0 0 0 1 0 0 0 0 0 0 0 0 0 0 0 -0.361990532761272 1 -0.201497514569885 -0.0486426298843416</REAL-Entries>
    </REAL-SparseArray>
   </VectorInstance>
   <VectorInstance id="47">
    <REAL-SparseArray n="45">
     <Indices> 1 2 3 4 5 6 7 8 9 10 11 12 13 14 15 16 17 18 19 20 21 22 23 24 25 26 27 28 29 30 31 32 33 34 35 36 37 38 39 40 41 42 43 44 45</Indices>
     <REAL-Entries> -0.407476010475273 0 1 0 0 0 0 0 0 1 0 0 0 0 0 0 0 0 0 0 0 0 0 0 1 0 0 0 0 0 0 0 0 0 1 0 0 0 0 0 0 -0.815210545150184 1 -0.201497514569885 -0.0486426298843416</REAL-Entries>
    </REAL-SparseArray>
   </VectorInstance>
   <VectorInstance id="48">
    <REAL-SparseArray n="45">
     <Indices> 1 2 3 4 5 6 7 8 9 10 11 12 13 14 15 16 17 18 19 20 21 22 23 24 25 26 27 28 29 30 31 32 33 34 35 36 37 38 39 40 41 42 43 44 45</Indices>
     <REAL-Entries> 0.898834619730609 0 1 0 0 0 0 0 1 0 0 0 0 0 0 0 0 0 0 0 0 0 0 1 0 0 0 0 0 0 0 0 0 0 1 0 0 0 0 0 0 0.706213233360773 0 -0.201497514569885 -0.39171544009925</REAL-Entries>
    </REAL-SparseArray>
   </VectorInstance>
   <VectorInstance id="49">
    <REAL-SparseArray n="45">
     <Indices> 1 2 3 4 5 6 7 8 9 10 11 12 13 14 15 16 17 18 19 20 21 22 23 24 25 26 27 28 29 30 31 32 33 34 35 36 37 38 39 40 41 42 43 44 45</Indices>
     <REAL-Entries> 0.514625610846526 0 0 0 1 0 0 0 0 0 0 0 1 0 0 0 0 0 0 0 0 0 0 1 0 0 0 0 0 0 0 0 0 0 1 0 0 0 0 0 0 -0.846412178838753 1 -0.201497514569885 -0.0486426298843416</REAL-Entries>
    </REAL-SparseArray>
   </VectorInstance>
   <VectorInstance id="50">
    <REAL-SparseArray n="45">
     <Indices> 1 2 3 4 5 6 7 8 9 10 11 12 13 14 15 16 17 18 19 20 21 22 23 24 25 26 27 28 29 30 31 32 33 34 35 36 37 38 39 40 41 42 43 44 45</Indices>
     <REAL-Entries> 0.514625610846526 1 0 0 0 0 0 0 0 0 0 1 0 0 0 0 0 0 0 0 0 0 0 0 1 0 0 0 0 1 0 0 0 0 0 0 0 0 0 0 0 -1.04796226851622 1 -0.201497514569885 0.80903939565293</REAL-Entries>
    </REAL-SparseArray>
   </VectorInstance>
   <VectorInstance id="51">
    <REAL-SparseArray n="45">
     <Indices> 1 2 3 4 5 6 7 8 9 10 11 12 13 14 15 16 17 18 19 20 21 22 23 24 25 26 27 28 29 30 31 32 33 34 35 36 37 38 39 40 41 42 43 44 45</Indices>
     <REAL-Entries> -0.868526821136173 0 1 0 0 0 0 0 0 1 0 0 0 0 0 0 0 0 0 0 0 0 0 0 1 0 0 0 0 0 0 0 0 0 0 0 0 1 0 0 0 -0.359928226759313 1 -0.201497514569885 0.80903939565293</REAL-Entries>
    </REAL-SparseArray>
   </VectorInstance>
   <VectorInstance id="52">
    <REAL-SparseArray n="45">
     <Indices> 1 2 3 4 5 6 7 8 9 10 11 12 13 14 15 16 17 18 19 20 21 22 23 24 25 26 27 28 29 30 31 32 33 34 35 36 37 38 39 40 41 42 43 44 45</Indices>
     <REAL-Entries> 1.28304362861469 0 1 0 0 0 0 0 0 1 0 0 0 0 0 0 0 0 0 0 0 0 0 0 1 0 0 0 0 0 0 0 0 0 1 0 0 0 0 0 0 -0.703782309392201 1 -0.201497514569885 -0.0486426298843416</REAL-Entries>
    </REAL-SparseArray>
   </VectorInstance>
   <VectorInstance id="53">
    <REAL-SparseArray n="45">
     <Indices> 1 2 3 4 5 6 7 8 9 10 11 12 13 14 15 16 17 18 19 20 21 22 23 24 25 26 27 28 29 30 31 32 33 34 35 36 37 38 39 40 41 42 43 44 45</Indices>
     <REAL-Entries> -0.868526821136173 0 1 0 0 0 0 0 0 0 0 0 0 0 0 0 0 0 0 0 0 0 1 0 1 0 0 0 0 0 0 0 0 0 0 1 0 0 0 0 0 -0.809523993205315 1 -0.201497514569885 -0.0486426298843416</REAL-Entries>
    </REAL-SparseArray>
   </VectorInstance>
   <VectorInstance id="54">
    <REAL-SparseArray n="45">
     <Indices> 1 2 3 4 5 6 7 8 9 10 11 12 13 14 15 16 17 18 19 20 21 22 23 24 25 26 27 28 29 30 31 32 33 34 35 36 37 38 39 40 41 42 43 44 45</Indices>
     <REAL-Entries> 0.43778380906971 0 1 0 0 0 0 0 0 1 0 0 0 0 0 0 0 0 0 0 0 0 0 0 0 0 1 0 0 1 0 0 0 0 0 0 0 0 0 0 0 -0.0552618325208832 1 3.67234595747978 0.380198382884294</REAL-Entries>
    </REAL-SparseArray>
   </VectorInstance>
   <VectorInstance id="55">
    <REAL-SparseArray n="45">
     <Indices> 1 2 3 4 5 6 7 8 9 10 11 12 13 14 15 16 17 18 19 20 21 22 23 24 25 26 27 28 29 30 31 32 33 34 35 36 37 38 39 40 41 42 43 44 45</Indices>
     <REAL-Entries> -0.868526821136173 0 1 0 0 0 0 0 0 0 0 0 0 0 0 0 0 0 0 0 0 0 0 0 1 0 0 0 1 0 0 0 0 0 0 0 0 0 0 0 0 1.64587974570927 0 -0.201497514569885 -1.33516566819025</REAL-Entries>
    </REAL-SparseArray>
   </VectorInstance>
   <VectorInstance id="56">
    <REAL-SparseArray n="45">
     <Indices> 1 2 3 4 5 6 7 8 9 10 11 12 13 14 15 16 17 18 19 20 21 22 23 24 25 26 27 28 29 30 31 32 33 34 35 36 37 38 39 40 41 42 43 44 45</Indices>
     <REAL-Entries> 0.975676421507426 0 0 0 1 0 0 0 0 0 0 0 0 0 0 0 0 0 0 0 0 0 1 0 1 0 0 0 0 0 0 0 0 0 0 0 0 0 0 0 1 -0.489303489651382 1 -0.201497514569885 -0.0486426298843416</REAL-Entries>
    </REAL-SparseArray>
   </VectorInstance>
   <VectorInstance id="57">
    <REAL-SparseArray n="45">
     <Indices> 1 2 3 4 5 6 7 8 9 10 11 12 13 14 15 16 17 18 19 20 21 22 23 24 25 26 27 28 29 30 31 32 33 34 35 36 37 38 39 40 41 42 43 44 45</Indices>
     <REAL-Entries> 2.20514524993649 0 0 0 0 1 0 0 0 0 1 0 0 0 0 0 0 0 0 0 0 0 0 0 1 0 0 0 0 0 0 0 0 0 1 0 0 0 0 0 0 -0.983036938079626 1 -0.201497514569885 -2.4501523013887</REAL-Entries>
    </REAL-SparseArray>
   </VectorInstance>
   <VectorInstance id="58">
    <REAL-SparseArray n="45">
     <Indices> 1 2 3 4 5 6 7 8 9 10 11 12 13 14 15 16 17 18 19 20 21 22 23 24 25 26 27 28 29 30 31 32 33 34 35 36 37 38 39 40 41 42 43 44 45</Indices>
     <REAL-Entries> 1.05251822328424 0 0 0 0 0 1 0 1 0 0 0 0 0 0 0 0 0 0 0 0 0 0 0 1 0 0 0 0 0 0 0 0 0 0 0 0 1 0 0 0 -0.622554688211343 1 -0.201497514569885 1.23788040842157</REAL-Entries>
    </REAL-SparseArray>
   </VectorInstance>
   <VectorInstance id="59">
    <REAL-SparseArray n="45">
     <Indices> 1 2 3 4 5 6 7 8 9 10 11 12 13 14 15 16 17 18 19 20 21 22 23 24 25 26 27 28 29 30 31 32 33 34 35 36 37 38 39 40 41 42 43 44 45</Indices>
     <REAL-Entries> 0.130416601962443 0 1 0 0 0 0 0 0 1 0 0 0 0 0 0 0 0 0 0 0 0 0 0 1 0 0 0 0 0 0 0 0 0 1 0 0 0 0 0 0 4.31435031639785 0 -0.201497514569885 -0.0486426298843416</REAL-Entries>
    </REAL-SparseArray>
   </VectorInstance>
   <VectorInstance id="60">
    <REAL-SparseArray n="45">
     <Indices> 1 2 3 4 5 6 7 8 9 10 11 12 13 14 15 16 17 18 19 20 21 22 23 24 25 26 27 28 29 30 31 32 33 34 35 36 37 38 39 40 41 42 43 44 45</Indices>
     <REAL-Entries> 0.20725840373926 0 1 0 0 0 0 0 1 0 0 0 0 0 0 0 0 0 0 0 0 0 0 0 1 0 0 0 0 0 0 0 0 0 1 0 0 0 0 0 0 -0.848020037087567 1 -0.201497514569885 -0.0486426298843416</REAL-Entries>
    </REAL-SparseArray>
   </VectorInstance>
   <VectorInstance id="61">
    <REAL-SparseArray n="45">
     <Indices> 1 2 3 4 5 6 7 8 9 10 11 12 13 14 15 16 17 18 19 20 21 22 23 24 25 26 27 28 29 30 31 32 33 34 35 36 37 38 39 40 41 42 43 44 45</Indices>
     <REAL-Entries> 1.66725263749878 1 0 0 0 0 0 0 0 0 0 1 0 0 0 0 0 0 0 0 0 0 0 0 1 0 0 0 0 0 0 0 0 0 0 0 0 1 0 0 0 -0.692496880771542 1 -0.201497514569885 0.380198382884294</REAL-Entries>
    </REAL-SparseArray>
   </VectorInstance>
   <VectorInstance id="62">
    <REAL-SparseArray n="45">
     <Indices> 1 2 3 4 5 6 7 8 9 10 11 12 13 14 15 16 17 18 19 20 21 22 23 24 25 26 27 28 29 30 31 32 33 34 35 36 37 38 39 40 41 42 43 44 45</Indices>
     <REAL-Entries> 0.0535748001856267 0 1 0 0 0 0 0 0 0 0 1 0 0 0 0 0 0 0 0 0 0 0 0 1 0 0 0 0 0 0 0 1 0 0 0 0 0 0 0 0 -0.750831068598333 1 3.81125650622499 -0.0486426298843416</REAL-Entries>
    </REAL-SparseArray>
   </VectorInstance>
   <VectorInstance id="63">
    <REAL-SparseArray n="45">
     <Indices> 1 2 3 4 5 6 7 8 9 10 11 12 13 14 15 16 17 18 19 20 21 22 23 24 25 26 27 28 29 30 31 32 33 34 35 36 37 38 39 40 41 42 43 44 45</Indices>
     <REAL-Entries> 1.20620182683788 0 1 0 0 0 0 0 0 0 0 0 1 0 0 0 0 0 0 0 0 0 0 0 1 0 0 0 0 0 0 0 0 0 1 0 0 0 0 0 0 -0.783387005379477 1 -0.201497514569885 1.6667214211902</REAL-Entries>
    </REAL-SparseArray>
   </VectorInstance>
   <VectorInstance id="64">
    <REAL-SparseArray n="45">
     <Indices> 1 2 3 4 5 6 7 8 9 10 11 12 13 14 15 16 17 18 19 20 21 22 23 24 25 26 27 28 29 30 31 32 33 34 35 36 37 38 39 40 41 42 43 44 45</Indices>
     <REAL-Entries> -0.714843217582539 0 1 0 0 0 0 0 0 0 0 1 0 0 0 0 0 0 0 0 0 0 0 0 1 0 0 0 0 0 0 0 0 0 0 0 0 1 0 0 0 3.5122706953347 0 -0.201497514569885 -1.93554308606634</REAL-Entries>
    </REAL-SparseArray>
   </VectorInstance>
   <VectorInstance id="65">
    <REAL-SparseArray n="45">
     <Indices> 1 2 3 4 5 6 7 8 9 10 11 12 13 14 15 16 17 18 19 20 21 22 23 24 25 26 27 28 29 30 31 32 33 34 35 36 37 38 39 40 41 42 43 44 45</Indices>
     <REAL-Entries> 0.514625610846526 0 1 0 0 0 0 0 0 0 0 0 0 0 0 0 0 0 0 0 0 0 1 0 1 0 0 0 0 0 0 0 0 0 0 0 0 0 0 0 0 -0.356871358907952 1 -0.201497514569885 -0.0486426298843416</REAL-Entries>
    </REAL-SparseArray>
   </VectorInstance>
   <VectorInstance id="66">
    <REAL-SparseArray n="45">
     <Indices> 1 2 3 4 5 6 7 8 9 10 11 12 13 14 15 16 17 18 19 20 21 22 23 24 25 26 27 28 29 30 31 32 33 34 35 36 37 38 39 40 41 42 43 44 45</Indices>
     <REAL-Entries> -0.868526821136173 0 1 0 0 0 0 0 0 1 0 0 0 0 0 0 0 0 0 0 0 0 0 0 1 0 0 0 0 0 0 0 0 0 0 0 1 0 0 0 0 -0.810345069947815 1 -0.201497514569885 1.6667214211902</REAL-Entries>
    </REAL-SparseArray>
   </VectorInstance>
   <VectorInstance id="67">
    <REAL-SparseArray n="45">
     <Indices> 1 2 3 4 5 6 7 8 9 10 11 12 13 14 15 16 17 18 19 20 21 22 23 24 25 26 27 28 29 30 31 32 33 34 35 36 37 38 39 40 41 42 43 44 45</Indices>
     <REAL-Entries> -0.714843217582539 0 1 0 0 0 0 0 1 0 0 0 0 0 0 0 0 0 0 0 0 0 0 0 1 0 0 0 0 0 0 0 0 0 0 0 1 0 0 0 0 -0.76865095941752 1 -0.201497514569885 0.380198382884294</REAL-Entries>
    </REAL-SparseArray>
   </VectorInstance>
   <VectorInstance id="68">
    <REAL-SparseArray n="45">
     <Indices> 1 2 3 4 5 6 7 8 9 10 11 12 13 14 15 16 17 18 19 20 21 22 23 24 25 26 27 28 29 30 31 32 33 34 35 36 37 38 39 40 41 42 43 44 45</Indices>
     <REAL-Entries> -0.407476010475273 0 0 0 1 0 0 0 1 0 0 0 0 0 0 0 0 0 0 0 0 0 0 0 0 0 0 0 0 0 0 0 0 0 1 0 0 0 0 0 0 -0.495708950103753 0 -0.201497514569885 0.465966585438021</REAL-Entries>
    </REAL-SparseArray>
   </VectorInstance>
   <VectorInstance id="69">
    <REAL-SparseArray n="45">
     <Indices> 1 2 3 4 5 6 7 8 9 10 11 12 13 14 15 16 17 18 19 20 21 22 23 24 25 26 27 28 29 30 31 32 33 34 35 36 37 38 39 40 41 42 43 44 45</Indices>
     <REAL-Entries> -0.868526821136173 0 1 0 0 0 0 0 0 0 0 1 0 0 0 0 0 0 0 0 0 0 0 0 1 0 0 0 1 0 0 0 0 0 0 0 0 0 0 0 0 -0.839661757098551 1 -0.201497514569885 -0.134410832438069</REAL-Entries>
    </REAL-SparseArray>
   </VectorInstance>
   <VectorInstance id="70">
    <REAL-SparseArray n="45">
     <Indices> 1 2 3 4 5 6 7 8 9 10 11 12 13 14 15 16 17 18 19 20 21 22 23 24 25 26 27 28 29 30 31 32 33 34 35 36 37 38 39 40 41 42 43 44 45</Indices>
     <REAL-Entries> -0.176950605144823 0 1 0 0 0 0 0 0 0 0 0 1 0 0 0 0 0 0 0 0 0 0 0 0 0 0 0 0 0 0 0 0 0 1 0 0 0 0 0 0 0.179311986699092 0 -0.201497514569885 -0.0486426298843416</REAL-Entries>
    </REAL-SparseArray>
   </VectorInstance>
   <VectorInstance id="71">
    <REAL-SparseArray n="45">
     <Indices> 1 2 3 4 5 6 7 8 9 10 11 12 13 14 15 16 17 18 19 20 21 22 23 24 25 26 27 28 29 30 31 32 33 34 35 36 37 38 39 40 41 42 43 44 45</Indices>
     <REAL-Entries> 0.20725840373926 0 0 0 1 0 0 0 0 0 0 0 1 0 0 0 0 0 0 0 0 0 0 1 0 0 0 0 0 0 0 0 0 0 1 0 0 0 0 0 0 1.50518346750795 0 -0.201497514569885 1.6667214211902</REAL-Entries>
    </REAL-SparseArray>
   </VectorInstance>
   <VectorInstance id="72">
    <REAL-SparseArray n="45">
     <Indices> 1 2 3 4 5 6 7 8 9 10 11 12 13 14 15 16 17 18 19 20 21 22 23 24 25 26 27 28 29 30 31 32 33 34 35 36 37 38 39 40 41 42 43 44 45</Indices>
     <REAL-Entries> 0.0535748001856267 0 1 0 0 0 0 0 0 1 0 0 0 0 0 0 0 0 0 0 0 0 0 0 1 0 0 0 1 0 0 0 0 0 0 0 0 0 0 0 0 -0.991974506221294 1 -0.201497514569885 -1.33516566819025</REAL-Entries>
    </REAL-SparseArray>
   </VectorInstance>
   <VectorInstance id="73">
    <REAL-SparseArray n="45">
     <Indices> 1 2 3 4 5 6 7 8 9 10 11 12 13 14 15 16 17 18 19 20 21 22 23 24 25 26 27 28 29 30 31 32 33 34 35 36 37 38 39 40 41 42 43 44 45</Indices>
     <REAL-Entries> 0.360942007292893 0 0 1 0 0 0 0 1 0 0 0 0 0 0 0 0 0 0 0 0 0 0 0 1 0 0 0 0 0 0 0 0 0 1 0 0 0 0 0 0 -0.899237030690089 1 -0.201497514569885 -0.0486426298843416</REAL-Entries>
    </REAL-SparseArray>
   </VectorInstance>
   <VectorInstance id="74">
    <REAL-SparseArray n="45">
     <Indices> 1 2 3 4 5 6 7 8 9 10 11 12 13 14 15 16 17 18 19 20 21 22 23 24 25 26 27 28 29 30 31 32 33 34 35 36 37 38 39 40 41 42 43 44 45</Indices>
     <REAL-Entries> 0.20725840373926 0 1 0 0 0 0 0 0 0 0 1 0 0 0 0 0 0 0 0 0 0 0 0 1 0 0 0 0 0 0 0 0 0 0 0 0 0 0 0 1 -0.541429235265483 1 -0.201497514569885 0.80903939565293</REAL-Entries>
    </REAL-SparseArray>
   </VectorInstance>
   <VectorInstance id="75">
    <REAL-SparseArray n="45">
     <Indices> 1 2 3 4 5 6 7 8 9 10 11 12 13 14 15 16 17 18 19 20 21 22 23 24 25 26 27 28 29 30 31 32 33 34 35 36 37 38 39 40 41 42 43 44 45</Indices>
     <REAL-Entries> 1.35988543039151 0 1 0 0 0 0 0 0 0 0 1 0 0 0 0 0 0 0 0 0 0 0 0 1 0 0 0 0 0 0 0 1 0 0 0 0 0 0 0 0 -0.701106420001404 1 -0.201497514569885 -0.0486426298843416</REAL-Entries>
    </REAL-SparseArray>
   </VectorInstance>
   <VectorInstance id="76">
    <REAL-SparseArray n="45">
     <Indices> 1 2 3 4 5 6 7 8 9 10 11 12 13 14 15 16 17 18 19 20 21 22 23 24 25 26 27 28 29 30 31 32 33 34 35 36 37 38 39 40 41 42 43 44 45</Indices>
     <REAL-Entries> 1.12936002506106 1 0 0 0 0 0 0 0 0 0 1 0 0 0 0 0 0 0 0 0 0 0 0 1 0 0 0 0 0 1 0 0 0 0 0 0 0 0 0 0 -0.751459575437227 1 -0.201497514569885 3.81092648503338</REAL-Entries>
    </REAL-SparseArray>
   </VectorInstance>
   <VectorInstance id="77">
    <REAL-SparseArray n="45">
     <Indices> 1 2 3 4 5 6 7 8 9 10 11 12 13 14 15 16 17 18 19 20 21 22 23 24 25 26 27 28 29 30 31 32 33 34 35 36 37 38 39 40 41 42 43 44 45</Indices>
     <REAL-Entries> 1.20620182683788 0 1 0 0 0 0 0 0 0 0 0 0 0 0 0 1 0 0 0 0 0 0 0 1 0 0 0 0 0 0 0 0 0 0 0 0 0 0 0 1 -0.340032971919367 1 -0.201497514569885 -0.0486426298843416</REAL-Entries>
    </REAL-SparseArray>
   </VectorInstance>
   <VectorInstance id="78">
    <REAL-SparseArray n="45">
     <Indices> 1 2 3 4 5 6 7 8 9 10 11 12 13 14 15 16 17 18 19 20 21 22 23 24 25 26 27 28 29 30 31 32 33 34 35 36 37 38 39 40 41 42 43 44 45</Indices>
     <REAL-Entries> 1.97461984460604 0 1 0 0 0 0 0 0 0 0 1 0 0 0 0 0 0 0 0 0 0 0 0 1 0 0 0 0 1 0 0 0 0 0 0 0 0 0 0 0 -0.794770440888485 1 -0.201497514569885 -2.10707949117379</REAL-Entries>
    </REAL-SparseArray>
   </VectorInstance>
   <VectorInstance id="79">
    <REAL-SparseArray n="45">
     <Indices> 1 2 3 4 5 6 7 8 9 10 11 12 13 14 15 16 17 18 19 20 21 22 23 24 25 26 27 28 29 30 31 32 33 34 35 36 37 38 39 40 41 42 43 44 45</Indices>
     <REAL-Entries> 0.591467412623343 0 1 0 0 0 0 0 1 0 0 0 0 0 0 0 0 0 0 0 0 0 0 0 0 0 0 0 0 0 0 0 0 0 1 0 0 0 0 0 0 0.287081537783267 1 -0.201497514569885 1.6667214211902</REAL-Entries>
    </REAL-SparseArray>
   </VectorInstance>
   <VectorInstance id="80">
    <REAL-SparseArray n="45">
     <Indices> 1 2 3 4 5 6 7 8 9 10 11 12 13 14 15 16 17 18 19 20 21 22 23 24 25 26 27 28 29 30 31 32 33 34 35 36 37 38 39 40 41 42 43 44 45</Indices>
     <REAL-Entries> -0.868526821136173 0 1 0 0 0 0 0 1 0 0 0 0 0 0 0 0 0 0 0 0 0 0 0 1 0 0 0 0 1 0 0 0 0 0 0 0 0 0 0 0 -0.789689867112714 1 -0.201497514569885 -0.0486426298843416</REAL-Entries>
    </REAL-SparseArray>
   </VectorInstance>
   <VectorInstance id="81">
    <REAL-SparseArray n="45">
     <Indices> 1 2 3 4 5 6 7 8 9 10 11 12 13 14 15 16 17 18 19 20 21 22 23 24 25 26 27 28 29 30 31 32 33 34 35 36 37 38 39 40 41 42 43 44 45</Indices>
     <REAL-Entries> 0.514625610846526 1 0 0 0 0 0 0 0 0 0 1 0 0 0 0 0 0 0 0 0 0 0 0 1 0 0 0 0 1 0 0 0 0 0 0 0 0 0 0 0 -0.565126095512465 1 -0.201497514569885 -0.0486426298843416</REAL-Entries>
    </REAL-SparseArray>
   </VectorInstance>
   <VectorInstance id="82">
    <REAL-SparseArray n="45">
     <Indices> 1 2 3 4 5 6 7 8 9 10 11 12 13 14 15 16 17 18 19 20 21 22 23 24 25 26 27 28 29 30 31 32 33 34 35 36 37 38 39 40 41 42 43 44 45</Indices>
     <REAL-Entries> -0.714843217582539 0 1 0 0 0 0 0 0 0 0 0 0 0 0 1 0 0 0 0 0 0 0 0 1 0 0 0 0 0 0 0 0 0 0 0 1 0 0 0 0 -0.677662827921237 1 -0.201497514569885 0.80903939565293</REAL-Entries>
    </REAL-SparseArray>
   </VectorInstance>
   <VectorInstance id="83">
    <REAL-SparseArray n="45">
     <Indices> 1 2 3 4 5 6 7 8 9 10 11 12 13 14 15 16 17 18 19 20 21 22 23 24 25 26 27 28 29 30 31 32 33 34 35 36 37 38 39 40 41 42 43 44 45</Indices>
     <REAL-Entries> 1.20620182683788 0 0 0 0 1 0 0 0 0 0 0 1 0 0 0 0 0 0 0 0 0 0 0 0 1 0 0 0 0 0 0 0 0 1 0 0 0 0 0 0 -0.465583239766332 0 -0.201497514569885 -0.0486426298843416</REAL-Entries>
    </REAL-SparseArray>
   </VectorInstance>
   <VectorInstance id="84">
    <REAL-SparseArray n="45">
     <Indices> 1 2 3 4 5 6 7 8 9 10 11 12 13 14 15 16 17 18 19 20 21 22 23 24 25 26 27 28 29 30 31 32 33 34 35 36 37 38 39 40 41 42 43 44 45</Indices>
     <REAL-Entries> -0.407476010475273 0 1 0 0 0 0 0 1 0 0 0 0 0 0 0 0 0 0 0 0 0 0 0 1 0 0 0 0 0 0 0 0 0 0 0 0 0 0 0 0 -0.520716634545551 1 -0.201497514569885 -0.0486426298843416</REAL-Entries>
    </REAL-SparseArray>
   </VectorInstance>
   <VectorInstance id="85">
    <REAL-SparseArray n="45">
     <Indices> 1 2 3 4 5 6 7 8 9 10 11 12 13 14 15 16 17 18 19 20 21 22 23 24 25 26 27 28 29 30 31 32 33 34 35 36 37 38 39 40 41 42 43 44 45</Indices>
     <REAL-Entries> 2.05146164638286 0 1 0 0 0 0 0 1 0 0 0 0 0 0 0 0 0 0 0 0 0 0 0 0 0 0 0 0 1 0 0 0 0 0 0 0 0 0 0 0 -0.836985293728905 1 -0.201497514569885 -0.0486426298843416</REAL-Entries>
    </REAL-SparseArray>
   </VectorInstance>
   <VectorInstance id="86">
    <REAL-SparseArray n="45">
     <Indices> 1 2 3 4 5 6 7 8 9 10 11 12 13 14 15 16 17 18 19 20 21 22 23 24 25 26 27 28 29 30 31 32 33 34 35 36 37 38 39 40 41 42 43 44 45</Indices>
     <REAL-Entries> 1.43672723216833 0 1 0 0 0 0 0 0 0 0 0 0 0 0 0 0 0 0 0 1 0 0 0 1 0 0 0 0 0 0 0 0 0 0 0 0 0 0 0 1 -0.424591679346363 1 -0.201497514569885 -0.0486426298843416</REAL-Entries>
    </REAL-SparseArray>
   </VectorInstance>
   <VectorInstance id="87">
    <REAL-SparseArray n="45">
     <Indices> 1 2 3 4 5 6 7 8 9 10 11 12 13 14 15 16 17 18 19 20 21 22 23 24 25 26 27 28 29 30 31 32 33 34 35 36 37 38 39 40 41 42 43 44 45</Indices>
     <REAL-Entries> 1.28304362861469 0 1 0 0 0 0 0 0 1 0 0 0 0 0 0 0 0 0 0 0 0 0 0 1 0 0 0 0 0 0 0 0 0 0 0 1 0 0 0 0 -0.856439732813352 1 -0.201497514569885 -0.0486426298843416</REAL-Entries>
    </REAL-SparseArray>
   </VectorInstance>
   <VectorInstance id="88">
    <REAL-SparseArray n="45">
     <Indices> 1 2 3 4 5 6 7 8 9 10 11 12 13 14 15 16 17 18 19 20 21 22 23 24 25 26 27 28 29 30 31 32 33 34 35 36 37 38 39 40 41 42 43 44 45</Indices>
     <REAL-Entries> 0.898834619730609 0 0 0 0 0 1 0 0 0 0 1 0 0 0 0 0 0 0 0 0 0 0 0 1 0 0 0 0 0 1 0 0 0 0 0 0 0 0 0 0 -1.14041806392761 1 -0.201497514569885 0.80903939565293</REAL-Entries>
    </REAL-SparseArray>
   </VectorInstance>
   <VectorInstance id="89">
    <REAL-SparseArray n="45">
     <Indices> 1 2 3 4 5 6 7 8 9 10 11 12 13 14 15 16 17 18 19 20 21 22 23 24 25 26 27 28 29 30 31 32 33 34 35 36 37 38 39 40 41 42 43 44 45</Indices>
     <REAL-Entries> -0.561159614028906 0 1 0 0 0 0 0 0 0 1 0 0 0 0 0 0 0 0 0 0 0 0 0 1 0 0 0 0 0 0 0 0 0 1 0 0 0 0 0 0 -0.650559546704278 1 -0.201497514569885 -0.0486426298843416</REAL-Entries>
    </REAL-SparseArray>
   </VectorInstance>
   <VectorInstance id="90">
    <REAL-SparseArray n="45">
     <Indices> 1 2 3 4 5 6 7 8 9 10 11 12 13 14 15 16 17 18 19 20 21 22 23 24 25 26 27 28 29 30 31 32 33 34 35 36 37 38 39 40 41 42 43 44 45</Indices>
     <REAL-Entries> 2.05146164638286 1 0 0 0 0 0 0 0 0 0 1 0 0 0 0 0 0 0 0 0 0 0 0 1 0 0 0 0 1 0 0 0 0 0 0 0 0 0 0 0 -0.481557501598795 1 -0.201497514569885 -1.42093387074398</REAL-Entries>
    </REAL-SparseArray>
   </VectorInstance>
   <VectorInstance id="91">
    <REAL-SparseArray n="45">
     <Indices> 1 2 3 4 5 6 7 8 9 10 11 12 13 14 15 16 17 18 19 20 21 22 23 24 25 26 27 28 29 30 31 32 33 34 35 36 37 38 39 40 41 42 43 44 45</Indices>
     <REAL-Entries> 0.20725840373926 0 0 0 0 1 0 0 0 0 0 0 1 0 0 0 0 0 0 0 0 0 0 0 1 0 0 0 0 0 0 0 0 0 1 0 0 0 0 0 0 -1.17407862300232 1 -0.201497514569885 -0.0486426298843416</REAL-Entries>
    </REAL-SparseArray>
   </VectorInstance>
   <VectorInstance id="92">
    <REAL-SparseArray n="45">
     <Indices> 1 2 3 4 5 6 7 8 9 10 11 12 13 14 15 16 17 18 19 20 21 22 23 24 25 26 27 28 29 30 31 32 33 34 35 36 37 38 39 40 41 42 43 44 45</Indices>
     <REAL-Entries> 1.05251822328424 0 1 0 0 0 0 0 0 0 0 0 0 0 0 0 1 0 0 0 0 0 0 0 1 0 0 0 0 0 0 0 0 0 0 0 0 0 0 0 1 -0.590975089451166 1 -0.201497514569885 0.380198382884294</REAL-Entries>
    </REAL-SparseArray>
   </VectorInstance>
   <VectorInstance id="93">
    <REAL-SparseArray n="45">
     <Indices> 1 2 3 4 5 6 7 8 9 10 11 12 13 14 15 16 17 18 19 20 21 22 23 24 25 26 27 28 29 30 31 32 33 34 35 36 37 38 39 40 41 42 43 44 45</Indices>
     <REAL-Entries> 0.360942007292893 1 0 0 0 0 0 0 0 0 0 1 0 0 0 0 0 0 0 0 0 0 0 0 1 0 0 0 0 0 0 0 0 0 0 0 1 0 0 0 0 -0.926569903446371 1 -0.201497514569885 1.6667214211902</REAL-Entries>
    </REAL-SparseArray>
   </VectorInstance>
   <VectorInstance id="94">
    <REAL-SparseArray n="45">
     <Indices> 1 2 3 4 5 6 7 8 9 10 11 12 13 14 15 16 17 18 19 20 21 22 23 24 25 26 27 28 29 30 31 32 33 34 35 36 37 38 39 40 41 42 43 44 45</Indices>
     <REAL-Entries> 0.20725840373926 0 0 0 0 0 1 0 1 0 0 0 0 0 0 0 0 0 0 0 0 0 0 1 0 0 0 0 0 1 0 0 0 0 0 0 0 0 0 0 0 -0.0714695602498939 1 -0.201497514569885 0.80903939565293</REAL-Entries>
    </REAL-SparseArray>
   </VectorInstance>
   <VectorInstance id="95">
    <REAL-SparseArray n="45">
     <Indices> 1 2 3 4 5 6 7 8 9 10 11 12 13 14 15 16 17 18 19 20 21 22 23 24 25 26 27 28 29 30 31 32 33 34 35 36 37 38 39 40 41 42 43 44 45</Indices>
     <REAL-Entries> 1.43672723216833 0 1 0 0 0 0 0 0 0 0 0 0 0 0 0 1 0 0 0 0 0 0 0 1 0 0 0 0 0 0 0 1 0 0 0 0 0 0 0 0 -1.02531708101404 1 -0.201497514569885 -0.0486426298843416</REAL-Entries>
    </REAL-SparseArray>
   </VectorInstance>
   <VectorInstance id="96">
    <REAL-SparseArray n="45">
     <Indices> 1 2 3 4 5 6 7 8 9 10 11 12 13 14 15 16 17 18 19 20 21 22 23 24 25 26 27 28 29 30 31 32 33 34 35 36 37 38 39 40 41 42 43 44 45</Indices>
     <REAL-Entries> -1.02221042468981 0 1 0 0 0 0 0 0 1 0 0 0 0 0 0 0 0 0 0 0 0 0 0 1 0 0 0 1 0 0 0 0 0 0 0 0 0 0 0 0 -0.770729049837808 1 -0.201497514569885 0.380198382884294</REAL-Entries>
    </REAL-SparseArray>
   </VectorInstance>
   <VectorInstance id="97">
    <REAL-SparseArray n="45">
     <Indices> 1 2 3 4 5 6 7 8 9 10 11 12 13 14 15 16 17 18 19 20 21 22 23 24 25 26 27 28 29 30 31 32 33 34 35 36 37 38 39 40 41 42 43 44 45</Indices>
     <REAL-Entries> -0.561159614028906 0 1 0 0 0 0 0 0 0 0 1 0 0 0 0 0 0 0 0 0 0 0 0 1 0 0 0 0 0 0 0 0 0 0 0 1 0 0 0 0 -0.90959777938613 1 -0.201497514569885 1.23788040842157</REAL-Entries>
    </REAL-SparseArray>
   </VectorInstance>
   <VectorInstance id="98">
    <REAL-SparseArray n="45">
     <Indices> 1 2 3 4 5 6 7 8 9 10 11 12 13 14 15 16 17 18 19 20 21 22 23 24 25 26 27 28 29 30 31 32 33 34 35 36 37 38 39 40 41 42 43 44 45</Indices>
     <REAL-Entries> 1.35988543039151 0 0 0 0 0 1 0 0 0 0 0 0 0 0 0 0 0 0 0 0 0 1 0 1 0 0 0 0 0 0 0 0 0 0 0 0 0 0 0 1 -0.485589416018713 1 -0.201497514569885 5.01168132078556</REAL-Entries>
    </REAL-SparseArray>
   </VectorInstance>
   <VectorInstance id="99">
    <REAL-SparseArray n="45">
     <Indices> 1 2 3 4 5 6 7 8 9 10 11 12 13 14 15 16 17 18 19 20 21 22 23 24 25 26 27 28 29 30 31 32 33 34 35 36 37 38 39 40 41 42 43 44 45</Indices>
     <REAL-Entries> -0.25379240692164 1 0 0 0 0 0 0 0 0 0 1 0 0 0 0 0 0 0 0 0 0 0 0 1 0 0 0 0 1 0 0 0 0 0 0 0 0 0 0 0 -0.407858330487017 1 -0.201497514569885 1.6667214211902</REAL-Entries>
    </REAL-SparseArray>
   </VectorInstance>
   <VectorInstance id="100">
    <REAL-SparseArray n="45">
     <Indices> 1 2 3 4 5 6 7 8 9 10 11 12 13 14 15 16 17 18 19 20 21 22 23 24 25 26 27 28 29 30 31 32 33 34 35 36 37 38 39 40 41 42 43 44 45</Indices>
     <REAL-Entries> 0.514625610846526 1 0 0 0 0 0 0 1 0 0 0 0 0 0 0 0 0 0 0 0 0 0 1 0 0 0 0 0 1 0 0 0 0 0 0 0 0 0 0 0 0.338030052779495 1 -0.201497514569885 0.80903939565293</REAL-Entries>
    </REAL-SparseArray>
   </VectorInstance>
   <VectorInstance id="101">
    <REAL-SparseArray n="45">
     <Indices> 1 2 3 4 5 6 7 8 9 10 11 12 13 14 15 16 17 18 19 20 21 22 23 24 25 26 27 28 29 30 31 32 33 34 35 36 37 38 39 40 41 42 43 44 45</Indices>
     <REAL-Entries> -0.791685019359356 0 1 0 0 0 0 0 1 0 0 0 0 0 0 0 0 0 0 0 0 0 0 0 1 0 0 0 1 0 0 0 0 0 0 0 0 0 0 0 0 -0.0349777070112107 0 -0.201497514569885 -2.19284769372752</REAL-Entries>
    </REAL-SparseArray>
   </VectorInstance>
   <VectorInstance id="102">
    <REAL-SparseArray n="45">
     <Indices> 1 2 3 4 5 6 7 8 9 10 11 12 13 14 15 16 17 18 19 20 21 22 23 24 25 26 27 28 29 30 31 32 33 34 35 36 37 38 39 40 41 42 43 44 45</Indices>
     <REAL-Entries> 2.28198705171331 0 1 0 0 0 0 0 0 0 0 0 0 0 0 0 0 0 0 0 0 0 1 0 1 0 0 0 0 0 0 0 0 0 0 0 1 0 0 0 0 -0.630316604176971 1 -0.201497514569885 0.294430180330567</REAL-Entries>
    </REAL-SparseArray>
   </VectorInstance>
   <VectorInstance id="103">
    <REAL-SparseArray n="45">
     <Indices> 1 2 3 4 5 6 7 8 9 10 11 12 13 14 15 16 17 18 19 20 21 22 23 24 25 26 27 28 29 30 31 32 33 34 35 36 37 38 39 40 41 42 43 44 45</Indices>
     <REAL-Entries> -0.330634208698456 0 1 0 0 0 0 0 0 1 0 0 0 0 0 0 0 0 0 0 0 0 0 0 1 0 0 0 0 0 0 0 0 0 0 0 0 0 0 0 1 -0.388903970474155 1 4.0616867912868 -0.0486426298843416</REAL-Entries>
    </REAL-SparseArray>
   </VectorInstance>
   <VectorInstance id="104">
    <REAL-SparseArray n="45">
     <Indices> 1 2 3 4 5 6 7 8 9 10 11 12 13 14 15 16 17 18 19 20 21 22 23 24 25 26 27 28 29 30 31 32 33 34 35 36 37 38 39 40 41 42 43 44 45</Indices>
     <REAL-Entries> -0.25379240692164 0 1 0 0 0 0 0 0 0 0 1 0 0 0 0 0 0 0 0 0 0 0 0 1 0 0 0 1 0 0 0 0 0 0 0 0 0 0 0 0 -0.887897074078841 1 -0.201497514569885 0.380198382884294</REAL-Entries>
    </REAL-SparseArray>
   </VectorInstance>
   <VectorInstance id="105">
    <REAL-SparseArray n="45">
     <Indices> 1 2 3 4 5 6 7 8 9 10 11 12 13 14 15 16 17 18 19 20 21 22 23 24 25 26 27 28 29 30 31 32 33 34 35 36 37 38 39 40 41 42 43 44 45</Indices>
     <REAL-Entries> -0.25379240692164 0 1 0 0 0 0 0 0 0 0 1 0 0 0 0 0 0 0 0 0 0 0 0 1 0 0 0 0 0 0 0 0 0 0 0 0 0 0 0 0 -0.606562776529295 1 -0.201497514569885 -0.0486426298843416</REAL-Entries>
    </REAL-SparseArray>
   </VectorInstance>
   <VectorInstance id="106">
    <REAL-SparseArray n="45">
     <Indices> 1 2 3 4 5 6 7 8 9 10 11 12 13 14 15 16 17 18 19 20 21 22 23 24 25 26 27 28 29 30 31 32 33 34 35 36 37 38 39 40 41 42 43 44 45</Indices>
     <REAL-Entries> 1.35988543039151 0 1 0 0 0 0 0 1 0 0 0 0 0 0 0 0 0 0 0 0 0 0 0 1 0 0 0 0 0 0 0 0 0 0 0 1 0 0 0 0 -0.952920267909066 1 -0.201497514569885 -0.0486426298843416</REAL-Entries>
    </REAL-SparseArray>
   </VectorInstance>
   <VectorInstance id="107">
    <REAL-SparseArray n="45">
     <Indices> 1 2 3 4 5 6 7 8 9 10 11 12 13 14 15 16 17 18 19 20 21 22 23 24 25 26 27 28 29 30 31 32 33 34 35 36 37 38 39 40 41 42 43 44 45</Indices>
     <REAL-Entries> -0.100108803368006 0 1 0 0 0 0 0 0 0 0 1 0 0 0 0 0 0 0 0 0 0 0 0 1 0 0 0 0 0 0 0 0 0 0 0 0 1 0 0 0 -0.662896217585608 1 -0.201497514569885 0.80903939565293</REAL-Entries>
    </REAL-SparseArray>
   </VectorInstance>
   <VectorInstance id="108">
    <REAL-SparseArray n="45">
     <Indices> 1 2 3 4 5 6 7 8 9 10 11 12 13 14 15 16 17 18 19 20 21 22 23 24 25 26 27 28 29 30 31 32 33 34 35 36 37 38 39 40 41 42 43 44 45</Indices>
     <REAL-Entries> 0.43778380906971 0 0 1 0 0 0 0 1 0 0 0 0 0 0 0 0 0 0 0 0 0 0 0 1 0 0 0 0 1 0 0 0 0 0 0 0 0 0 0 0 -0.518198589338038 1 -0.201497514569885 0.637502990545476</REAL-Entries>
    </REAL-SparseArray>
   </VectorInstance>
   <VectorInstance id="109">
    <REAL-SparseArray n="45">
     <Indices> 1 2 3 4 5 6 7 8 9 10 11 12 13 14 15 16 17 18 19 20 21 22 23 24 25 26 27 28 29 30 31 32 33 34 35 36 37 38 39 40 41 42 43 44 45</Indices>
     <REAL-Entries> 0.20725840373926 0 0 0 0 0 1 0 0 0 0 1 0 0 0 0 0 0 0 0 0 0 0 0 1 0 0 0 0 0 0 0 0 0 0 0 1 0 0 0 0 -1.097325166944 1 -0.201497514569885 -0.0486426298843416</REAL-Entries>
    </REAL-SparseArray>
   </VectorInstance>
   <VectorInstance id="110">
    <REAL-SparseArray n="45">
     <Indices> 1 2 3 4 5 6 7 8 9 10 11 12 13 14 15 16 17 18 19 20 21 22 23 24 25 26 27 28 29 30 31 32 33 34 35 36 37 38 39 40 41 42 43 44 45</Indices>
     <REAL-Entries> -1.09905222646662 0 0 1 0 0 0 0 1 0 0 0 0 0 0 0 0 0 0 0 0 0 0 0 0 0 0 0 0 0 0 0 0 0 1 0 0 0 0 0 0 -0.338761321780947 1 3.20474565959097 0.380198382884294</REAL-Entries>
    </REAL-SparseArray>
   </VectorInstance>
   <VectorInstance id="111">
    <REAL-SparseArray n="45">
     <Indices> 1 2 3 4 5 6 7 8 9 10 11 12 13 14 15 16 17 18 19 20 21 22 23 24 25 26 27 28 29 30 31 32 33 34 35 36 37 38 39 40 41 42 43 44 45</Indices>
     <REAL-Entries> 0.591467412623343 0 0 0 1 0 0 0 1 0 0 0 0 0 0 0 0 0 0 0 0 0 0 0 0 0 0 0 0 0 0 0 0 0 1 0 0 0 0 0 0 -0.312754770648387 0 -0.201497514569885 -0.0486426298843416</REAL-Entries>
    </REAL-SparseArray>
   </VectorInstance>
   <VectorInstance id="112">
    <REAL-SparseArray n="45">
     <Indices> 1 2 3 4 5 6 7 8 9 10 11 12 13 14 15 16 17 18 19 20 21 22 23 24 25 26 27 28 29 30 31 32 33 34 35 36 37 38 39 40 41 42 43 44 45</Indices>
     <REAL-Entries> 1.28304362861469 0 1 0 0 0 0 0 1 0 0 0 0 0 0 0 0 0 0 0 0 0 0 0 0 1 0 0 0 0 0 0 0 0 0 0 1 0 0 0 0 1.1451780505679 0 -0.201497514569885 1.23788040842157</REAL-Entries>
    </REAL-SparseArray>
   </VectorInstance>
   <VectorInstance id="113">
    <REAL-SparseArray n="45">
     <Indices> 1 2 3 4 5 6 7 8 9 10 11 12 13 14 15 16 17 18 19 20 21 22 23 24 25 26 27 28 29 30 31 32 33 34 35 36 37 38 39 40 41 42 43 44 45</Indices>
     <REAL-Entries> 0.43778380906971 0 1 0 0 0 0 0 0 0 0 1 0 0 0 0 0 0 0 0 0 0 0 0 1 0 0 0 0 0 0 0 0 0 0 0 0 0 0 0 1 -0.728285035942203 1 -0.201497514569885 0.380198382884294</REAL-Entries>
    </REAL-SparseArray>
   </VectorInstance>
   <VectorInstance id="114">
    <REAL-SparseArray n="45">
     <Indices> 1 2 3 4 5 6 7 8 9 10 11 12 13 14 15 16 17 18 19 20 21 22 23 24 25 26 27 28 29 30 31 32 33 34 35 36 37 38 39 40 41 42 43 44 45</Indices>
     <REAL-Entries> -0.868526821136173 0 0 0 0 0 1 0 1 0 0 0 0 0 0 0 0 0 0 0 0 0 0 0 0 0 0 0 0 1 0 0 0 0 0 0 0 0 0 0 0 2.08085081808989 0 -0.201497514569885 -0.0486426298843416</REAL-Entries>
    </REAL-SparseArray>
   </VectorInstance>
   <VectorInstance id="115">
    <REAL-SparseArray n="45">
     <Indices> 1 2 3 4 5 6 7 8 9 10 11 12 13 14 15 16 17 18 19 20 21 22 23 24 25 26 27 28 29 30 31 32 33 34 35 36 37 38 39 40 41 42 43 44 45</Indices>
     <REAL-Entries> -0.25379240692164 0 1 0 0 0 0 0 0 0 0 1 0 0 0 0 0 0 0 0 0 0 0 0 1 0 0 0 0 0 0 0 1 0 0 0 0 0 0 0 0 3.29736139145765 0 -0.201497514569885 -0.0486426298843416</REAL-Entries>
    </REAL-SparseArray>
   </VectorInstance>
   <VectorInstance id="116">
    <REAL-SparseArray n="45">
     <Indices> 1 2 3 4 5 6 7 8 9 10 11 12 13 14 15 16 17 18 19 20 21 22 23 24 25 26 27 28 29 30 31 32 33 34 35 36 37 38 39 40 41 42 43 44 45</Indices>
     <REAL-Entries> 1.59041083572196 0 0 0 1 0 0 0 0 0 0 0 0 0 0 0 1 0 0 0 0 0 0 0 1 0 0 0 0 0 0 0 0 0 0 0 1 0 0 0 0 -0.849295131099077 1 -0.201497514569885 -0.0486426298843416</REAL-Entries>
    </REAL-SparseArray>
   </VectorInstance>
   <VectorInstance id="117">
    <REAL-SparseArray n="45">
     <Indices> 1 2 3 4 5 6 7 8 9 10 11 12 13 14 15 16 17 18 19 20 21 22 23 24 25 26 27 28 29 30 31 32 33 34 35 36 37 38 39 40 41 42 43 44 45</Indices>
     <REAL-Entries> 0.975676421507426 0 1 0 0 0 0 0 1 0 0 0 0 0 0 0 0 0 0 0 0 0 0 0 0 0 1 0 1 0 0 0 0 0 0 0 0 0 0 0 0 1.11478730549727 0 -0.201497514569885 -0.0486426298843416</REAL-Entries>
    </REAL-SparseArray>
   </VectorInstance>
   <VectorInstance id="118">
    <REAL-SparseArray n="45">
     <Indices> 1 2 3 4 5 6 7 8 9 10 11 12 13 14 15 16 17 18 19 20 21 22 23 24 25 26 27 28 29 30 31 32 33 34 35 36 37 38 39 40 41 42 43 44 45</Indices>
     <REAL-Entries> 2.66619606059739 0 0 0 1 0 0 0 0 0 0 0 0 0 0 0 0 0 0 0 1 0 0 0 1 0 0 0 0 0 0 0 0 0 0 1 0 0 0 0 0 -0.513509038652674 1 -0.201497514569885 -1.76400668095889</REAL-Entries>
    </REAL-SparseArray>
   </VectorInstance>
   <VectorInstance id="119">
    <REAL-SparseArray n="45">
     <Indices> 1 2 3 4 5 6 7 8 9 10 11 12 13 14 15 16 17 18 19 20 21 22 23 24 25 26 27 28 29 30 31 32 33 34 35 36 37 38 39 40 41 42 43 44 45</Indices>
     <REAL-Entries> 0.898834619730609 0 0 0 0 0 1 0 0 1 0 0 0 0 0 0 0 0 0 0 0 0 0 0 1 0 0 0 0 0 0 0 0 0 0 0 1 0 0 0 0 -0.656087823981726 1 -0.201497514569885 2.52440344672747</REAL-Entries>
    </REAL-SparseArray>
   </VectorInstance>
   <VectorInstance id="120">
    <REAL-SparseArray n="45">
     <Indices> 1 2 3 4 5 6 7 8 9 10 11 12 13 14 15 16 17 18 19 20 21 22 23 24 25 26 27 28 29 30 31 32 33 34 35 36 37 38 39 40 41 42 43 44 45</Indices>
     <REAL-Entries> 2.05146164638286 1 0 0 0 0 0 0 0 0 0 0 0 0 0 0 0 0 0 0 0 0 1 0 1 0 0 0 0 0 0 0 0 0 0 0 1 0 0 0 0 -0.535822609875241 1 -0.201497514569885 0.380198382884294</REAL-Entries>
    </REAL-SparseArray>
   </VectorInstance>
   <VectorInstance id="121">
    <REAL-SparseArray n="45">
     <Indices> 1 2 3 4 5 6 7 8 9 10 11 12 13 14 15 16 17 18 19 20 21 22 23 24 25 26 27 28 29 30 31 32 33 34 35 36 37 38 39 40 41 42 43 44 45</Indices>
     <REAL-Entries> 0.821992817953793 0 1 0 0 0 0 0 0 0 0 0 0 0 0 0 0 0 0 0 1 0 0 0 1 0 0 0 0 0 0 0 0 0 0 0 1 0 0 0 0 -0.502456071465578 1 -0.201497514569885 -0.0486426298843416</REAL-Entries>
    </REAL-SparseArray>
   </VectorInstance>
   <VectorInstance id="122">
    <REAL-SparseArray n="45">
     <Indices> 1 2 3 4 5 6 7 8 9 10 11 12 13 14 15 16 17 18 19 20 21 22 23 24 25 26 27 28 29 30 31 32 33 34 35 36 37 38 39 40 41 42 43 44 45</Indices>
     <REAL-Entries> -0.25379240692164 0 1 0 0 0 0 0 1 0 0 0 0 0 0 0 0 0 0 0 0 0 0 0 1 0 0 0 0 0 0 0 0 0 0 0 0 1 0 0 0 -0.777199226405326 1 -0.201497514569885 0.80903939565293</REAL-Entries>
    </REAL-SparseArray>
   </VectorInstance>
   <VectorInstance id="123">
    <REAL-SparseArray n="45">
     <Indices> 1 2 3 4 5 6 7 8 9 10 11 12 13 14 15 16 17 18 19 20 21 22 23 24 25 26 27 28 29 30 31 32 33 34 35 36 37 38 39 40 41 42 43 44 45</Indices>
     <REAL-Entries> 0.975676421507426 0 1 0 0 0 0 0 0 1 0 0 0 0 0 0 0 0 0 0 0 0 0 0 1 0 0 0 0 0 0 0 0 0 0 0 0 0 0 0 0 -0.278339429388158 1 -0.201497514569885 0.80903939565293</REAL-Entries>
    </REAL-SparseArray>
   </VectorInstance>
   <VectorInstance id="124">
    <REAL-SparseArray n="45">
     <Indices> 1 2 3 4 5 6 7 8 9 10 11 12 13 14 15 16 17 18 19 20 21 22 23 24 25 26 27 28 29 30 31 32 33 34 35 36 37 38 39 40 41 42 43 44 45</Indices>
     <REAL-Entries> 2.74303786237421 1 0 0 0 0 0 0 0 1 0 0 0 0 0 0 0 0 0 0 0 0 0 0 1 0 0 0 0 0 0 0 0 0 1 0 0 0 0 0 0 -0.503768330607515 1 3.02279240560075 -0.477483642652977</REAL-Entries>
    </REAL-SparseArray>
   </VectorInstance>
   <VectorInstance id="125">
    <REAL-SparseArray n="45">
     <Indices> 1 2 3 4 5 6 7 8 9 10 11 12 13 14 15 16 17 18 19 20 21 22 23 24 25 26 27 28 29 30 31 32 33 34 35 36 37 38 39 40 41 42 43 44 45</Indices>
     <REAL-Entries> -0.48431781225209 0 1 0 0 0 0 0 0 1 0 0 0 0 0 0 0 0 0 0 0 0 0 0 1 0 0 0 0 0 0 0 0 0 0 0 0 0 0 0 1 -0.97020779334645 1 -0.201497514569885 1.6667214211902</REAL-Entries>
    </REAL-SparseArray>
   </VectorInstance>
   <VectorInstance id="126">
    <REAL-SparseArray n="45">
     <Indices> 1 2 3 4 5 6 7 8 9 10 11 12 13 14 15 16 17 18 19 20 21 22 23 24 25 26 27 28 29 30 31 32 33 34 35 36 37 38 39 40 41 42 43 44 45</Indices>
     <REAL-Entries> 0.745151016176976 0 0 1 0 0 0 0 1 0 0 0 0 0 0 0 0 0 0 0 0 0 0 1 0 0 0 0 0 1 0 0 0 0 0 0 0 0 0 0 0 -0.466373321651024 1 -0.201497514569885 0.380198382884294</REAL-Entries>
    </REAL-SparseArray>
   </VectorInstance>
   <VectorInstance id="127">
    <REAL-SparseArray n="45">
     <Indices> 1 2 3 4 5 6 7 8 9 10 11 12 13 14 15 16 17 18 19 20 21 22 23 24 25 26 27 28 29 30 31 32 33 34 35 36 37 38 39 40 41 42 43 44 45</Indices>
     <REAL-Entries> -0.100108803368006 0 0 1 0 0 0 0 0 0 0 1 0 0 0 0 0 0 0 0 0 0 0 0 1 0 0 0 1 0 0 0 0 0 0 0 0 0 0 0 0 -0.851096707209194 1 -0.201497514569885 -0.0486426298843416</REAL-Entries>
    </REAL-SparseArray>
   </VectorInstance>
   <VectorInstance id="128">
    <REAL-SparseArray n="45">
     <Indices> 1 2 3 4 5 6 7 8 9 10 11 12 13 14 15 16 17 18 19 20 21 22 23 24 25 26 27 28 29 30 31 32 33 34 35 36 37 38 39 40 41 42 43 44 45</Indices>
     <REAL-Entries> -1.17589402824344 0 1 0 0 0 0 0 0 0 0 1 0 0 0 0 0 0 0 0 0 0 0 0 1 0 0 0 0 1 0 0 0 0 0 0 0 0 0 0 0 -1.12578547765306 1 -0.201497514569885 1.15211220586784</REAL-Entries>
    </REAL-SparseArray>
   </VectorInstance>
   <VectorInstance id="129">
    <REAL-SparseArray n="45">
     <Indices> 1 2 3 4 5 6 7 8 9 10 11 12 13 14 15 16 17 18 19 20 21 22 23 24 25 26 27 28 29 30 31 32 33 34 35 36 37 38 39 40 41 42 43 44 45</Indices>
     <REAL-Entries> 0.284100205516077 0 0 0 0 1 0 0 0 0 0 0 1 0 0 0 0 0 0 0 0 0 0 1 0 0 0 0 0 1 0 0 0 0 0 0 0 0 0 0 0 -0.759762896951518 1 -0.201497514569885 0.380198382884294</REAL-Entries>
    </REAL-SparseArray>
   </VectorInstance>
   <VectorInstance id="130">
    <REAL-SparseArray n="45">
     <Indices> 1 2 3 4 5 6 7 8 9 10 11 12 13 14 15 16 17 18 19 20 21 22 23 24 25 26 27 28 29 30 31 32 33 34 35 36 37 38 39 40 41 42 43 44 45</Indices>
     <REAL-Entries> 0.284100205516077 0 0 0 0 0 1 0 1 0 0 0 0 0 0 0 0 0 0 0 0 0 0 0 1 0 0 0 1 0 0 0 0 0 0 0 0 0 0 0 0 1.89367287178456 0 -0.201497514569885 -0.477483642652977</REAL-Entries>
    </REAL-SparseArray>
   </VectorInstance>
   <VectorInstance id="131">
    <REAL-SparseArray n="45">
     <Indices> 1 2 3 4 5 6 7 8 9 10 11 12 13 14 15 16 17 18 19 20 21 22 23 24 25 26 27 28 29 30 31 32 33 34 35 36 37 38 39 40 41 42 43 44 45</Indices>
     <REAL-Entries> 0.745151016176976 0 1 0 0 0 0 0 0 0 0 1 0 0 0 0 0 0 0 0 0 0 0 0 1 0 0 0 0 0 0 0 0 0 0 0 0 0 0 0 0 2.16207800878661 0 -0.201497514569885 -0.0486426298843416</REAL-Entries>
    </REAL-SparseArray>
   </VectorInstance>
   <VectorInstance id="132">
    <REAL-SparseArray n="45">
     <Indices> 1 2 3 4 5 6 7 8 9 10 11 12 13 14 15 16 17 18 19 20 21 22 23 24 25 26 27 28 29 30 31 32 33 34 35 36 37 38 39 40 41 42 43 44 45</Indices>
     <REAL-Entries> 0.745151016176976 0 1 0 0 0 0 0 0 0 0 0 1 0 0 0 0 0 0 0 0 0 0 0 0 0 0 0 0 1 0 0 0 0 0 0 0 0 0 0 0 -0.9890182281631 1 -0.201497514569885 -0.0486426298843416</REAL-Entries>
    </REAL-SparseArray>
   </VectorInstance>
   <VectorInstance id="133">
    <REAL-SparseArray n="45">
     <Indices> 1 2 3 4 5 6 7 8 9 10 11 12 13 14 15 16 17 18 19 20 21 22 23 24 25 26 27 28 29 30 31 32 33 34 35 36 37 38 39 40 41 42 43 44 45</Indices>
     <REAL-Entries> 0.43778380906971 0 1 0 0 0 0 0 0 0 0 0 0 0 0 1 0 0 0 0 0 0 0 0 1 0 0 0 0 1 0 0 0 0 0 0 0 0 0 0 0 -1.12315450210715 1 -0.201497514569885 -0.0486426298843416</REAL-Entries>
    </REAL-SparseArray>
   </VectorInstance>
   <VectorInstance id="134">
    <REAL-SparseArray n="45">
     <Indices> 1 2 3 4 5 6 7 8 9 10 11 12 13 14 15 16 17 18 19 20 21 22 23 24 25 26 27 28 29 30 31 32 33 34 35 36 37 38 39 40 41 42 43 44 45</Indices>
     <REAL-Entries> 1.43672723216833 0 1 0 0 0 0 0 0 0 0 0 0 0 0 0 0 0 0 0 1 0 0 0 1 0 0 0 0 0 0 0 0 0 0 0 0 0 1 0 0 -0.600988867933406 1 -0.201497514569885 -0.0486426298843416</REAL-Entries>
    </REAL-SparseArray>
   </VectorInstance>
   <VectorInstance id="135">
    <REAL-SparseArray n="45">
     <Indices> 1 2 3 4 5 6 7 8 9 10 11 12 13 14 15 16 17 18 19 20 21 22 23 24 25 26 27 28 29 30 31 32 33 34 35 36 37 38 39 40 41 42 43 44 45</Indices>
     <REAL-Entries> 2.35882885349013 0 1 0 0 0 0 0 0 0 0 0 0 0 0 0 0 0 0 0 1 0 0 0 1 0 0 0 0 0 0 0 1 0 0 0 0 0 0 0 0 -0.591372856793041 1 4.23385761226677 -0.0486426298843416</REAL-Entries>
    </REAL-SparseArray>
   </VectorInstance>
   <VectorInstance id="136">
    <REAL-SparseArray n="45">
     <Indices> 1 2 3 4 5 6 7 8 9 10 11 12 13 14 15 16 17 18 19 20 21 22 23 24 25 26 27 28 29 30 31 32 33 34 35 36 37 38 39 40 41 42 43 44 45</Indices>
     <REAL-Entries> 0.975676421507426 1 0 0 0 0 0 0 0 0 0 1 0 0 0 0 0 0 0 0 0 0 0 0 1 0 0 0 0 0 1 0 0 0 0 0 0 0 0 0 0 -0.630132930945513 1 -0.201497514569885 1.23788040842157</REAL-Entries>
    </REAL-SparseArray>
   </VectorInstance>
   <VectorInstance id="137">
    <REAL-SparseArray n="45">
     <Indices> 1 2 3 4 5 6 7 8 9 10 11 12 13 14 15 16 17 18 19 20 21 22 23 24 25 26 27 28 29 30 31 32 33 34 35 36 37 38 39 40 41 42 43 44 45</Indices>
     <REAL-Entries> -0.638001415805723 0 0 0 0 0 1 0 0 0 0 1 0 0 0 0 0 0 0 0 0 0 0 0 1 0 0 0 0 0 0 0 0 0 0 0 0 0 0 0 0 -0.586286686723499 1 -0.201497514569885 1.6667214211902</REAL-Entries>
    </REAL-SparseArray>
   </VectorInstance>
   <VectorInstance id="138">
    <REAL-SparseArray n="45">
     <Indices> 1 2 3 4 5 6 7 8 9 10 11 12 13 14 15 16 17 18 19 20 21 22 23 24 25 26 27 28 29 30 31 32 33 34 35 36 37 38 39 40 41 42 43 44 45</Indices>
     <REAL-Entries> 0.43778380906971 1 0 0 0 0 0 0 0 0 0 0 1 0 0 0 0 0 0 0 0 0 0 0 0 0 0 0 0 0 1 0 0 0 0 0 0 0 0 0 0 1.50743002072021 1 -0.201497514569885 5.01168132078556</REAL-Entries>
    </REAL-SparseArray>
   </VectorInstance>
   <VectorInstance id="139">
    <REAL-SparseArray n="45">
     <Indices> 1 2 3 4 5 6 7 8 9 10 11 12 13 14 15 16 17 18 19 20 21 22 23 24 25 26 27 28 29 30 31 32 33 34 35 36 37 38 39 40 41 42 43 44 45</Indices>
     <REAL-Entries> 0.821992817953793 0 0 1 0 0 0 0 0 1 0 0 0 0 0 0 0 0 0 0 0 0 0 0 1 0 0 0 0 0 0 0 0 0 0 0 1 0 0 0 0 -0.516091799975334 1 -0.201497514569885 -0.0486426298843416</REAL-Entries>
    </REAL-SparseArray>
   </VectorInstance>
   <VectorInstance id="140">
    <REAL-SparseArray n="45">
     <Indices> 1 2 3 4 5 6 7 8 9 10 11 12 13 14 15 16 17 18 19 20 21 22 23 24 25 26 27 28 29 30 31 32 33 34 35 36 37 38 39 40 41 42 43 44 45</Indices>
     <REAL-Entries> -0.638001415805723 0 1 0 0 0 0 0 0 0 0 0 1 0 0 0 0 0 0 0 0 0 0 0 0 0 0 0 0 0 0 0 0 0 1 0 0 0 0 0 0 0.15655157294312 1 -0.201497514569885 -0.0486426298843416</REAL-Entries>
    </REAL-SparseArray>
   </VectorInstance>
   <VectorInstance id="141">
    <REAL-SparseArray n="45">
     <Indices> 1 2 3 4 5 6 7 8 9 10 11 12 13 14 15 16 17 18 19 20 21 22 23 24 25 26 27 28 29 30 31 32 33 34 35 36 37 38 39 40 41 42 43 44 45</Indices>
     <REAL-Entries> 0.20725840373926 0 1 0 0 0 0 0 1 0 0 0 0 0 0 0 0 0 0 0 0 0 0 1 0 0 0 0 0 1 0 0 0 0 0 0 0 0 0 0 0 -0.234900423159017 0 -0.201497514569885 1.23788040842157</REAL-Entries>
    </REAL-SparseArray>
   </VectorInstance>
   <VectorInstance id="142">
    <REAL-SparseArray n="45">
     <Indices> 1 2 3 4 5 6 7 8 9 10 11 12 13 14 15 16 17 18 19 20 21 22 23 24 25 26 27 28 29 30 31 32 33 34 35 36 37 38 39 40 41 42 43 44 45</Indices>
     <REAL-Entries> -0.176950605144823 0 1 0 0 0 0 0 0 0 0 1 0 0 0 0 0 0 0 0 0 0 0 0 1 0 0 0 0 0 0 0 0 0 0 0 0 0 0 0 1 -0.566055654257295 1 -0.201497514569885 0.80903939565293</REAL-Entries>
    </REAL-SparseArray>
   </VectorInstance>
   <VectorInstance id="143">
    <REAL-SparseArray n="45">
     <Indices> 1 2 3 4 5 6 7 8 9 10 11 12 13 14 15 16 17 18 19 20 21 22 23 24 25 26 27 28 29 30 31 32 33 34 35 36 37 38 39 40 41 42 43 44 45</Indices>
     <REAL-Entries> -0.638001415805723 0 1 0 0 0 0 0 0 0 0 1 0 0 0 0 0 0 0 0 0 0 0 0 1 0 0 0 0 1 0 0 0 0 0 0 0 0 0 0 0 0.862065853535725 0 -0.201497514569885 -0.0486426298843416</REAL-Entries>
    </REAL-SparseArray>
   </VectorInstance>
   <VectorInstance id="144">
    <REAL-SparseArray n="45">
     <Indices> 1 2 3 4 5 6 7 8 9 10 11 12 13 14 15 16 17 18 19 20 21 22 23 24 25 26 27 28 29 30 31 32 33 34 35 36 37 38 39 40 41 42 43 44 45</Indices>
     <REAL-Entries> 1.59041083572196 0 0 0 1 0 0 0 0 0 0 1 0 0 0 0 0 0 0 0 0 0 0 0 0 0 0 1 0 0 1 0 0 0 0 0 0 0 0 0 0 0.36937245478061 1 4.37472464761403 -0.0486426298843416</REAL-Entries>
    </REAL-SparseArray>
   </VectorInstance>
   <VectorInstance id="145">
    <REAL-SparseArray n="45">
     <Indices> 1 2 3 4 5 6 7 8 9 10 11 12 13 14 15 16 17 18 19 20 21 22 23 24 25 26 27 28 29 30 31 32 33 34 35 36 37 38 39 40 41 42 43 44 45</Indices>
     <REAL-Entries> -0.714843217582539 0 1 0 0 0 0 0 0 0 0 1 0 0 0 0 0 0 0 0 0 0 0 0 1 0 0 0 0 0 1 0 0 0 0 0 0 0 0 0 0 -0.518057964520203 1 -0.201497514569885 1.6667214211902</REAL-Entries>
    </REAL-SparseArray>
   </VectorInstance>
   <VectorInstance id="146">
    <REAL-SparseArray n="45">
     <Indices> 1 2 3 4 5 6 7 8 9 10 11 12 13 14 15 16 17 18 19 20 21 22 23 24 25 26 27 28 29 30 31 32 33 34 35 36 37 38 39 40 41 42 43 44 45</Indices>
     <REAL-Entries> 0.43778380906971 0 1 0 0 0 0 0 0 0 0 0 0 0 0 1 0 0 0 0 0 0 0 0 1 0 0 0 0 1 0 0 0 0 0 0 0 0 0 0 0 -1.07444034327266 1 -0.201497514569885 -0.0486426298843416</REAL-Entries>
    </REAL-SparseArray>
   </VectorInstance>
   <VectorInstance id="147">
    <REAL-SparseArray n="45">
     <Indices> 1 2 3 4 5 6 7 8 9 10 11 12 13 14 15 16 17 18 19 20 21 22 23 24 25 26 27 28 29 30 31 32 33 34 35 36 37 38 39 40 41 42 43 44 45</Indices>
     <REAL-Entries> -1.09905222646662 0 1 0 0 0 0 0 0 0 0 1 0 0 0 0 0 0 0 0 0 0 0 0 1 0 0 0 0 0 0 0 0 0 0 0 0 1 0 0 0 -1.0444686027613 1 -0.201497514569885 0.80903939565293</REAL-Entries>
    </REAL-SparseArray>
   </VectorInstance>
   <VectorInstance id="148">
    <REAL-SparseArray n="45">
     <Indices> 1 2 3 4 5 6 7 8 9 10 11 12 13 14 15 16 17 18 19 20 21 22 23 24 25 26 27 28 29 30 31 32 33 34 35 36 37 38 39 40 41 42 43 44 45</Indices>
     <REAL-Entries> 1.51356903394514 0 1 0 0 0 0 0 0 0 0 0 0 0 0 0 0 0 0 1 0 0 0 0 1 0 0 0 0 0 1 0 0 0 0 0 0 0 0 0 0 -1.16596442751855 1 -0.201497514569885 -0.0486426298843416</REAL-Entries>
    </REAL-SparseArray>
   </VectorInstance>
   <VectorInstance id="149">
    <REAL-SparseArray n="45">
     <Indices> 1 2 3 4 5 6 7 8 9 10 11 12 13 14 15 16 17 18 19 20 21 22 23 24 25 26 27 28 29 30 31 32 33 34 35 36 37 38 39 40 41 42 43 44 45</Indices>
     <REAL-Entries> -0.330634208698456 0 1 0 0 0 0 0 0 1 0 0 0 0 0 0 0 0 0 0 0 0 0 0 1 0 0 0 0 0 0 0 0 0 0 0 0 0 1 0 0 -0.683215929783875 1 -0.201497514569885 1.83825782629766</REAL-Entries>
    </REAL-SparseArray>
   </VectorInstance>
   <VectorInstance id="150">
    <REAL-SparseArray n="45">
     <Indices> 1 2 3 4 5 6 7 8 9 10 11 12 13 14 15 16 17 18 19 20 21 22 23 24 25 26 27 28 29 30 31 32 33 34 35 36 37 38 39 40 41 42 43 44 45</Indices>
     <REAL-Entries> 0.821992817953793 0 1 0 0 0 0 0 0 0 0 0 0 0 0 0 0 0 0 0 0 1 0 0 1 0 0 0 0 0 0 0 1 0 0 0 0 0 0 0 0 -0.86567792237682 1 -0.201497514569885 0.637502990545476</REAL-Entries>
    </REAL-SparseArray>
   </VectorInstance>
   <VectorInstance id="151">
    <REAL-SparseArray n="45">
     <Indices> 1 2 3 4 5 6 7 8 9 10 11 12 13 14 15 16 17 18 19 20 21 22 23 24 25 26 27 28 29 30 31 32 33 34 35 36 37 38 39 40 41 42 43 44 45</Indices>
     <REAL-Entries> -0.714843217582539 0 0 0 1 0 0 0 0 0 0 0 1 0 0 0 0 0 0 0 0 0 0 0 0 0 0 0 0 0 0 0 0 0 1 0 0 0 0 0 0 0.474839920198946 1 -0.201497514569885 -0.0486426298843416</REAL-Entries>
    </REAL-SparseArray>
   </VectorInstance>
   <VectorInstance id="152">
    <REAL-SparseArray n="45">
     <Indices> 1 2 3 4 5 6 7 8 9 10 11 12 13 14 15 16 17 18 19 20 21 22 23 24 25 26 27 28 29 30 31 32 33 34 35 36 37 38 39 40 41 42 43 44 45</Indices>
     <REAL-Entries> -0.0232670015911899 1 0 0 0 0 0 0 0 0 0 1 0 0 0 0 0 0 0 0 0 0 0 0 1 0 0 0 0 0 0 0 0 0 0 0 0 1 0 0 0 -0.701461569413792 1 -0.201497514569885 2.00979423140511</REAL-Entries>
    </REAL-SparseArray>
   </VectorInstance>
   <VectorInstance id="153">
    <REAL-SparseArray n="45">
     <Indices> 1 2 3 4 5 6 7 8 9 10 11 12 13 14 15 16 17 18 19 20 21 22 23 24 25 26 27 28 29 30 31 32 33 34 35 36 37 38 39 40 41 42 43 44 45</Indices>
     <REAL-Entries> -0.176950605144823 0 1 0 0 0 0 0 0 0 0 1 0 0 0 0 0 0 0 0 0 0 0 0 1 0 0 0 0 1 0 0 0 0 0 0 0 0 0 0 0 -0.451493780976991 1 -0.201497514569885 -0.0486426298843416</REAL-Entries>
    </REAL-SparseArray>
   </VectorInstance>
   <VectorInstance id="154">
    <REAL-SparseArray n="45">
     <Indices> 1 2 3 4 5 6 7 8 9 10 11 12 13 14 15 16 17 18 19 20 21 22 23 24 25 26 27 28 29 30 31 32 33 34 35 36 37 38 39 40 41 42 43 44 45</Indices>
     <REAL-Entries> 0.130416601962443 0 0 1 0 0 0 0 0 0 0 0 1 0 0 0 0 0 0 0 0 0 0 0 0 0 0 0 0 0 0 0 0 0 1 0 0 0 0 0 0 0.0788688451293931 1 -0.201497514569885 -0.0486426298843416</REAL-Entries>
    </REAL-SparseArray>
   </VectorInstance>
   <VectorInstance id="155">
    <REAL-SparseArray n="45">
     <Indices> 1 2 3 4 5 6 7 8 9 10 11 12 13 14 15 16 17 18 19 20 21 22 23 24 25 26 27 28 29 30 31 32 33 34 35 36 37 38 39 40 41 42 43 44 45</Indices>
     <REAL-Entries> -0.176950605144823 0 0 1 0 0 0 0 0 0 0 0 0 0 0 1 0 0 0 0 0 0 0 0 1 0 0 0 0 0 0 0 0 0 0 0 0 0 0 1 0 -0.477697063359808 1 -0.201497514569885 -0.0486426298843416</REAL-Entries>
    </REAL-SparseArray>
   </VectorInstance>
   <VectorInstance id="156">
    <REAL-SparseArray n="45">
     <Indices> 1 2 3 4 5 6 7 8 9 10 11 12 13 14 15 16 17 18 19 20 21 22 23 24 25 26 27 28 29 30 31 32 33 34 35 36 37 38 39 40 41 42 43 44 45</Indices>
     <REAL-Entries> 1.20620182683788 0 1 0 0 0 0 0 0 0 0 1 0 0 0 0 0 0 0 0 0 0 0 0 1 0 0 0 0 0 0 0 0 0 0 0 1 0 0 0 0 -1.13424707383478 1 -0.201497514569885 0.294430180330567</REAL-Entries>
    </REAL-SparseArray>
   </VectorInstance>
   <VectorInstance id="157">
    <REAL-SparseArray n="45">
     <Indices> 1 2 3 4 5 6 7 8 9 10 11 12 13 14 15 16 17 18 19 20 21 22 23 24 25 26 27 28 29 30 31 32 33 34 35 36 37 38 39 40 41 42 43 44 45</Indices>
     <REAL-Entries> 0.130416601962443 0 1 0 0 0 0 0 0 1 0 0 0 0 0 0 0 0 0 0 0 0 0 0 1 0 0 0 0 0 0 0 0 0 0 0 1 0 0 0 0 -0.697580611430978 1 -0.201497514569885 -0.0486426298843416</REAL-Entries>
    </REAL-SparseArray>
   </VectorInstance>
   <VectorInstance id="158">
    <REAL-SparseArray n="45">
     <Indices> 1 2 3 4 5 6 7 8 9 10 11 12 13 14 15 16 17 18 19 20 21 22 23 24 25 26 27 28 29 30 31 32 33 34 35 36 37 38 39 40 41 42 43 44 45</Indices>
     <REAL-Entries> -0.176950605144823 0 1 0 0 0 0 0 1 0 0 0 0 0 0 0 0 0 0 0 0 0 0 0 1 0 0 0 0 0 0 0 0 0 0 0 0 0 0 1 0 -0.714576842602848 1 -0.201497514569885 -0.0486426298843416</REAL-Entries>
    </REAL-SparseArray>
   </VectorInstance>
   <VectorInstance id="159">
    <REAL-SparseArray n="45">
     <Indices> 1 2 3 4 5 6 7 8 9 10 11 12 13 14 15 16 17 18 19 20 21 22 23 24 25 26 27 28 29 30 31 32 33 34 35 36 37 38 39 40 41 42 43 44 45</Indices>
     <REAL-Entries> 0.514625610846526 0 0 0 0 1 0 0 0 0 0 0 0 0 1 0 0 0 0 0 0 0 0 1 0 0 0 0 0 0 0 0 0 0 1 0 0 0 0 0 0 0.306479439951157 0 -0.201497514569885 0.20866197777684</REAL-Entries>
    </REAL-SparseArray>
   </VectorInstance>
   <VectorInstance id="160">
    <REAL-SparseArray n="45">
     <Indices> 1 2 3 4 5 6 7 8 9 10 11 12 13 14 15 16 17 18 19 20 21 22 23 24 25 26 27 28 29 30 31 32 33 34 35 36 37 38 39 40 41 42 43 44 45</Indices>
     <REAL-Entries> 1.43672723216833 0 1 0 0 0 0 0 0 0 0 1 0 0 0 0 0 0 0 0 0 0 0 0 1 0 0 0 0 1 0 0 0 0 0 0 0 0 0 0 0 -0.671640641844821 1 -0.201497514569885 0.80903939565293</REAL-Entries>
    </REAL-SparseArray>
   </VectorInstance>
   <VectorInstance id="161">
    <REAL-SparseArray n="45">
     <Indices> 1 2 3 4 5 6 7 8 9 10 11 12 13 14 15 16 17 18 19 20 21 22 23 24 25 26 27 28 29 30 31 32 33 34 35 36 37 38 39 40 41 42 43 44 45</Indices>
     <REAL-Entries> 1.74409443927559 1 0 0 0 0 0 0 0 0 0 1 0 0 0 0 0 0 0 0 0 0 0 0 1 0 0 0 0 0 1 0 0 0 0 0 0 0 0 0 0 -0.789397568384215 1 4.40015897344063 0.80903939565293</REAL-Entries>
    </REAL-SparseArray>
   </VectorInstance>
   <VectorInstance id="162">
    <REAL-SparseArray n="45">
     <Indices> 1 2 3 4 5 6 7 8 9 10 11 12 13 14 15 16 17 18 19 20 21 22 23 24 25 26 27 28 29 30 31 32 33 34 35 36 37 38 39 40 41 42 43 44 45</Indices>
     <REAL-Entries> -0.714843217582539 0 1 0 0 0 0 0 0 0 1 0 0 0 0 0 0 0 0 0 0 0 0 0 0 0 0 0 0 0 0 0 0 0 1 0 0 0 0 0 0 0.636151366210703 1 -0.201497514569885 -0.0486426298843416</REAL-Entries>
    </REAL-SparseArray>
   </VectorInstance>
   <VectorInstance id="163">
    <REAL-SparseArray n="45">
     <Indices> 1 2 3 4 5 6 7 8 9 10 11 12 13 14 15 16 17 18 19 20 21 22 23 24 25 26 27 28 29 30 31 32 33 34 35 36 37 38 39 40 41 42 43 44 45</Indices>
     <REAL-Entries> 1.35988543039151 0 1 0 0 0 0 0 0 0 0 1 0 0 0 0 0 0 0 0 0 0 0 0 1 0 0 0 0 0 0 0 0 0 0 0 1 0 0 0 0 -0.694760509854544 1 -0.201497514569885 1.6667214211902</REAL-Entries>
    </REAL-SparseArray>
   </VectorInstance>
   <VectorInstance id="164">
    <REAL-SparseArray n="45">
     <Indices> 1 2 3 4 5 6 7 8 9 10 11 12 13 14 15 16 17 18 19 20 21 22 23 24 25 26 27 28 29 30 31 32 33 34 35 36 37 38 39 40 41 42 43 44 45</Indices>
     <REAL-Entries> -0.100108803368006 0 1 0 0 0 0 0 0 0 0 1 0 0 0 0 0 0 0 0 0 0 0 0 1 0 0 0 0 0 0 0 0 0 0 0 0 0 1 0 0 1.87374504364497 0 -0.201497514569885 1.6667214211902</REAL-Entries>
    </REAL-SparseArray>
   </VectorInstance>
   <VectorInstance id="165">
    <REAL-SparseArray n="45">
     <Indices> 1 2 3 4 5 6 7 8 9 10 11 12 13 14 15 16 17 18 19 20 21 22 23 24 25 26 27 28 29 30 31 32 33 34 35 36 37 38 39 40 41 42 43 44 45</Indices>
     <REAL-Entries> -0.407476010475273 0 1 0 0 0 0 0 0 1 0 0 0 0 0 0 0 0 0 0 0 0 0 0 1 0 0 0 0 0 0 0 1 0 0 0 0 0 0 0 0 -1.03722312426443 1 -0.201497514569885 1.23788040842157</REAL-Entries>
    </REAL-SparseArray>
   </VectorInstance>
   <VectorInstance id="166">
    <REAL-SparseArray n="45">
     <Indices> 1 2 3 4 5 6 7 8 9 10 11 12 13 14 15 16 17 18 19 20 21 22 23 24 25 26 27 28 29 30 31 32 33 34 35 36 37 38 39 40 41 42 43 44 45</Indices>
     <REAL-Entries> -0.561159614028906 0 1 0 0 0 0 0 0 0 0 0 0 0 0 1 0 0 0 0 0 0 0 0 1 0 0 0 0 1 0 0 0 0 0 0 0 0 0 0 0 -0.72757846797994 1 -0.201497514569885 -0.0486426298843416</REAL-Entries>
    </REAL-SparseArray>
   </VectorInstance>
   <VectorInstance id="167">
    <REAL-SparseArray n="45">
     <Indices> 1 2 3 4 5 6 7 8 9 10 11 12 13 14 15 16 17 18 19 20 21 22 23 24 25 26 27 28 29 30 31 32 33 34 35 36 37 38 39 40 41 42 43 44 45</Indices>
     <REAL-Entries> 0.975676421507426 0 1 0 0 0 0 0 0 0 0 1 0 0 0 0 0 0 0 0 0 0 0 0 1 0 0 0 0 0 0 0 0 0 0 0 0 0 0 1 0 -0.488942600450511 1 -0.201497514569885 -0.0486426298843416</REAL-Entries>
    </REAL-SparseArray>
   </VectorInstance>
   <VectorInstance id="168">
    <REAL-SparseArray n="45">
     <Indices> 1 2 3 4 5 6 7 8 9 10 11 12 13 14 15 16 17 18 19 20 21 22 23 24 25 26 27 28 29 30 31 32 33 34 35 36 37 38 39 40 41 42 43 44 45</Indices>
     <REAL-Entries> -0.868526821136173 0 0 0 1 0 0 0 0 0 0 1 0 0 0 0 0 0 0 0 0 0 0 0 1 0 0 0 0 0 0 0 0 0 0 1 0 0 0 0 0 0.1777008280719 0 -0.201497514569885 -0.0486426298843416</REAL-Entries>
    </REAL-SparseArray>
   </VectorInstance>
   <VectorInstance id="169">
    <REAL-SparseArray n="45">
     <Indices> 1 2 3 4 5 6 7 8 9 10 11 12 13 14 15 16 17 18 19 20 21 22 23 24 25 26 27 28 29 30 31 32 33 34 35 36 37 38 39 40 41 42 43 44 45</Indices>
     <REAL-Entries> 0.975676421507426 0 1 0 0 0 0 0 1 0 0 0 0 0 0 0 0 0 0 0 0 0 0 0 1 0 0 0 0 0 0 0 0 0 0 0 1 0 0 0 0 -0.841583007798539 1 -0.201497514569885 0.80903939565293</REAL-Entries>
    </REAL-SparseArray>
   </VectorInstance>
   <VectorInstance id="170">
    <REAL-SparseArray n="45">
     <Indices> 1 2 3 4 5 6 7 8 9 10 11 12 13 14 15 16 17 18 19 20 21 22 23 24 25 26 27 28 29 30 31 32 33 34 35 36 37 38 39 40 41 42 43 44 45</Indices>
     <REAL-Entries> -0.714843217582539 0 1 0 0 0 0 0 0 0 0 1 0 0 0 0 0 0 0 0 0 0 0 0 1 0 0 0 0 0 0 0 0 0 0 0 0 1 0 0 0 -0.67017326491913 1 -0.201497514569885 0.80903939565293</REAL-Entries>
    </REAL-SparseArray>
   </VectorInstance>
   <VectorInstance id="171">
    <REAL-SparseArray n="45">
     <Indices> 1 2 3 4 5 6 7 8 9 10 11 12 13 14 15 16 17 18 19 20 21 22 23 24 25 26 27 28 29 30 31 32 33 34 35 36 37 38 39 40 41 42 43 44 45</Indices>
     <REAL-Entries> -1.17589402824344 0 1 0 0 0 0 0 0 0 0 0 0 0 0 0 0 0 0 0 0 0 0 0 1 0 0 0 0 0 0 0 0 0 0 0 0 1 0 0 0 2.97275081068245 0 -0.201497514569885 -1.33516566819025</REAL-Entries>
    </REAL-SparseArray>
   </VectorInstance>
   <VectorInstance id="172">
    <REAL-SparseArray n="45">
     <Indices> 1 2 3 4 5 6 7 8 9 10 11 12 13 14 15 16 17 18 19 20 21 22 23 24 25 26 27 28 29 30 31 32 33 34 35 36 37 38 39 40 41 42 43 44 45</Indices>
     <REAL-Entries> 1.59041083572196 0 0 0 0 1 0 0 1 0 0 0 0 0 0 0 0 0 0 0 0 0 0 0 0 0 0 0 0 1 0 0 0 0 0 0 0 0 0 0 0 -0.50067171472091 0 -0.201497514569885 -0.0486426298843416</REAL-Entries>
    </REAL-SparseArray>
   </VectorInstance>
   <VectorInstance id="173">
    <REAL-SparseArray n="45">
     <Indices> 1 2 3 4 5 6 7 8 9 10 11 12 13 14 15 16 17 18 19 20 21 22 23 24 25 26 27 28 29 30 31 32 33 34 35 36 37 38 39 40 41 42 43 44 45</Indices>
     <REAL-Entries> 1.74409443927559 0 1 0 0 0 0 0 0 0 0 0 0 0 0 0 1 0 0 0 0 0 0 0 1 0 0 0 0 0 0 0 0 0 0 0 0 1 0 0 0 -0.550225317621044 1 -0.201497514569885 -0.0486426298843416</REAL-Entries>
    </REAL-SparseArray>
   </VectorInstance>
   <VectorInstance id="174">
    <REAL-SparseArray n="45">
     <Indices> 1 2 3 4 5 6 7 8 9 10 11 12 13 14 15 16 17 18 19 20 21 22 23 24 25 26 27 28 29 30 31 32 33 34 35 36 37 38 39 40 41 42 43 44 45</Indices>
     <REAL-Entries> 0.514625610846526 0 0 1 0 0 0 0 0 0 0 1 0 0 0 0 0 0 0 0 0 0 0 0 1 0 0 0 1 0 0 0 0 0 0 0 0 0 0 0 0 -0.898435182239007 1 3.06974808404984 -0.0486426298843416</REAL-Entries>
    </REAL-SparseArray>
   </VectorInstance>
   <VectorInstance id="175">
    <REAL-SparseArray n="45">
     <Indices> 1 2 3 4 5 6 7 8 9 10 11 12 13 14 15 16 17 18 19 20 21 22 23 24 25 26 27 28 29 30 31 32 33 34 35 36 37 38 39 40 41 42 43 44 45</Indices>
     <REAL-Entries> 0.66830921440016 0 0 0 1 0 0 0 1 0 0 0 0 0 0 0 0 0 0 0 0 0 0 0 1 0 0 0 0 0 0 0 0 0 1 0 0 0 0 0 0 -0.976318659154929 1 -0.201497514569885 -0.0486426298843416</REAL-Entries>
    </REAL-SparseArray>
   </VectorInstance>
   <VectorInstance id="176">
    <REAL-SparseArray n="45">
     <Indices> 1 2 3 4 5 6 7 8 9 10 11 12 13 14 15 16 17 18 19 20 21 22 23 24 25 26 27 28 29 30 31 32 33 34 35 36 37 38 39 40 41 42 43 44 45</Indices>
     <REAL-Entries> 0.66830921440016 0 1 0 0 0 0 0 0 1 0 0 0 0 0 0 0 0 0 0 0 0 0 0 1 0 0 0 0 0 0 0 0 0 0 0 1 0 0 0 0 -0.654584716872728 1 -0.201497514569885 -0.0486426298843416</REAL-Entries>
    </REAL-SparseArray>
   </VectorInstance>
   <VectorInstance id="177">
    <REAL-SparseArray n="45">
     <Indices> 1 2 3 4 5 6 7 8 9 10 11 12 13 14 15 16 17 18 19 20 21 22 23 24 25 26 27 28 29 30 31 32 33 34 35 36 37 38 39 40 41 42 43 44 45</Indices>
     <REAL-Entries> 0.360942007292893 0 1 0 0 0 0 0 0 1 0 0 0 0 0 0 0 0 0 0 0 0 0 0 0 0 0 0 0 1 0 0 0 0 0 0 0 0 0 0 0 -0.0624335547357412 1 -0.201497514569885 0.80903939565293</REAL-Entries>
    </REAL-SparseArray>
   </VectorInstance>
   <VectorInstance id="178">
    <REAL-SparseArray n="45">
     <Indices> 1 2 3 4 5 6 7 8 9 10 11 12 13 14 15 16 17 18 19 20 21 22 23 24 25 26 27 28 29 30 31 32 33 34 35 36 37 38 39 40 41 42 43 44 45</Indices>
     <REAL-Entries> 1.74409443927559 0 1 0 0 0 0 0 0 0 0 1 0 0 0 0 0 0 0 0 0 0 0 0 1 0 0 0 0 0 0 0 0 0 0 0 1 0 0 0 0 -1.0225004233107 1 3.81125650622499 -1.76400668095889</REAL-Entries>
    </REAL-SparseArray>
   </VectorInstance>
   <VectorInstance id="179">
    <REAL-SparseArray n="45">
     <Indices> 1 2 3 4 5 6 7 8 9 10 11 12 13 14 15 16 17 18 19 20 21 22 23 24 25 26 27 28 29 30 31 32 33 34 35 36 37 38 39 40 41 42 43 44 45</Indices>
     <REAL-Entries> -0.638001415805723 0 1 0 0 0 0 0 0 0 0 1 0 0 0 0 0 0 0 0 0 0 0 0 1 0 0 0 0 0 0 0 0 0 0 0 0 0 0 0 0 -0.734936302836361 1 -0.201497514569885 0.294430180330567</REAL-Entries>
    </REAL-SparseArray>
   </VectorInstance>
   <VectorInstance id="180">
    <REAL-SparseArray n="45">
     <Indices> 1 2 3 4 5 6 7 8 9 10 11 12 13 14 15 16 17 18 19 20 21 22 23 24 25 26 27 28 29 30 31 32 33 34 35 36 37 38 39 40 41 42 43 44 45</Indices>
     <REAL-Entries> -0.407476010475273 0 0 0 1 0 0 0 0 0 0 0 1 0 0 0 0 0 0 0 0 0 0 0 0 0 0 0 0 0 0 0 0 0 1 0 0 0 0 0 0 -0.0264770802678144 0 -0.201497514569885 -0.0486426298843416</REAL-Entries>
    </REAL-SparseArray>
   </VectorInstance>
   <VectorInstance id="181">
    <REAL-SparseArray n="45">
     <Indices> 1 2 3 4 5 6 7 8 9 10 11 12 13 14 15 16 17 18 19 20 21 22 23 24 25 26 27 28 29 30 31 32 33 34 35 36 37 38 39 40 41 42 43 44 45</Indices>
     <REAL-Entries> -0.638001415805723 0 1 0 0 0 0 0 0 1 0 0 0 0 0 0 0 0 0 0 0 0 0 0 0 0 0 0 0 1 0 0 0 0 0 0 0 0 0 0 0 -0.451856679103832 1 -0.201497514569885 0.980575800760385</REAL-Entries>
    </REAL-SparseArray>
   </VectorInstance>
   <VectorInstance id="182">
    <REAL-SparseArray n="45">
     <Indices> 1 2 3 4 5 6 7 8 9 10 11 12 13 14 15 16 17 18 19 20 21 22 23 24 25 26 27 28 29 30 31 32 33 34 35 36 37 38 39 40 41 42 43 44 45</Indices>
     <REAL-Entries> -0.330634208698456 0 1 0 0 0 0 0 0 0 0 0 0 0 0 0 0 1 0 0 0 0 0 0 1 0 0 0 0 0 0 0 0 0 0 0 0 0 0 0 0 -0.949882628349124 1 -0.201497514569885 -0.0486426298843416</REAL-Entries>
    </REAL-SparseArray>
   </VectorInstance>
   <VectorInstance id="183">
    <REAL-SparseArray n="45">
     <Indices> 1 2 3 4 5 6 7 8 9 10 11 12 13 14 15 16 17 18 19 20 21 22 23 24 25 26 27 28 29 30 31 32 33 34 35 36 37 38 39 40 41 42 43 44 45</Indices>
     <REAL-Entries> 0.898834619730609 0 1 0 0 0 0 0 0 0 0 1 0 0 0 0 0 0 0 0 0 0 0 0 1 0 0 0 1 0 0 0 0 0 0 0 0 0 0 0 0 -1.0921682539814 1 -0.201497514569885 -0.0486426298843416</REAL-Entries>
    </REAL-SparseArray>
   </VectorInstance>
   <VectorInstance id="184">
    <REAL-SparseArray n="45">
     <Indices> 1 2 3 4 5 6 7 8 9 10 11 12 13 14 15 16 17 18 19 20 21 22 23 24 25 26 27 28 29 30 31 32 33 34 35 36 37 38 39 40 41 42 43 44 45</Indices>
     <REAL-Entries> -0.25379240692164 0 1 0 0 0 0 0 0 0 0 0 0 0 0 0 0 1 0 0 0 0 0 0 1 0 0 0 0 0 0 0 0 0 0 0 0 1 0 0 0 -0.513907092983974 1 -0.201497514569885 2.09556243395884</REAL-Entries>
    </REAL-SparseArray>
   </VectorInstance>
   <VectorInstance id="185">
    <REAL-SparseArray n="45">
     <Indices> 1 2 3 4 5 6 7 8 9 10 11 12 13 14 15 16 17 18 19 20 21 22 23 24 25 26 27 28 29 30 31 32 33 34 35 36 37 38 39 40 41 42 43 44 45</Indices>
     <REAL-Entries> 0.20725840373926 0 0 0 0 0 1 0 0 0 0 1 0 0 0 0 0 0 0 0 0 0 0 0 1 0 0 0 0 0 0 0 0 0 0 0 1 0 0 0 0 -0.618878784172086 1 -0.201497514569885 0.80903939565293</REAL-Entries>
    </REAL-SparseArray>
   </VectorInstance>
   <VectorInstance id="186">
    <REAL-SparseArray n="45">
     <Indices> 1 2 3 4 5 6 7 8 9 10 11 12 13 14 15 16 17 18 19 20 21 22 23 24 25 26 27 28 29 30 31 32 33 34 35 36 37 38 39 40 41 42 43 44 45</Indices>
     <REAL-Entries> 1.28304362861469 1 0 0 0 0 0 0 1 0 0 0 0 0 0 0 0 0 0 0 0 0 0 0 1 0 0 0 0 0 0 0 0 0 1 0 0 0 0 0 0 3.53238549708412 0 -0.201497514569885 -2.79322511160361</REAL-Entries>
    </REAL-SparseArray>
   </VectorInstance>
   <VectorInstance id="187">
    <REAL-SparseArray n="45">
     <Indices> 1 2 3 4 5 6 7 8 9 10 11 12 13 14 15 16 17 18 19 20 21 22 23 24 25 26 27 28 29 30 31 32 33 34 35 36 37 38 39 40 41 42 43 44 45</Indices>
     <REAL-Entries> 0.591467412623343 0 1 0 0 0 0 0 0 0 0 0 0 0 0 0 0 0 0 0 0 0 0 0 1 0 0 0 0 0 0 0 0 0 0 0 0 0 0 0 1 -0.515716561303255 1 -0.201497514569885 -0.39171544009925</REAL-Entries>
    </REAL-SparseArray>
   </VectorInstance>
   <VectorInstance id="188">
    <REAL-SparseArray n="45">
     <Indices> 1 2 3 4 5 6 7 8 9 10 11 12 13 14 15 16 17 18 19 20 21 22 23 24 25 26 27 28 29 30 31 32 33 34 35 36 37 38 39 40 41 42 43 44 45</Indices>
     <REAL-Entries> 1.74409443927559 0 1 0 0 0 0 0 0 0 0 1 0 0 0 0 0 0 0 0 0 0 0 0 1 0 0 0 0 0 0 0 1 0 0 0 0 0 0 0 0 -0.712942868316436 1 -0.201497514569885 -0.0486426298843416</REAL-Entries>
    </REAL-SparseArray>
   </VectorInstance>
   <VectorInstance id="189">
    <REAL-SparseArray n="45">
     <Indices> 1 2 3 4 5 6 7 8 9 10 11 12 13 14 15 16 17 18 19 20 21 22 23 24 25 26 27 28 29 30 31 32 33 34 35 36 37 38 39 40 41 42 43 44 45</Indices>
     <REAL-Entries> -0.25379240692164 0 1 0 0 0 0 0 1 0 0 0 0 0 0 0 0 0 0 0 0 0 0 0 1 0 0 0 0 0 0 0 0 0 1 0 0 0 0 0 0 -0.696878922288926 1 -0.201497514569885 0.80903939565293</REAL-Entries>
    </REAL-SparseArray>
   </VectorInstance>
   <VectorInstance id="190">
    <REAL-SparseArray n="45">
     <Indices> 1 2 3 4 5 6 7 8 9 10 11 12 13 14 15 16 17 18 19 20 21 22 23 24 25 26 27 28 29 30 31 32 33 34 35 36 37 38 39 40 41 42 43 44 45</Indices>
     <REAL-Entries> 1.43672723216833 0 1 0 0 0 0 0 0 0 0 1 0 0 0 0 0 0 0 0 0 0 0 0 1 0 0 0 0 1 0 0 0 0 0 0 0 0 0 0 0 1.37930961908525 0 -0.201497514569885 -0.220179034991796</REAL-Entries>
    </REAL-SparseArray>
   </VectorInstance>
   <VectorInstance id="191">
    <REAL-SparseArray n="45">
     <Indices> 1 2 3 4 5 6 7 8 9 10 11 12 13 14 15 16 17 18 19 20 21 22 23 24 25 26 27 28 29 30 31 32 33 34 35 36 37 38 39 40 41 42 43 44 45</Indices>
     <REAL-Entries> -0.407476010475273 0 0 0 0 1 0 0 0 0 0 1 0 0 0 0 0 0 0 0 0 0 0 0 1 0 0 0 0 0 0 0 0 0 0 0 0 0 0 1 0 -1.06570022385481 1 -0.201497514569885 -0.0486426298843416</REAL-Entries>
    </REAL-SparseArray>
   </VectorInstance>
   <VectorInstance id="192">
    <REAL-SparseArray n="45">
     <Indices> 1 2 3 4 5 6 7 8 9 10 11 12 13 14 15 16 17 18 19 20 21 22 23 24 25 26 27 28 29 30 31 32 33 34 35 36 37 38 39 40 41 42 43 44 45</Indices>
     <REAL-Entries> 0.821992817953793 0 1 0 0 0 0 0 1 0 0 0 0 0 0 0 0 0 0 0 0 0 0 0 1 0 0 0 0 0 0 0 0 0 1 0 0 0 0 0 0 -0.481722951001819 1 -0.201497514569885 -0.0486426298843416</REAL-Entries>
    </REAL-SparseArray>
   </VectorInstance>
   <VectorInstance id="193">
    <REAL-SparseArray n="45">
     <Indices> 1 2 3 4 5 6 7 8 9 10 11 12 13 14 15 16 17 18 19 20 21 22 23 24 25 26 27 28 29 30 31 32 33 34 35 36 37 38 39 40 41 42 43 44 45</Indices>
     <REAL-Entries> 2.43567065526694 0 1 0 0 0 0 0 0 0 0 0 0 0 0 0 0 1 0 0 0 0 0 0 1 0 0 0 0 0 0 0 0 0 0 0 0 0 0 0 1 -0.701997952647533 1 -0.201497514569885 -0.0486426298843416</REAL-Entries>
    </REAL-SparseArray>
   </VectorInstance>
   <VectorInstance id="194">
    <REAL-SparseArray n="45">
     <Indices> 1 2 3 4 5 6 7 8 9 10 11 12 13 14 15 16 17 18 19 20 21 22 23 24 25 26 27 28 29 30 31 32 33 34 35 36 37 38 39 40 41 42 43 44 45</Indices>
     <REAL-Entries> 0.284100205516077 0 1 0 0 0 0 0 0 0 0 1 0 0 0 0 0 0 0 0 0 0 0 0 1 0 0 0 0 0 0 0 0 0 0 0 1 0 0 0 0 -0.955885586134121 1 3.06974808404984 -0.0486426298843416</REAL-Entries>
    </REAL-SparseArray>
   </VectorInstance>
   <VectorInstance id="195">
