<?xml version="1.0"?>
<PMML version="4.2" xmlns="http://www.dmg.org/PMML-4_2" xmlns:xsi="http://www.w3.org/2001/XMLSchema-instance" xsi:schemaLocation="http://www.dmg.org/PMML-4_2 http://www.dmg.org/v4-2/pmml-4-2.xsd">
 <Header copyright="Copyright (c) 2014 vfed" description="Neural Network PMML Model">
  <Extension name="user" value="vfed" extender="Rattle/PMML"/>
  <Application name="Rattle/PMML" version="1.4"/>
  <Timestamp>2014-07-07 00:23:34</Timestamp>
 </Header>
 <DataDictionary numberOfFields="9">
  <DataField name="Adjusted" optype="categorical" dataType="string">
   <Value value="0"/>
   <Value value="1"/>
  </DataField>
  <DataField name="Employment" optype="categorical" dataType="string">
   <Value value="Consultant"/>
   <Value value="Private"/>
   <Value value="PSFederal"/>
   <Value value="PSLocal"/>
   <Value value="PSState"/>
   <Value value="SelfEmp"/>
   <Value value="Volunteer"/>
  </DataField>
  <DataField name="Education" optype="categorical" dataType="string">
   <Value value="Associate"/>
   <Value value="Bachelor"/>
   <Value value="College"/>
   <Value value="Doctorate"/>
   <Value value="HSgrad"/>
   <Value value="Master"/>
   <Value value="Preschool"/>
   <Value value="Professional"/>
   <Value value="Vocational"/>
   <Value value="Yr10"/>
   <Value value="Yr11"/>
   <Value value="Yr12"/>
   <Value value="Yr1t4"/>
   <Value value="Yr5t6"/>
   <Value value="Yr7t8"/>
   <Value value="Yr9"/>
  </DataField>
  <DataField name="Marital" optype="categorical" dataType="string">
   <Value value="Absent"/>
   <Value value="Divorced"/>
   <Value value="Married"/>
   <Value value="Married-spouse-absent"/>
   <Value value="Unmarried"/>
   <Value value="Widowed"/>
  </DataField>
  <DataField name="Occupation" optype="categorical" dataType="string">
   <Value value="Cleaner"/>
   <Value value="Clerical"/>
   <Value value="Executive"/>
   <Value value="Farming"/>
   <Value value="Home"/>
   <Value value="Machinist"/>
   <Value value="Military"/>
   <Value value="Professional"/>
   <Value value="Protective"/>
   <Value value="Repair"/>
   <Value value="Sales"/>
   <Value value="Service"/>
   <Value value="Support"/>
   <Value value="Transport"/>
  </DataField>
  <DataField name="Income" optype="continuous" dataType="double"/>
  <DataField name="Gender" optype="categorical" dataType="string">
   <Value value="Female"/>
   <Value value="Male"/>
  </DataField>
  <DataField name="Deductions" optype="continuous" dataType="double"/>
  <DataField name="Hours" optype="continuous" dataType="double"/>
 </DataDictionary>
 <NeuralNetwork modelName="NeuralNet_model" functionName="classification" numberOfLayers="3" activationFunction="logistic">
  <MiningSchema>
   <MiningField name="Adjusted" usageType="predicted"/>
   <MiningField name="Employment" usageType="active"/>
   <MiningField name="Education" usageType="active"/>
   <MiningField name="Marital" usageType="active"/>
   <MiningField name="Occupation" usageType="active"/>
   <MiningField name="Income" usageType="active"/>
   <MiningField name="Gender" usageType="active"/>
   <MiningField name="Deductions" usageType="active"/>
   <MiningField name="Hours" usageType="active"/>
  </MiningSchema>
  <Output>
   <OutputField name="Predicted_Adjusted" feature="predictedValue"/>
   <OutputField name="Probability_0" optype="continuous" dataType="double" feature="probability" value="0"/>
   <OutputField name="Probability_1" optype="continuous" dataType="double" feature="probability" value="1"/>
  </Output>
  <NeuralInputs numberOfInputs="43">
   <NeuralInput id="1">
    <DerivedField name="derivedNI_EmploymentPrivate" optype="continuous" dataType="double">
     <NormDiscrete field="Employment" value="Private"/>
    </DerivedField>
   </NeuralInput>
   <NeuralInput id="2">
    <DerivedField name="derivedNI_EmploymentPSFederal" optype="continuous" dataType="double">
     <NormDiscrete field="Employment" value="PSFederal"/>
    </DerivedField>
   </NeuralInput>
   <NeuralInput id="3">
    <DerivedField name="derivedNI_EmploymentPSLocal" optype="continuous" dataType="double">
     <NormDiscrete field="Employment" value="PSLocal"/>
    </DerivedField>
   </NeuralInput>
   <NeuralInput id="4">
    <DerivedField name="derivedNI_EmploymentPSState" optype="continuous" dataType="double">
     <NormDiscrete field="Employment" value="PSState"/>
    </DerivedField>
   </NeuralInput>
   <NeuralInput id="5">
    <DerivedField name="derivedNI_EmploymentSelfEmp" optype="continuous" dataType="double">
     <NormDiscrete field="Employment" value="SelfEmp"/>
    </DerivedField>
   </NeuralInput>
   <NeuralInput id="6">
    <DerivedField name="derivedNI_EmploymentVolunteer" optype="continuous" dataType="double">
     <NormDiscrete field="Employment" value="Volunteer"/>
    </DerivedField>
   </NeuralInput>
   <NeuralInput id="7">
    <DerivedField name="derivedNI_EducationBachelor" optype="continuous" dataType="double">
     <NormDiscrete field="Education" value="Bachelor"/>
    </DerivedField>
   </NeuralInput>
   <NeuralInput id="8">
    <DerivedField name="derivedNI_EducationCollege" optype="continuous" dataType="double">
     <NormDiscrete field="Education" value="College"/>
    </DerivedField>
   </NeuralInput>
   <NeuralInput id="9">
    <DerivedField name="derivedNI_EducationDoctorate" optype="continuous" dataType="double">
     <NormDiscrete field="Education" value="Doctorate"/>
    </DerivedField>
   </NeuralInput>
   <NeuralInput id="10">
    <DerivedField name="derivedNI_EducationHSgrad" optype="continuous" dataType="double">
     <NormDiscrete field="Education" value="HSgrad"/>
    </DerivedField>
   </NeuralInput>
   <NeuralInput id="11">
    <DerivedField name="derivedNI_EducationMaster" optype="continuous" dataType="double">
     <NormDiscrete field="Education" value="Master"/>
    </DerivedField>
   </NeuralInput>
   <NeuralInput id="12">
    <DerivedField name="derivedNI_EducationPreschool" optype="continuous" dataType="double">
     <NormDiscrete field="Education" value="Preschool"/>
    </DerivedField>
   </NeuralInput>
   <NeuralInput id="13">
    <DerivedField name="derivedNI_EducationProfessional" optype="continuous" dataType="double">
     <NormDiscrete field="Education" value="Professional"/>
    </DerivedField>
   </NeuralInput>
   <NeuralInput id="14">
    <DerivedField name="derivedNI_EducationVocational" optype="continuous" dataType="double">
     <NormDiscrete field="Education" value="Vocational"/>
    </DerivedField>
   </NeuralInput>
   <NeuralInput id="15">
    <DerivedField name="derivedNI_EducationYr10" optype="continuous" dataType="double">
     <NormDiscrete field="Education" value="Yr10"/>
    </DerivedField>
   </NeuralInput>
   <NeuralInput id="16">
    <DerivedField name="derivedNI_EducationYr11" optype="continuous" dataType="double">
     <NormDiscrete field="Education" value="Yr11"/>
    </DerivedField>
   </NeuralInput>
   <NeuralInput id="17">
    <DerivedField name="derivedNI_EducationYr12" optype="continuous" dataType="double">
     <NormDiscrete field="Education" value="Yr12"/>
    </DerivedField>
   </NeuralInput>
   <NeuralInput id="18">
    <DerivedField name="derivedNI_EducationYr1t4" optype="continuous" dataType="double">
     <NormDiscrete field="Education" value="Yr1t4"/>
    </DerivedField>
   </NeuralInput>
   <NeuralInput id="19">
    <DerivedField name="derivedNI_EducationYr5t6" optype="continuous" dataType="double">
     <NormDiscrete field="Education" value="Yr5t6"/>
    </DerivedField>
   </NeuralInput>
   <NeuralInput id="20">
    <DerivedField name="derivedNI_EducationYr7t8" optype="continuous" dataType="double">
     <NormDiscrete field="Education" value="Yr7t8"/>
    </DerivedField>
   </NeuralInput>
   <NeuralInput id="21">
    <DerivedField name="derivedNI_EducationYr9" optype="continuous" dataType="double">
     <NormDiscrete field="Education" value="Yr9"/>
    </DerivedField>
   </NeuralInput>
   <NeuralInput id="22">
    <DerivedField name="derivedNI_MaritalDivorced" optype="continuous" dataType="double">
     <NormDiscrete field="Marital" value="Divorced"/>
    </DerivedField>
   </NeuralInput>
   <NeuralInput id="23">
    <DerivedField name="derivedNI_MaritalMarried" optype="continuous" dataType="double">
     <NormDiscrete field="Marital" value="Married"/>
    </DerivedField>
   </NeuralInput>
   <NeuralInput id="24">
    <DerivedField name="derivedNI_MaritalMarried-spouse-absent" optype="continuous" dataType="double">
     <NormDiscrete field="Marital" value="Married-spouse-absent"/>
    </DerivedField>
   </NeuralInput>
   <NeuralInput id="25">
    <DerivedField name="derivedNI_MaritalUnmarried" optype="continuous" dataType="double">
     <NormDiscrete field="Marital" value="Unmarried"/>
    </DerivedField>
   </NeuralInput>
   <NeuralInput id="26">
    <DerivedField name="derivedNI_MaritalWidowed" optype="continuous" dataType="double">
     <NormDiscrete field="Marital" value="Widowed"/>
    </DerivedField>
   </NeuralInput>
   <NeuralInput id="27">
    <DerivedField name="derivedNI_OccupationClerical" optype="continuous" dataType="double">
     <NormDiscrete field="Occupation" value="Clerical"/>
    </DerivedField>
   </NeuralInput>
   <NeuralInput id="28">
    <DerivedField name="derivedNI_OccupationExecutive" optype="continuous" dataType="double">
     <NormDiscrete field="Occupation" value="Executive"/>
    </DerivedField>
   </NeuralInput>
   <NeuralInput id="29">
    <DerivedField name="derivedNI_OccupationFarming" optype="continuous" dataType="double">
     <NormDiscrete field="Occupation" value="Farming"/>
    </DerivedField>
   </NeuralInput>
   <NeuralInput id="30">
    <DerivedField name="derivedNI_OccupationHome" optype="continuous" dataType="double">
     <NormDiscrete field="Occupation" value="Home"/>
    </DerivedField>
   </NeuralInput>
   <NeuralInput id="31">
    <DerivedField name="derivedNI_OccupationMachinist" optype="continuous" dataType="double">
     <NormDiscrete field="Occupation" value="Machinist"/>
    </DerivedField>
   </NeuralInput>
   <NeuralInput id="32">
    <DerivedField name="derivedNI_OccupationMilitary" optype="continuous" dataType="double">
     <NormDiscrete field="Occupation" value="Military"/>
    </DerivedField>
   </NeuralInput>
   <NeuralInput id="33">
    <DerivedField name="derivedNI_OccupationProfessional" optype="continuous" dataType="double">
     <NormDiscrete field="Occupation" value="Professional"/>
    </DerivedField>
   </NeuralInput>
   <NeuralInput id="34">
    <DerivedField name="derivedNI_OccupationProtective" optype="continuous" dataType="double">
     <NormDiscrete field="Occupation" value="Protective"/>
    </DerivedField>
   </NeuralInput>
   <NeuralInput id="35">
    <DerivedField name="derivedNI_OccupationRepair" optype="continuous" dataType="double">
     <NormDiscrete field="Occupation" value="Repair"/>
    </DerivedField>
   </NeuralInput>
   <NeuralInput id="36">
    <DerivedField name="derivedNI_OccupationSales" optype="continuous" dataType="double">
     <NormDiscrete field="Occupation" value="Sales"/>
    </DerivedField>
   </NeuralInput>
   <NeuralInput id="37">
    <DerivedField name="derivedNI_OccupationService" optype="continuous" dataType="double">
     <NormDiscrete field="Occupation" value="Service"/>
    </DerivedField>
   </NeuralInput>
   <NeuralInput id="38">
    <DerivedField name="derivedNI_OccupationSupport" optype="continuous" dataType="double">
     <NormDiscrete field="Occupation" value="Support"/>
    </DerivedField>
   </NeuralInput>
   <NeuralInput id="39">
    <DerivedField name="derivedNI_OccupationTransport" optype="continuous" dataType="double">
     <NormDiscrete field="Occupation" value="Transport"/>
    </DerivedField>
   </NeuralInput>
   <NeuralInput id="40">
    <DerivedField name="derivedNI_Income" optype="continuous" dataType="double">
     <FieldRef field="Income"/>
    </DerivedField>
   </NeuralInput>
   <NeuralInput id="41">
    <DerivedField name="derivedNI_GenderMale" optype="continuous" dataType="double">
     <NormDiscrete field="Gender" value="Male"/>
    </DerivedField>
   </NeuralInput>
   <NeuralInput id="42">
    <DerivedField name="derivedNI_Deductions" optype="continuous" dataType="double">
     <FieldRef field="Deductions"/>
    </DerivedField>
   </NeuralInput>
   <NeuralInput id="43">
    <DerivedField name="derivedNI_Hours" optype="continuous" dataType="double">
     <FieldRef field="Hours"/>
    </DerivedField>
   </NeuralInput>
  </NeuralInputs>
  <NeuralLayer numberOfNeurons="9">
   <Neuron id="44" bias="3.16079989958044e-05">
    <Con from="1" weight="3.16681297224203e-05"/>
    <Con from="2" weight="1.42362767521828e-08"/>
    <Con from="3" weight="5.27082485302796e-08"/>
    <Con from="4" weight="-5.96026424330963e-08"/>
    <Con from="5" weight="6.30857013232318e-08"/>
    <Con from="6" weight="-9.58348558815927e-09"/>
    <Con from="7" weight="-3.41033624029077e-08"/>
    <Con from="8" weight="3.15872182158444e-05"/>
    <Con from="9" weight="5.91991684289264e-08"/>
    <Con from="10" weight="-2.10379145490979e-08"/>
    <Con from="11" weight="-4.88068231192266e-08"/>
    <Con from="12" weight="-5.03790010629994e-08"/>
    <Con from="13" weight="-8.54965163582559e-09"/>
    <Con from="14" weight="-1.20668616233878e-08"/>
    <Con from="15" weight="1.74765471873878e-08"/>
    <Con from="16" weight="1.83926053865416e-08"/>
    <Con from="17" weight="-1.17972308535861e-08"/>
    <Con from="18" weight="-4.71403247944852e-08"/>
    <Con from="19" weight="-2.32861129143158e-08"/>
    <Con from="20" weight="4.68155215697315e-08"/>
    <Con from="21" weight="-6.05603073220043e-09"/>
    <Con from="22" weight="-2.29493494440061e-08"/>
    <Con from="23" weight="-3.87495846655768e-09"/>
    <Con from="24" weight="5.33047575849368e-08"/>
    <Con from="25" weight="-1.54778223072546e-08"/>
    <Con from="26" weight="6.04037616808575e-08"/>
    <Con from="27" weight="4.97745143218938e-09"/>
    <Con from="28" weight="3.16573074485368e-05"/>
    <Con from="29" weight="-1.72231146360679e-08"/>
    <Con from="30" weight="9.9183606916645e-09"/>
    <Con from="31" weight="1.22271581274177e-08"/>
    <Con from="32" weight="-5.40099554658882e-08"/>
    <Con from="33" weight="-3.98275604700993e-08"/>
    <Con from="34" weight="-5.17143370297275e-09"/>
    <Con from="35" weight="5.06570163391324e-08"/>
    <Con from="36" weight="5.62357671079635e-09"/>
    <Con from="37" weight="5.77927524486679e-08"/>
    <Con from="38" weight="-3.33741907431127e-08"/>
    <Con from="39" weight="5.36849276798566e-08"/>
    <Con from="40" weight="0.0192883510790182"/>
    <Con from="41" weight="3.16699631036974e-05"/>
    <Con from="42" weight="-6.02177670008438e-08"/>
    <Con from="43" weight="0.00126538657895442"/>
   </Neuron>
   <Neuron id="45" bias="9.89041649346526">
    <Con from="1" weight="-0.165801750090832"/>
    <Con from="2" weight="0.44382685637342"/>
    <Con from="3" weight="1.07059897049352"/>
    <Con from="4" weight="-3.81359342844813"/>
    <Con from="5" weight="0.644455703500121"/>
    <Con from="6" weight="7.52553484874602"/>
    <Con from="7" weight="6.62125678949642"/>
    <Con from="8" weight="5.44735503756869"/>
    <Con from="9" weight="-5.63863702564812"/>
    <Con from="10" weight="5.98484590984977"/>
    <Con from="11" weight="2.28791185902412"/>
    <Con from="12" weight="8.24605559523502"/>
    <Con from="13" weight="-5.32294912237816"/>
    <Con from="14" weight="5.15324122719532"/>
    <Con from="15" weight="6.70757769075042"/>
    <Con from="16" weight="7.12793214779354"/>
    <Con from="17" weight="8.04463947640657"/>
    <Con from="18" weight="9.01911912447712"/>
    <Con from="19" weight="11.3421591778108"/>
    <Con from="20" weight="11.7976580480189"/>
    <Con from="21" weight="13.329554229957"/>
    <Con from="22" weight="-3.22350128043162"/>
    <Con from="23" weight="-11.9307650200479"/>
    <Con from="24" weight="-2.67050263040667"/>
    <Con from="25" weight="-6.09446319475725"/>
    <Con from="26" weight="-1.840237689367"/>
    <Con from="27" weight="-2.07248922451186"/>
    <Con from="28" weight="-1.65201465413866"/>
    <Con from="29" weight="0.510634486555103"/>
    <Con from="30" weight="0.0937075136754199"/>
    <Con from="31" weight="-1.03838646301063"/>
    <Con from="32" weight="0.0013973218846178"/>
    <Con from="33" weight="-1.16472484480149"/>
    <Con from="34" weight="-6.34935088992375"/>
    <Con from="35" weight="-0.968075382844639"/>
    <Con from="36" weight="-0.899593561651845"/>
    <Con from="37" weight="14.8794899519348"/>
    <Con from="38" weight="-3.35743212033771"/>
    <Con from="39" weight="-0.594322314569743"/>
    <Con from="40" weight="-9.92772419637456e-06"/>
    <Con from="41" weight="-0.0702808111932903"/>
    <Con from="42" weight="-1.01185685584041e-05"/>
    <Con from="43" weight="-0.0704077543164183"/>
   </Neuron>
   <Neuron id="46" bias="3.14123836058962e-05">
    <Con from="1" weight="3.13247068569309e-05"/>
    <Con from="2" weight="3.43262873074346e-08"/>
    <Con from="3" weight="-5.64160312306105e-08"/>
    <Con from="4" weight="4.47507148764891e-08"/>
    <Con from="5" weight="-5.52030310327917e-08"/>
    <Con from="6" weight="6.11005737449041e-08"/>
    <Con from="7" weight="2.29352424351575e-08"/>
    <Con from="8" weight="3.13750395574619e-05"/>
    <Con from="9" weight="-3.98968641557239e-08"/>
    <Con from="10" weight="-5.42394467333137e-08"/>
    <Con from="11" weight="-4.46069896307586e-08"/>
    <Con from="12" weight="-1.38825148793237e-08"/>
    <Con from="13" weight="-1.33725407603337e-08"/>
    <Con from="14" weight="-3.54770645220452e-08"/>
    <Con from="15" weight="-1.57848678356503e-08"/>
    <Con from="16" weight="1.76025429341627e-08"/>
    <Con from="17" weight="6.41954129900504e-08"/>
    <Con from="18" weight="2.67700493422557e-08"/>
    <Con from="19" weight="4.80833066731112e-08"/>
    <Con from="20" weight="-1.19508561226018e-08"/>
    <Con from="21" weight="-2.58010043582072e-08"/>
    <Con from="22" weight="1.51027556844399e-08"/>
    <Con from="23" weight="5.25199323743132e-08"/>
    <Con from="24" weight="3.86562352759068e-08"/>
    <Con from="25" weight="3.85367135959362e-09"/>
    <Con from="26" weight="-3.81484473409053e-08"/>
    <Con from="27" weight="4.03842094465294e-08"/>
    <Con from="28" weight="3.13335185609713e-05"/>
    <Con from="29" weight="5.95752277996029e-09"/>
    <Con from="30" weight="-3.32715652852842e-08"/>
    <Con from="31" weight="-5.47399175966762e-08"/>
    <Con from="32" weight="5.11387557427196e-08"/>
    <Con from="33" weight="4.71665911057266e-08"/>
    <Con from="34" weight="-1.51245877882528e-08"/>
    <Con from="35" weight="-9.6853662493327e-09"/>
    <Con from="36" weight="7.57860403148458e-09"/>
    <Con from="37" weight="6.23490126630246e-08"/>
    <Con from="38" weight="4.03716138134456e-08"/>
    <Con from="39" weight="5.57942936015052e-08"/>
    <Con from="40" weight="0.019138530520631"/>
    <Con from="41" weight="3.13301521513808e-05"/>
    <Con from="42" weight="4.14516896721163e-08"/>
    <Con from="43" weight="0.00125551811787365"/>
   </Neuron>
   <Neuron id="47" bias="-0.0005703148760269">
    <Con from="1" weight="0.000819616075105564"/>
    <Con from="2" weight="-0.00138978096587385"/>
    <Con from="3" weight="-5.70274771665838e-08"/>
    <Con from="4" weight="-4.81981026747226e-08"/>
    <Con from="5" weight="-8.85665623026561e-09"/>
    <Con from="6" weight="1.22050790292278e-08"/>
    <Con from="7" weight="0.00081961257696475"/>
    <Con from="8" weight="4.66225985003383e-08"/>
    <Con from="9" weight="4.90786950612728e-08"/>
    <Con from="10" weight="-0.00138972943333929"/>
    <Con from="11" weight="-2.11766985407646e-07"/>
    <Con from="12" weight="2.54522268419466e-08"/>
    <Con from="13" weight="-4.94912134499357e-08"/>
    <Con from="14" weight="6.08562838997648e-08"/>
    <Con from="15" weight="-2.08533019278677e-08"/>
    <Con from="16" weight="-5.50377738999297e-09"/>
    <Con from="17" weight="-2.36140837525576e-08"/>
    <Con from="18" weight="4.90785135736276e-08"/>
    <Con from="19" weight="2.13893464797273e-08"/>
    <Con from="20" weight="-5.92776038082007e-08"/>
    <Con from="21" weight="-1.20402083934556e-08"/>
    <Con from="22" weight="1.99863241418534e-08"/>
    <Con from="23" weight="0.000819400915303314"/>
    <Con from="24" weight="-2.20465914525301e-08"/>
    <Con from="25" weight="-2.83210193632883e-08"/>
    <Con from="26" weight="-2.24117875418915e-08"/>
    <Con from="27" weight="-0.00138978203315084"/>
    <Con from="28" weight="0.000819393639084064"/>
    <Con from="29" weight="-4.56636534846081e-08"/>
    <Con from="30" weight="-1.5087247570023e-08"/>
    <Con from="31" weight="-4.02007776308176e-08"/>
    <Con from="32" weight="4.95110591807017e-08"/>
    <Con from="33" weight="-3.58820114500814e-08"/>
    <Con from="34" weight="6.15395996056978e-08"/>
    <Con from="35" weight="-4.10076383991242e-08"/>
    <Con from="36" weight="-5.3855404182257e-08"/>
    <Con from="37" weight="-5.50508843014101e-08"/>
    <Con from="38" weight="4.23982768673083e-09"/>
    <Con from="39" weight="-1.19329684705291e-08"/>
    <Con from="40" weight="0.093169228760662"/>
    <Con from="41" weight="-0.000570312542548848"/>
    <Con from="42" weight="-0.251661420213489"/>
    <Con from="43" weight="-0.0187098805569809"/>
   </Neuron>
   <Neuron id="48" bias="7.79214528924217e-05">
    <Con from="1" weight="0.000760153330557483"/>
    <Con from="2" weight="-2.12252573148908e-05"/>
    <Con from="3" weight="-8.96618779866131e-06"/>
    <Con from="4" weight="5.90946812615691e-05"/>
    <Con from="5" weight="6.48109293904683e-06"/>
    <Con from="6" weight="2.76217035678437e-08"/>
    <Con from="7" weight="0.000353200329639144"/>
    <Con from="8" weight="0.000373372463685362"/>
    <Con from="9" weight="-3.82121214427266e-08"/>
    <Con from="10" weight="-0.000700171374838855"/>
    <Con from="11" weight="5.91158817920192e-05"/>
    <Con from="12" weight="5.43871291630495e-08"/>
    <Con from="13" weight="-6.39067772530152e-08"/>
    <Con from="14" weight="-9.04378772947186e-06"/>
    <Con from="15" weight="7.73905379817496e-09"/>
    <Con from="16" weight="5.02801319446492e-08"/>
    <Con from="17" weight="6.07583479607988e-08"/>
    <Con from="18" weight="1.52308998700295e-06"/>
    <Con from="19" weight="-5.25675511587337e-08"/>
    <Con from="20" weight="-3.4569170585049e-09"/>
    <Con from="21" weight="-1.193946969872e-08"/>
    <Con from="22" weight="8.77861153344894e-06"/>
    <Con from="23" weight="-0.00032798947028017"/>
    <Con from="24" weight="1.85749154308897e-08"/>
    <Con from="25" weight="-6.17392029704604e-08"/>
    <Con from="26" weight="-1.46120110427373e-08"/>
    <Con from="27" weight="4.96906930296929e-08"/>
    <Con from="28" weight="0.000349278544858956"/>
    <Con from="29" weight="1.579835538015e-06"/>
    <Con from="30" weight="-7.30111030513384e-09"/>
    <Con from="31" weight="-4.17001370345379e-08"/>
    <Con from="32" weight="1.3463803478984e-08"/>
    <Con from="33" weight="7.34929468623487e-05"/>
    <Con from="34" weight="-4.63423022772797e-08"/>
    <Con from="35" weight="8.86311564548497e-06"/>
    <Con from="36" weight="-0.000355288270409468"/>
    <Con from="37" weight="6.39590151623673e-08"/>
    <Con from="38" weight="-2.15639921362611e-08"/>
    <Con from="39" weight="5.3285517853689e-08"/>
    <Con from="40" weight="-0.0652121502407888"/>
    <Con from="41" weight="6.337728374182e-05"/>
    <Con from="42" weight="4.06192109535195e-05"/>
    <Con from="43" weight="-0.0114300012867517"/>
   </Neuron>
   <Neuron id="49" bias="3.14067724764138e-05">
    <Con from="1" weight="3.14236994253244e-05"/>
    <Con from="2" weight="-5.7929735369634e-08"/>
    <Con from="3" weight="-3.55206161031396e-08"/>
    <Con from="4" weight="4.46824610556315e-08"/>
    <Con from="5" weight="-1.92911710810957e-08"/>
    <Con from="6" weight="3.76058978765267e-08"/>
    <Con from="7" weight="1.52804392453312e-08"/>
    <Con from="8" weight="3.13697964201984e-05"/>
    <Con from="9" weight="3.23141964984337e-08"/>
    <Con from="10" weight="5.78177684724087e-09"/>
    <Con from="11" weight="2.34914131108222e-08"/>
    <Con from="12" weight="-3.90940479444973e-08"/>
    <Con from="13" weight="-3.44591495069904e-08"/>
    <Con from="14" weight="-3.51597230356079e-08"/>
    <Con from="15" weight="-4.56960479995846e-08"/>
    <Con from="16" weight="-1.95468211714269e-08"/>
    <Con from="17" weight="3.95040826033896e-08"/>
    <Con from="18" weight="9.51771510045086e-09"/>
    <Con from="19" weight="1.97452524855101e-08"/>
    <Con from="20" weight="-5.25634964533449e-08"/>
    <Con from="21" weight="3.49911353288209e-08"/>
    <Con from="22" weight="-2.25933541079763e-08"/>
    <Con from="23" weight="6.05836616635277e-08"/>
    <Con from="24" weight="4.28418629559716e-09"/>
    <Con from="25" weight="1.98438893101734e-08"/>
    <Con from="26" weight="3.67158152366077e-09"/>
    <Con from="27" weight="-4.97640303276924e-08"/>
    <Con from="28" weight="3.14201709979881e-05"/>
    <Con from="29" weight="-6.6657096601023e-09"/>
    <Con from="30" weight="1.02680890325565e-08"/>
    <Con from="31" weight="5.37972107337782e-08"/>
    <Con from="32" weight="1.20497875138502e-08"/>
    <Con from="33" weight="-3.20917910455034e-08"/>
    <Con from="34" weight="2.97503996430126e-09"/>
    <Con from="35" weight="1.43710720443702e-08"/>
    <Con from="36" weight="4.50117484924316e-08"/>
    <Con from="37" weight="6.30306570769153e-08"/>
    <Con from="38" weight="3.95883577753272e-08"/>
    <Con from="39" weight="5.07288166229352e-09"/>
    <Con from="40" weight="0.0191251612871274"/>
    <Con from="41" weight="3.13465969386597e-05"/>
    <Con from="42" weight="-6.33524834030479e-09"/>
    <Con from="43" weight="0.00125463803597502"/>
   </Neuron>
   <Neuron id="50" bias="10.8824414979882">
    <Con from="1" weight="-5.12047840517143"/>
    <Con from="2" weight="-13.4311730816231"/>
    <Con from="3" weight="-14.8910768174724"/>
    <Con from="4" weight="21.0000624425397"/>
    <Con from="5" weight="-19.1722281395471"/>
    <Con from="6" weight="0.00872026655391027"/>
    <Con from="7" weight="-20.8666704785331"/>
    <Con from="8" weight="2.40631961600184"/>
    <Con from="9" weight="-8.28374517817929"/>
    <Con from="10" weight="8.53326186848171"/>
    <Con from="11" weight="-14.1291599902155"/>
    <Con from="12" weight="0.22401843458854"/>
    <Con from="13" weight="-16.841974808889"/>
    <Con from="14" weight="5.95707719253595"/>
    <Con from="15" weight="-5.98982240661904"/>
    <Con from="16" weight="-3.34207625517654"/>
    <Con from="17" weight="-0.131935830315298"/>
    <Con from="18" weight="0.411879547309785"/>
    <Con from="19" weight="0.210989402700065"/>
    <Con from="20" weight="3.59675286035122"/>
    <Con from="21" weight="-8.00335160571342"/>
    <Con from="22" weight="-4.11914211833578"/>
    <Con from="23" weight="-0.0770799872290698"/>
    <Con from="24" weight="-3.74526564468072"/>
    <Con from="25" weight="-10.8331484070781"/>
    <Con from="26" weight="12.8550928531046"/>
    <Con from="27" weight="9.45509956275201"/>
    <Con from="28" weight="-14.9360805184554"/>
    <Con from="29" weight="-8.63904415204151"/>
    <Con from="30" weight="-0.0329239664359322"/>
    <Con from="31" weight="7.18639887747394"/>
    <Con from="32" weight="-0.0183336394484458"/>
    <Con from="33" weight="-3.20637811291227"/>
    <Con from="34" weight="9.74826959632292"/>
    <Con from="35" weight="18.6247409301119"/>
    <Con from="36" weight="-1.08060186268581"/>
    <Con from="37" weight="10.5977033771753"/>
    <Con from="38" weight="22.6861492305617"/>
    <Con from="39" weight="-5.75283234546381"/>
    <Con from="40" weight="3.50246426692256e-05"/>
    <Con from="41" weight="-5.60943472148493"/>
    <Con from="42" weight="-0.28137805766088"/>
    <Con from="43" weight="0.297621427563736"/>
   </Neuron>
   <Neuron id="51" bias="3.17016841728693e-05">
    <Con from="1" weight="3.17604537970642e-05"/>
    <Con from="2" weight="3.85521967236363e-08"/>
    <Con from="3" weight="7.15806958118387e-10"/>
    <Con from="4" weight="-1.25756817732882e-08"/>
    <Con from="5" weight="5.29634216911095e-08"/>
    <Con from="6" weight="6.38497446405127e-08"/>
    <Con from="7" weight="1.37036681468239e-09"/>
    <Con from="8" weight="3.169954460794e-05"/>
    <Con from="9" weight="-5.24660713795543e-08"/>
    <Con from="10" weight="-6.47516306584286e-08"/>
    <Con from="11" weight="4.7369418032986e-08"/>
    <Con from="12" weight="-3.28797193029421e-09"/>
    <Con from="13" weight="-1.23105506227513e-08"/>
    <Con from="14" weight="-4.7254196940782e-08"/>
    <Con from="15" weight="-3.76936501836264e-08"/>
    <Con from="16" weight="2.1186192761386e-08"/>
    <Con from="17" weight="5.999335112065e-08"/>
    <Con from="18" weight="-3.14198592786104e-08"/>
    <Con from="19" weight="-3.16620697393252e-09"/>
    <Con from="20" weight="-2.88472243169335e-08"/>
    <Con from="21" weight="5.94908183202402e-09"/>
    <Con from="22" weight="4.35593626778204e-08"/>
    <Con from="23" weight="-3.20171748346232e-08"/>
    <Con from="24" weight="-1.44086209333092e-08"/>
    <Con from="25" weight="-3.35250655637942e-08"/>
    <Con from="26" weight="-1.51648164585236e-09"/>
    <Con from="27" weight="5.11007750078297e-08"/>
    <Con from="28" weight="3.16626090901303e-05"/>
    <Con from="29" weight="1.35492858711085e-08"/>
    <Con from="30" weight="5.20817108659204e-08"/>
    <Con from="31" weight="-5.82664265543016e-08"/>
    <Con from="32" weight="-6.41348907902245e-08"/>
    <Con from="33" weight="-6.0623357275606e-08"/>
    <Con from="34" weight="1.74402351292481e-08"/>
    <Con from="35" weight="5.01905112529958e-08"/>
    <Con from="36" weight="-4.5909425609635e-08"/>
    <Con from="37" weight="3.19960040514738e-08"/>
    <Con from="38" weight="-6.41810330758871e-08"/>
    <Con from="39" weight="5.48170422948204e-08"/>
    <Con from="40" weight="0.0193255148700337"/>
    <Con from="41" weight="3.17179268056927e-05"/>
    <Con from="42" weight="-6.42406102468257e-08"/>
    <Con from="43" weight="0.00126788813693746"/>
   </Neuron>
   <Neuron id="52" bias="2.8311648178341e-05">
    <Con from="1" weight="2.83211279040849e-05"/>
    <Con from="2" weight="4.09576774090692e-08"/>
    <Con from="3" weight="-3.24658189663697e-08"/>
    <Con from="4" weight="-3.77480264575513e-08"/>
    <Con from="5" weight="-6.00526024880216e-08"/>
    <Con from="6" weight="2.43791040211697e-08"/>
    <Con from="7" weight="-7.18489123732909e-09"/>
    <Con from="8" weight="2.83553994279853e-05"/>
    <Con from="9" weight="6.00207064658926e-08"/>
    <Con from="10" weight="-3.06032858068764e-08"/>
    <Con from="11" weight="5.68418535262582e-08"/>
    <Con from="12" weight="6.20373830884924e-08"/>
    <Con from="13" weight="5.52153436646414e-08"/>
    <Con from="14" weight="9.92232712892187e-09"/>
    <Con from="15" weight="1.17673358299875e-08"/>
    <Con from="16" weight="-9.84297207126981e-09"/>
    <Con from="17" weight="-4.54263847330722e-08"/>
    <Con from="18" weight="5.16818713963116e-08"/>
    <Con from="19" weight="5.34641222522872e-09"/>
    <Con from="20" weight="-1.07117235629244e-08"/>
    <Con from="21" weight="6.34857581977275e-08"/>
    <Con from="22" weight="1.51937244979899e-08"/>
    <Con from="23" weight="-6.31131658696346e-08"/>
    <Con from="24" weight="4.53701227901635e-08"/>
    <Con from="25" weight="1.2795040437472e-08"/>
    <Con from="26" weight="-3.78753227070887e-08"/>
    <Con from="27" weight="-2.49129356895876e-08"/>
    <Con from="28" weight="2.82852285674757e-05"/>
    <Con from="29" weight="6.15749430358187e-08"/>
    <Con from="30" weight="-2.16901378460609e-08"/>
    <Con from="31" weight="-3.39820247857027e-09"/>
    <Con from="32" weight="-2.30970746630534e-08"/>
    <Con from="33" weight="-1.28987198226507e-09"/>
    <Con from="34" weight="4.69582621988479e-08"/>
    <Con from="35" weight="-5.6311300106969e-08"/>
    <Con from="36" weight="-2.95876336797837e-08"/>
    <Con from="37" weight="2.08935290962847e-08"/>
    <Con from="38" weight="-8.38221714731924e-10"/>
    <Con from="39" weight="-3.01492763635644e-10"/>
    <Con from="40" weight="0.0172729108323116"/>
    <Con from="41" weight="2.83101292846586e-05"/>
    <Con from="42" weight="-5.077855623542e-08"/>
    <Con from="43" weight="0.00113319381264711"/>
   </Neuron>
  </NeuralLayer>
  <NeuralLayer numberOfNeurons="1">
   <Neuron id="53" bias="-0.0957735128156593">
    <Con from="44" weight="-0.0954571866136893"/>
    <Con from="45" weight="-4.34963755869588"/>
    <Con from="46" weight="-0.0954478419670685"/>
    <Con from="47" weight="3.51698540769"/>
    <Con from="48" weight="-0.019926038241575"/>
    <Con from="49" weight="-0.0954475738228918"/>
    <Con from="50" weight="-2.59375362935292"/>
    <Con from="51" weight="-0.095457753594606"/>
    <Con from="52" weight="-0.0955442645819747"/>
   </Neuron>
  </NeuralLayer>
  <NeuralLayer numberOfNeurons="2" activationFunction="threshold" threshold="0.5">
   <Neuron id="54" bias="1.0">
    <Con from="53" weight="-1.0"/>
   </Neuron>
   <Neuron id="55" bias="0.0">
    <Con from="53" weight="1.0"/>
   </Neuron>
  </NeuralLayer>
  <NeuralOutputs numberOfOutputs="2">
   <NeuralOutput outputNeuron="54">
    <DerivedField name="derivedNO_Adjusted" optype="continuous" dataType="double">
     <NormDiscrete field="Adjusted" value="0"/>
    </DerivedField>
   </NeuralOutput>
   <NeuralOutput outputNeuron="55">
    <DerivedField name="derivedNO_Adjusted" optype="continuous" dataType="double">
     <NormDiscrete field="Adjusted" value="1"/>
    </DerivedField>
   </NeuralOutput>
  </NeuralOutputs>
 </NeuralNetwork>
</PMML>
