<?xml version="1.0"?>
<PMML version="4.1" xmlns="http://www.dmg.org/PMML-4_1" xmlns:xsi="http://www.w3.org/2001/XMLSchema-instance" xsi:schemaLocation="http://www.dmg.org/PMML-4_1 http://www.dmg.org/v4-1/pmml-4-1.xsd">
 <Header copyright="Copyright (c) 2014 Vfed" description="Neural Network PMML Model">
  <Extension name="user" value="Vfed" extender="Rattle/PMML"/>
  <Application name="Rattle/PMML" version="1.4"/>
  <Timestamp>2014-04-28 21:49:16</Timestamp>
 </Header>
 <DataDictionary numberOfFields="9">
  <DataField name="Adjusted" optype="categorical" dataType="string">
   <Value value="0"/>
   <Value value="1"/>
  </DataField>
  <DataField name="Employment" optype="categorical" dataType="string">
   <Value value="Consultant"/>
   <Value value="Private"/>
   <Value value="PSFederal"/>
   <Value value="PSLocal"/>
   <Value value="PSState"/>
   <Value value="SelfEmp"/>
   <Value value="Volunteer"/>
  </DataField>
  <DataField name="Education" optype="categorical" dataType="string">
   <Value value="Associate"/>
   <Value value="Bachelor"/>
   <Value value="College"/>
   <Value value="Doctorate"/>
   <Value value="HSgrad"/>
   <Value value="Master"/>
   <Value value="Preschool"/>
   <Value value="Professional"/>
   <Value value="Vocational"/>
   <Value value="Yr10"/>
   <Value value="Yr11"/>
   <Value value="Yr12"/>
   <Value value="Yr1t4"/>
   <Value value="Yr5t6"/>
   <Value value="Yr7t8"/>
   <Value value="Yr9"/>
  </DataField>
  <DataField name="Marital" optype="categorical" dataType="string">
   <Value value="Absent"/>
   <Value value="Divorced"/>
   <Value value="Married"/>
   <Value value="Married-spouse-absent"/>
   <Value value="Unmarried"/>
   <Value value="Widowed"/>
  </DataField>
  <DataField name="Occupation" optype="categorical" dataType="string">
   <Value value="Cleaner"/>
   <Value value="Clerical"/>
   <Value value="Executive"/>
   <Value value="Farming"/>
   <Value value="Home"/>
   <Value value="Machinist"/>
   <Value value="Military"/>
   <Value value="Professional"/>
   <Value value="Protective"/>
   <Value value="Repair"/>
   <Value value="Sales"/>
   <Value value="Service"/>
   <Value value="Support"/>
   <Value value="Transport"/>
  </DataField>
  <DataField name="Income" optype="continuous" dataType="double"/>
  <DataField name="Gender" optype="categorical" dataType="string">
   <Value value="Female"/>
   <Value value="Male"/>
  </DataField>
  <DataField name="Deductions" optype="continuous" dataType="double"/>
  <DataField name="Hours" optype="continuous" dataType="double"/>
 </DataDictionary>
 <NeuralNetwork modelName="NeuralNet_model" functionName="classification" numberOfLayers="3" activationFunction="logistic">
  <MiningSchema>
   <MiningField name="Adjusted" usageType="predicted"/>
   <MiningField name="Employment" usageType="active"/>
   <MiningField name="Education" usageType="active"/>
   <MiningField name="Marital" usageType="active"/>
   <MiningField name="Occupation" usageType="active"/>
   <MiningField name="Income" usageType="active"/>
   <MiningField name="Gender" usageType="active"/>
   <MiningField name="Deductions" usageType="active"/>
   <MiningField name="Hours" usageType="active"/>
  </MiningSchema>
  <Output>
   <OutputField name="Predicted_Adjusted" feature="predictedValue"/>
   <!--
   <OutputField name="Probability_0" optype="continuous" dataType="double" feature="probability" value="0"/>
   <OutputField name="Probability_1" optype="continuous" dataType="double" feature="probability" value="1"/>
   -->
  </Output>
  <NeuralInputs numberOfInputs="43">
   <NeuralInput id="1">
    <DerivedField name="derivedNI_EmploymentPrivate" optype="continuous" dataType="double">
     <NormDiscrete field="Employment" value="Private"/>
    </DerivedField>
   </NeuralInput>
   <NeuralInput id="2">
    <DerivedField name="derivedNI_EmploymentPSFederal" optype="continuous" dataType="double">
     <NormDiscrete field="Employment" value="PSFederal"/>
    </DerivedField>
   </NeuralInput>
   <NeuralInput id="3">
    <DerivedField name="derivedNI_EmploymentPSLocal" optype="continuous" dataType="double">
     <NormDiscrete field="Employment" value="PSLocal"/>
    </DerivedField>
   </NeuralInput>
   <NeuralInput id="4">
    <DerivedField name="derivedNI_EmploymentPSState" optype="continuous" dataType="double">
     <NormDiscrete field="Employment" value="PSState"/>
    </DerivedField>
   </NeuralInput>
   <NeuralInput id="5">
    <DerivedField name="derivedNI_EmploymentSelfEmp" optype="continuous" dataType="double">
     <NormDiscrete field="Employment" value="SelfEmp"/>
    </DerivedField>
   </NeuralInput>
   <NeuralInput id="6">
    <DerivedField name="derivedNI_EmploymentVolunteer" optype="continuous" dataType="double">
     <NormDiscrete field="Employment" value="Volunteer"/>
    </DerivedField>
   </NeuralInput>
   <NeuralInput id="7">
    <DerivedField name="derivedNI_EducationBachelor" optype="continuous" dataType="double">
     <NormDiscrete field="Education" value="Bachelor"/>
    </DerivedField>
   </NeuralInput>
   <NeuralInput id="8">
    <DerivedField name="derivedNI_EducationCollege" optype="continuous" dataType="double">
     <NormDiscrete field="Education" value="College"/>
    </DerivedField>
   </NeuralInput>
   <NeuralInput id="9">
    <DerivedField name="derivedNI_EducationDoctorate" optype="continuous" dataType="double">
     <NormDiscrete field="Education" value="Doctorate"/>
    </DerivedField>
   </NeuralInput>
   <NeuralInput id="10">
    <DerivedField name="derivedNI_EducationHSgrad" optype="continuous" dataType="double">
     <NormDiscrete field="Education" value="HSgrad"/>
    </DerivedField>
   </NeuralInput>
   <NeuralInput id="11">
    <DerivedField name="derivedNI_EducationMaster" optype="continuous" dataType="double">
     <NormDiscrete field="Education" value="Master"/>
    </DerivedField>
   </NeuralInput>
   <NeuralInput id="12">
    <DerivedField name="derivedNI_EducationPreschool" optype="continuous" dataType="double">
     <NormDiscrete field="Education" value="Preschool"/>
    </DerivedField>
   </NeuralInput>
   <NeuralInput id="13">
    <DerivedField name="derivedNI_EducationProfessional" optype="continuous" dataType="double">
     <NormDiscrete field="Education" value="Professional"/>
    </DerivedField>
   </NeuralInput>
   <NeuralInput id="14">
    <DerivedField name="derivedNI_EducationVocational" optype="continuous" dataType="double">
     <NormDiscrete field="Education" value="Vocational"/>
    </DerivedField>
   </NeuralInput>
   <NeuralInput id="15">
    <DerivedField name="derivedNI_EducationYr10" optype="continuous" dataType="double">
     <NormDiscrete field="Education" value="Yr10"/>
    </DerivedField>
   </NeuralInput>
   <NeuralInput id="16">
    <DerivedField name="derivedNI_EducationYr11" optype="continuous" dataType="double">
     <NormDiscrete field="Education" value="Yr11"/>
    </DerivedField>
   </NeuralInput>
   <NeuralInput id="17">
    <DerivedField name="derivedNI_EducationYr12" optype="continuous" dataType="double">
     <NormDiscrete field="Education" value="Yr12"/>
    </DerivedField>
   </NeuralInput>
   <NeuralInput id="18">
    <DerivedField name="derivedNI_EducationYr1t4" optype="continuous" dataType="double">
     <NormDiscrete field="Education" value="Yr1t4"/>
    </DerivedField>
   </NeuralInput>
   <NeuralInput id="19">
    <DerivedField name="derivedNI_EducationYr5t6" optype="continuous" dataType="double">
     <NormDiscrete field="Education" value="Yr5t6"/>
    </DerivedField>
   </NeuralInput>
   <NeuralInput id="20">
    <DerivedField name="derivedNI_EducationYr7t8" optype="continuous" dataType="double">
     <NormDiscrete field="Education" value="Yr7t8"/>
    </DerivedField>
   </NeuralInput>
   <NeuralInput id="21">
    <DerivedField name="derivedNI_EducationYr9" optype="continuous" dataType="double">
     <NormDiscrete field="Education" value="Yr9"/>
    </DerivedField>
   </NeuralInput>
   <NeuralInput id="22">
    <DerivedField name="derivedNI_MaritalDivorced" optype="continuous" dataType="double">
     <NormDiscrete field="Marital" value="Divorced"/>
    </DerivedField>
   </NeuralInput>
   <NeuralInput id="23">
    <DerivedField name="derivedNI_MaritalMarried" optype="continuous" dataType="double">
     <NormDiscrete field="Marital" value="Married"/>
    </DerivedField>
   </NeuralInput>
   <NeuralInput id="24">
    <DerivedField name="derivedNI_MaritalMarried-spouse-absent" optype="continuous" dataType="double">
     <NormDiscrete field="Marital" value="Married-spouse-absent"/>
    </DerivedField>
   </NeuralInput>
   <NeuralInput id="25">
    <DerivedField name="derivedNI_MaritalUnmarried" optype="continuous" dataType="double">
     <NormDiscrete field="Marital" value="Unmarried"/>
    </DerivedField>
   </NeuralInput>
   <NeuralInput id="26">
    <DerivedField name="derivedNI_MaritalWidowed" optype="continuous" dataType="double">
     <NormDiscrete field="Marital" value="Widowed"/>
    </DerivedField>
   </NeuralInput>
   <NeuralInput id="27">
    <DerivedField name="derivedNI_OccupationClerical" optype="continuous" dataType="double">
     <NormDiscrete field="Occupation" value="Clerical"/>
    </DerivedField>
   </NeuralInput>
   <NeuralInput id="28">
    <DerivedField name="derivedNI_OccupationExecutive" optype="continuous" dataType="double">
     <NormDiscrete field="Occupation" value="Executive"/>
    </DerivedField>
   </NeuralInput>
   <NeuralInput id="29">
    <DerivedField name="derivedNI_OccupationFarming" optype="continuous" dataType="double">
     <NormDiscrete field="Occupation" value="Farming"/>
    </DerivedField>
   </NeuralInput>
   <NeuralInput id="30">
    <DerivedField name="derivedNI_OccupationHome" optype="continuous" dataType="double">
     <NormDiscrete field="Occupation" value="Home"/>
    </DerivedField>
   </NeuralInput>
   <NeuralInput id="31">
    <DerivedField name="derivedNI_OccupationMachinist" optype="continuous" dataType="double">
     <NormDiscrete field="Occupation" value="Machinist"/>
    </DerivedField>
   </NeuralInput>
   <NeuralInput id="32">
    <DerivedField name="derivedNI_OccupationMilitary" optype="continuous" dataType="double">
     <NormDiscrete field="Occupation" value="Military"/>
    </DerivedField>
   </NeuralInput>
   <NeuralInput id="33">
    <DerivedField name="derivedNI_OccupationProfessional" optype="continuous" dataType="double">
     <NormDiscrete field="Occupation" value="Professional"/>
    </DerivedField>
   </NeuralInput>
   <NeuralInput id="34">
    <DerivedField name="derivedNI_OccupationProtective" optype="continuous" dataType="double">
     <NormDiscrete field="Occupation" value="Protective"/>
    </DerivedField>
   </NeuralInput>
   <NeuralInput id="35">
    <DerivedField name="derivedNI_OccupationRepair" optype="continuous" dataType="double">
     <NormDiscrete field="Occupation" value="Repair"/>
    </DerivedField>
   </NeuralInput>
   <NeuralInput id="36">
    <DerivedField name="derivedNI_OccupationSales" optype="continuous" dataType="double">
     <NormDiscrete field="Occupation" value="Sales"/>
    </DerivedField>
   </NeuralInput>
   <NeuralInput id="37">
    <DerivedField name="derivedNI_OccupationService" optype="continuous" dataType="double">
     <NormDiscrete field="Occupation" value="Service"/>
    </DerivedField>
   </NeuralInput>
   <NeuralInput id="38">
    <DerivedField name="derivedNI_OccupationSupport" optype="continuous" dataType="double">
     <NormDiscrete field="Occupation" value="Support"/>
    </DerivedField>
   </NeuralInput>
   <NeuralInput id="39">
    <DerivedField name="derivedNI_OccupationTransport" optype="continuous" dataType="double">
     <NormDiscrete field="Occupation" value="Transport"/>
    </DerivedField>
   </NeuralInput>
   <NeuralInput id="40">
    <DerivedField name="derivedNI_Income" optype="continuous" dataType="double">
     <FieldRef field="Income"/>
    </DerivedField>
   </NeuralInput>
   <NeuralInput id="41">
    <DerivedField name="derivedNI_GenderMale" optype="continuous" dataType="double">
     <NormDiscrete field="Gender" value="Male"/>
    </DerivedField>
   </NeuralInput>
   <NeuralInput id="42">
    <DerivedField name="derivedNI_Deductions" optype="continuous" dataType="double">
     <FieldRef field="Deductions"/>
    </DerivedField>
   </NeuralInput>
   <NeuralInput id="43">
    <DerivedField name="derivedNI_Hours" optype="continuous" dataType="double">
     <FieldRef field="Hours"/>
    </DerivedField>
   </NeuralInput>
  </NeuralInputs>
  <NeuralLayer numberOfNeurons="9">
   <Neuron id="44" bias="-0.00716191806314765">
    <Con from="1" weight="0.0117735404568048"/>
    <Con from="2" weight="0.00195505145913801"/>
    <Con from="3" weight="-0.00894444257655807"/>
    <Con from="4" weight="0.0085405232891814"/>
    <Con from="5" weight="0.0115462324138942"/>
    <Con from="6" weight="0.0100277761077099"/>
    <Con from="7" weight="0.000547546941392827"/>
    <Con from="8" weight="0.00793134150818692"/>
    <Con from="9" weight="0.00420561103716353"/>
    <Con from="10" weight="0.00472931075518058"/>
    <Con from="11" weight="0.00584549153915991"/>
    <Con from="12" weight="0.00563547931268185"/>
    <Con from="13" weight="-0.00522667613648746"/>
    <Con from="14" weight="-0.0110681361226406"/>
    <Con from="15" weight="0.00743596415408574"/>
    <Con from="16" weight="0.00853397733371031"/>
    <Con from="17" weight="-0.0102677333399344"/>
    <Con from="18" weight="0.012136809167541"/>
    <Con from="19" weight="-0.00985134952944147"/>
    <Con from="20" weight="-0.00966442746703047"/>
    <Con from="21" weight="0.00816796849681626"/>
    <Con from="22" weight="-0.00553601067454854"/>
    <Con from="23" weight="0.00532599301231053"/>
    <Con from="24" weight="0.00886006141535879"/>
    <Con from="25" weight="3.68959885272701e-05"/>
    <Con from="26" weight="-0.0031042829114236"/>
    <Con from="27" weight="-0.00606903576178343"/>
    <Con from="28" weight="-0.000546296421855717"/>
    <Con from="29" weight="-0.000769672917006691"/>
    <Con from="30" weight="0.00322886712545876"/>
    <Con from="31" weight="0.00170431864961962"/>
    <Con from="32" weight="0.00615668030945537"/>
    <Con from="33" weight="0.0120684435260941"/>
    <Con from="34" weight="0.00774984639084738"/>
    <Con from="35" weight="0.00728597936510738"/>
    <Con from="36" weight="0.00200842733500901"/>
    <Con from="37" weight="-0.00785725174242864"/>
    <Con from="38" weight="0.0122083710822072"/>
    <Con from="39" weight="0.0107337702200574"/>
    <Con from="40" weight="-0.0149948503537427"/>
    <Con from="41" weight="0.0105222331563358"/>
    <Con from="42" weight="0.012355742147402"/>
    <Con from="43" weight="0.000560761893511159"/>
   </Neuron>
   <Neuron id="45" bias="12.850407911623">
    <Con from="1" weight="0.308756615388704"/>
    <Con from="2" weight="0.593186584988783"/>
    <Con from="3" weight="1.38694237765994"/>
    <Con from="4" weight="-0.443767647030284"/>
    <Con from="5" weight="0.848756144828401"/>
    <Con from="6" weight="10.7970853705498"/>
    <Con from="7" weight="-3.85883032865994"/>
    <Con from="8" weight="0.456135872722986"/>
    <Con from="9" weight="-5.18360796968376"/>
    <Con from="10" weight="1.4235533846682"/>
    <Con from="11" weight="-16.8724123436971"/>
    <Con from="12" weight="4.72423794980609"/>
    <Con from="13" weight="-6.33953588697308"/>
    <Con from="14" weight="0.492962195427966"/>
    <Con from="15" weight="1.33660423654142"/>
    <Con from="16" weight="1.67778469307321"/>
    <Con from="17" weight="2.88788432235518"/>
    <Con from="18" weight="5.03769145595116"/>
    <Con from="19" weight="5.22312710401242"/>
    <Con from="20" weight="7.85710821114553"/>
    <Con from="21" weight="8.88044590170913"/>
    <Con from="22" weight="-0.370679969081453"/>
    <Con from="23" weight="-10.7991053238819"/>
    <Con from="24" weight="-1.9951154811947"/>
    <Con from="25" weight="-5.29494174586867"/>
    <Con from="26" weight="-2.55665696853341"/>
    <Con from="27" weight="-4.07074206560127"/>
    <Con from="28" weight="-5.90419432476717"/>
    <Con from="29" weight="0.418604351242155"/>
    <Con from="30" weight="0.0381069848492461"/>
    <Con from="31" weight="-1.14976034640767"/>
    <Con from="32" weight="0.00711554144559561"/>
    <Con from="33" weight="-6.61031096331617"/>
    <Con from="34" weight="-2.89654662293419"/>
    <Con from="35" weight="-0.965438892127495"/>
    <Con from="36" weight="-1.19808353135876"/>
    <Con from="37" weight="-0.500259457880755"/>
    <Con from="38" weight="-2.34900755202497"/>
    <Con from="39" weight="-0.795646796082767"/>
    <Con from="40" weight="4.70333419893158e-07"/>
    <Con from="41" weight="-0.1638668113363"/>
    <Con from="42" weight="0.0372101372331399"/>
    <Con from="43" weight="-0.070119204651905"/>
   </Neuron>
   <Neuron id="46" bias="-0.00536303973580721">
    <Con from="1" weight="-0.0362251474902479"/>
    <Con from="2" weight="-0.00118542182256635"/>
    <Con from="3" weight="0.00691785259168393"/>
    <Con from="4" weight="0.000781342357398205"/>
    <Con from="5" weight="0.00222599187193962"/>
    <Con from="6" weight="-0.000197706854098968"/>
    <Con from="7" weight="-0.00518330151494937"/>
    <Con from="8" weight="-0.00737679734973351"/>
    <Con from="9" weight="0.0111372162364739"/>
    <Con from="10" weight="0.0240503155313861"/>
    <Con from="11" weight="0.00258341464722378"/>
    <Con from="12" weight="-0.0019423418107645"/>
    <Con from="13" weight="0.00999776620473568"/>
    <Con from="14" weight="-0.0301807488634246"/>
    <Con from="15" weight="-0.00931367189326798"/>
    <Con from="16" weight="0.00221006254677693"/>
    <Con from="17" weight="-0.00370823712207443"/>
    <Con from="18" weight="0.00299377488722722"/>
    <Con from="19" weight="-0.00606795973736428"/>
    <Con from="20" weight="0.010358011724471"/>
    <Con from="21" weight="-0.00407775859837781"/>
    <Con from="22" weight="-0.0104335276084274"/>
    <Con from="23" weight="0.0112868483506816"/>
    <Con from="24" weight="-0.0398582318015033"/>
    <Con from="25" weight="-0.000114263776471023"/>
    <Con from="26" weight="0.0105729715553852"/>
    <Con from="27" weight="0.00184614585129175"/>
    <Con from="28" weight="0.00230832737676448"/>
    <Con from="29" weight="0.00306744342565269"/>
    <Con from="30" weight="0.00306331687511624"/>
    <Con from="31" weight="-0.00399190855826089"/>
    <Con from="32" weight="0.00777350911450534"/>
    <Con from="33" weight="0.00662801907886447"/>
    <Con from="34" weight="0.00788813297080652"/>
    <Con from="35" weight="0.0258267449063314"/>
    <Con from="36" weight="0.0108354711732926"/>
    <Con from="37" weight="-0.00768480596362301"/>
    <Con from="38" weight="0.00482962151991206"/>
    <Con from="39" weight="-0.00803153918955932"/>
    <Con from="40" weight="-0.025031329520977"/>
    <Con from="41" weight="-0.0164219839215209"/>
    <Con from="42" weight="0.698921268841434"/>
    <Con from="43" weight="-0.567574719081918"/>
   </Neuron>
   <Neuron id="47" bias="0.00960338093574839">
    <Con from="1" weight="0.0103104918912145"/>
    <Con from="2" weight="0.00872123409184888"/>
    <Con from="3" weight="0.0068641937037926"/>
    <Con from="4" weight="0.0122062087262657"/>
    <Con from="5" weight="-0.0117624877337523"/>
    <Con from="6" weight="-0.0078669200950906"/>
    <Con from="7" weight="0.00386605070809785"/>
    <Con from="8" weight="-0.0106269153830354"/>
    <Con from="9" weight="0.0100031004248615"/>
    <Con from="10" weight="-0.000682969757609933"/>
    <Con from="11" weight="-0.0121415354361771"/>
    <Con from="12" weight="-0.00351230768858099"/>
    <Con from="13" weight="0.00525533346896779"/>
    <Con from="14" weight="0.00677681454604677"/>
    <Con from="15" weight="0.0103032854038691"/>
    <Con from="16" weight="0.00160911898872133"/>
    <Con from="17" weight="0.00838683547128017"/>
    <Con from="18" weight="0.0112639683827139"/>
    <Con from="19" weight="-0.00171748154850826"/>
    <Con from="20" weight="0.000323503737576963"/>
    <Con from="21" weight="-0.000722753973811892"/>
    <Con from="22" weight="-0.00725682591894153"/>
    <Con from="23" weight="0.00378963376161939"/>
    <Con from="24" weight="-0.00590780678661419"/>
    <Con from="25" weight="0.00586755445863435"/>
    <Con from="26" weight="0.0050849998980524"/>
    <Con from="27" weight="-0.00206531348818277"/>
    <Con from="28" weight="0.0114003568415482"/>
    <Con from="29" weight="0.0116858121885489"/>
    <Con from="30" weight="-0.000578156156470094"/>
    <Con from="31" weight="0.00190442006471029"/>
    <Con from="32" weight="-0.00253476233777116"/>
    <Con from="33" weight="-0.00326033962159942"/>
    <Con from="34" weight="-0.0121235519044542"/>
    <Con from="35" weight="0.00603591840623421"/>
    <Con from="36" weight="0.000338643804402499"/>
    <Con from="37" weight="-0.0106905109767509"/>
    <Con from="38" weight="0.0101386679027131"/>
    <Con from="39" weight="0.00694511841396422"/>
    <Con from="40" weight="0.0217538953616879"/>
    <Con from="41" weight="0.0147422857216789"/>
    <Con from="42" weight="-0.952037599103778"/>
    <Con from="43" weight="0.0288289276028064"/>
   </Neuron>
   <Neuron id="48" bias="-0.00679060784273316">
    <Con from="1" weight="-0.00894130159282254"/>
    <Con from="2" weight="-0.00169853818742486"/>
    <Con from="3" weight="-0.00960200263671005"/>
    <Con from="4" weight="0.0101186931245745"/>
    <Con from="5" weight="-0.00980870751982965"/>
    <Con from="6" weight="-0.00884031096675526"/>
    <Con from="7" weight="-0.026363820761085"/>
    <Con from="8" weight="0.00627998415458239"/>
    <Con from="9" weight="0.00897180683836413"/>
    <Con from="10" weight="0.026549482511935"/>
    <Con from="11" weight="-0.00800812909501723"/>
    <Con from="12" weight="0.0108621905804545"/>
    <Con from="13" weight="-0.0097520815659087"/>
    <Con from="14" weight="0.00229929353693567"/>
    <Con from="15" weight="0.00693674815270938"/>
    <Con from="16" weight="0.0105920974704162"/>
    <Con from="17" weight="0.00075324254066689"/>
    <Con from="18" weight="-0.00958158827467585"/>
    <Con from="19" weight="0.00655896987463818"/>
    <Con from="20" weight="0.00537603279865418"/>
    <Con from="21" weight="7.27495166546408e-05"/>
    <Con from="22" weight="0.0150655438065122"/>
    <Con from="23" weight="-0.0152453023704207"/>
    <Con from="24" weight="0.000725410297485907"/>
    <Con from="25" weight="-0.00752748641374253"/>
    <Con from="26" weight="0.0095714322523208"/>
    <Con from="27" weight="-0.0093889322431228"/>
    <Con from="28" weight="-0.00422864371103304"/>
    <Con from="29" weight="-0.00423632918221074"/>
    <Con from="30" weight="0.00622287686848612"/>
    <Con from="31" weight="-0.00771874764462594"/>
    <Con from="32" weight="-0.00184573315401528"/>
    <Con from="33" weight="0.0052312198623407"/>
    <Con from="34" weight="-0.00184623964838537"/>
    <Con from="35" weight="0.0139334996645611"/>
    <Con from="36" weight="-0.00612597457031205"/>
    <Con from="37" weight="0.00187632678439547"/>
    <Con from="38" weight="0.0053243908230608"/>
    <Con from="39" weight="-0.00596962923413901"/>
    <Con from="40" weight="-0.0357731125164895"/>
    <Con from="41" weight="0.00755372905874631"/>
    <Con from="42" weight="-0.00256664625388721"/>
    <Con from="43" weight="0.275200709733097"/>
   </Neuron>
   <Neuron id="49" bias="-0.00159820459617957">
    <Con from="1" weight="-0.011961099303311"/>
    <Con from="2" weight="-0.0120373316622365"/>
    <Con from="3" weight="0.00723847988374435"/>
    <Con from="4" weight="0.00433379827452798"/>
    <Con from="5" weight="-0.00197024332267399"/>
    <Con from="6" weight="-0.00642553263553561"/>
    <Con from="7" weight="0.0032654452127333"/>
    <Con from="8" weight="0.00707809933591124"/>
    <Con from="9" weight="0.0113383326507659"/>
    <Con from="10" weight="-0.00260954202443509"/>
    <Con from="11" weight="0.00647878731059145"/>
    <Con from="12" weight="0.000203276700721042"/>
    <Con from="13" weight="0.00415362250259238"/>
    <Con from="14" weight="0.00389761297018265"/>
    <Con from="15" weight="-0.0058932227648026"/>
    <Con from="16" weight="0.0118805196058515"/>
    <Con from="17" weight="0.00231789193626928"/>
    <Con from="18" weight="0.00824612987020581"/>
    <Con from="19" weight="0.00722679383351649"/>
    <Con from="20" weight="0.00104239066728111"/>
    <Con from="21" weight="0.00739534746985606"/>
    <Con from="22" weight="-0.00881784421286956"/>
    <Con from="23" weight="0.00969444290709522"/>
    <Con from="24" weight="0.00782332830831217"/>
    <Con from="25" weight="0.00721737786836211"/>
    <Con from="26" weight="-0.00526635336241235"/>
    <Con from="27" weight="0.00506255363723032"/>
    <Con from="28" weight="0.00338141197199759"/>
    <Con from="29" weight="0.00871108590299524"/>
    <Con from="30" weight="0.00528118609082932"/>
    <Con from="31" weight="0.0100596453384228"/>
    <Con from="32" weight="0.00137991155593507"/>
    <Con from="33" weight="-0.00576062304934659"/>
    <Con from="34" weight="-0.000968121722503928"/>
    <Con from="35" weight="-0.00630441989511741"/>
    <Con from="36" weight="0.00536870783053299"/>
    <Con from="37" weight="0.012325347142537"/>
    <Con from="38" weight="0.000519063496597501"/>
    <Con from="39" weight="-0.0101906306349655"/>
    <Con from="40" weight="-0.00460463018504247"/>
    <Con from="41" weight="0.00995707065431333"/>
    <Con from="42" weight="0.00771404641398773"/>
    <Con from="43" weight="0.00521673684620321"/>
   </Neuron>
   <Neuron id="50" bias="-0.00250201666398119">
    <Con from="1" weight="-0.00584390734045165"/>
    <Con from="2" weight="-0.00559853210293818"/>
    <Con from="3" weight="0.00983600371753273"/>
    <Con from="4" weight="0.00372622946764049"/>
    <Con from="5" weight="-0.00365125969773627"/>
    <Con from="6" weight="-0.0111307595480704"/>
    <Con from="7" weight="-0.00417369434097468"/>
    <Con from="8" weight="0.00973017312662025"/>
    <Con from="9" weight="-0.00406643784654675"/>
    <Con from="10" weight="0.00320449640073874"/>
    <Con from="11" weight="-0.000607765316073512"/>
    <Con from="12" weight="-0.00559314157606644"/>
    <Con from="13" weight="-0.00971309783807073"/>
    <Con from="14" weight="-0.00817377101448387"/>
    <Con from="15" weight="0.0117620444517852"/>
    <Con from="16" weight="0.00990828248028383"/>
    <Con from="17" weight="0.0087729704947314"/>
    <Con from="18" weight="0.00263216541294973"/>
    <Con from="19" weight="0.00945637667450236"/>
    <Con from="20" weight="0.010119452526784"/>
    <Con from="21" weight="-0.00581002672164197"/>
    <Con from="22" weight="-0.00763972012708713"/>
    <Con from="23" weight="0.000501312100502111"/>
    <Con from="24" weight="0.00655598239675665"/>
    <Con from="25" weight="0.00270440644506409"/>
    <Con from="26" weight="0.000925019785301069"/>
    <Con from="27" weight="-0.00366503629236148"/>
    <Con from="28" weight="-0.00591125513712188"/>
    <Con from="29" weight="0.0116158802014561"/>
    <Con from="30" weight="0.00706057496203249"/>
    <Con from="31" weight="-0.0091536102701002"/>
    <Con from="32" weight="-0.000183706571515406"/>
    <Con from="33" weight="-0.000756874679940396"/>
    <Con from="34" weight="-0.00363849075508985"/>
    <Con from="35" weight="-0.0085750687988862"/>
    <Con from="36" weight="0.00638809709883389"/>
    <Con from="37" weight="0.0124734782809222"/>
    <Con from="38" weight="-0.00991691364064898"/>
    <Con from="39" weight="-0.00637322522140582"/>
    <Con from="40" weight="0.0522726390791072"/>
    <Con from="41" weight="0.000956017247631903"/>
    <Con from="42" weight="-0.138468643153141"/>
    <Con from="43" weight="0.0348421196869714"/>
   </Neuron>
   <Neuron id="51" bias="-0.00730551480126716">
    <Con from="1" weight="-0.0104428459402615"/>
    <Con from="2" weight="-0.0107575900361806"/>
    <Con from="3" weight="-0.00721957712090571"/>
    <Con from="4" weight="-0.00247602311395618"/>
    <Con from="5" weight="-0.00802506386998506"/>
    <Con from="6" weight="0.00200586579181792"/>
    <Con from="7" weight="0.00331134865758876"/>
    <Con from="8" weight="-0.00176144434103367"/>
    <Con from="9" weight="-0.00104831399063452"/>
    <Con from="10" weight="-0.00728708960397399"/>
    <Con from="11" weight="0.00426498949920176"/>
    <Con from="12" weight="-0.00116558375374694"/>
    <Con from="13" weight="0.00637407226592737"/>
    <Con from="14" weight="0.00996392572927804"/>
    <Con from="15" weight="0.0112715250743266"/>
    <Con from="16" weight="-0.00959968201864641"/>
    <Con from="17" weight="0.000321687572738722"/>
    <Con from="18" weight="-0.00769730034423288"/>
    <Con from="19" weight="-0.0117105487636329"/>
    <Con from="20" weight="0.00419723950728162"/>
    <Con from="21" weight="0.00620712150784836"/>
    <Con from="22" weight="-0.00412163939979571"/>
    <Con from="23" weight="0.00405407897835456"/>
    <Con from="24" weight="0.00315599561603587"/>
    <Con from="25" weight="0.00843049406001513"/>
    <Con from="26" weight="0.00223900841238775"/>
    <Con from="27" weight="0.000568888276542644"/>
    <Con from="28" weight="-0.00941341253551035"/>
    <Con from="29" weight="-0.00913848113274815"/>
    <Con from="30" weight="-0.00314330925583697"/>
    <Con from="31" weight="0.00410972621284335"/>
    <Con from="32" weight="-0.00894746495617234"/>
    <Con from="33" weight="0.0102170282394"/>
    <Con from="34" weight="-0.00851356773578291"/>
    <Con from="35" weight="0.012162303935194"/>
    <Con from="36" weight="0.00765090397019388"/>
    <Con from="37" weight="0.000979981105879257"/>
    <Con from="38" weight="0.00237952556622743"/>
    <Con from="39" weight="0.00850161060806819"/>
    <Con from="40" weight="-0.0147739174903097"/>
    <Con from="41" weight="0.00255434695526473"/>
    <Con from="42" weight="-0.0116491476784924"/>
    <Con from="43" weight="0.0098187890516897"/>
   </Neuron>
   <Neuron id="52" bias="-0.00332160153298567">
    <Con from="1" weight="-0.00429878619223206"/>
    <Con from="2" weight="0.0111550343488511"/>
    <Con from="3" weight="-3.87827203708666e-05"/>
    <Con from="4" weight="-0.00616440667816184"/>
    <Con from="5" weight="-0.00750009299818422"/>
    <Con from="6" weight="-0.00535094786508086"/>
    <Con from="7" weight="0.00866937357816268"/>
    <Con from="8" weight="-0.00290780224807169"/>
    <Con from="9" weight="-0.0037122270845661"/>
    <Con from="10" weight="0.000760693265773841"/>
    <Con from="11" weight="0.00930321863250731"/>
    <Con from="12" weight="-0.00169623523765066"/>
    <Con from="13" weight="0.00986297406937066"/>
    <Con from="14" weight="0.00697955103912085"/>
    <Con from="15" weight="0.0106118415713329"/>
    <Con from="16" weight="0.0106519926858786"/>
    <Con from="17" weight="-0.00223552804182557"/>
    <Con from="18" weight="-0.0116931577899945"/>
    <Con from="19" weight="-0.00861436042438525"/>
    <Con from="20" weight="0.00696944512794193"/>
    <Con from="21" weight="0.00581082980759369"/>
    <Con from="22" weight="0.0104373791866905"/>
    <Con from="23" weight="0.00720677967797456"/>
    <Con from="24" weight="-0.0110607570352829"/>
    <Con from="25" weight="0.00399636111997398"/>
    <Con from="26" weight="0.000422570778267384"/>
    <Con from="27" weight="-0.00161677968471346"/>
    <Con from="28" weight="0.0124845442500245"/>
    <Con from="29" weight="0.010473802402488"/>
    <Con from="30" weight="-0.00497574813849241"/>
    <Con from="31" weight="-0.00751076085039368"/>
    <Con from="32" weight="0.00623167524642463"/>
    <Con from="33" weight="-0.00644464932452112"/>
    <Con from="34" weight="-0.00697281442455981"/>
    <Con from="35" weight="-0.00861982621317331"/>
    <Con from="36" weight="0.000828427420055826"/>
    <Con from="37" weight="0.00078244214904746"/>
    <Con from="38" weight="0.0109287509548129"/>
    <Con from="39" weight="-0.00796686709439308"/>
    <Con from="40" weight="-0.0148284284994686"/>
    <Con from="41" weight="-0.00468017870034053"/>
    <Con from="42" weight="0.005035308046916"/>
    <Con from="43" weight="-0.00643802642013522"/>
   </Neuron>
  </NeuralLayer>
  <NeuralLayer numberOfNeurons="1">
   <Neuron id="53" bias="-0.583331076373675">
    <Con from="44" weight="0.00668765326321787"/>
    <Con from="45" weight="-4.1336805872855"/>
    <Con from="46" weight="1.84577781501639"/>
    <Con from="47" weight="-3.75958754478116"/>
    <Con from="48" weight="0.393229663195945"/>
    <Con from="49" weight="-0.00668811665740213"/>
    <Con from="50" weight="4.71902940748278"/>
    <Con from="51" weight="0.00497400426930754"/>
    <Con from="52" weight="-0.00199163150257144"/>
   </Neuron>
  </NeuralLayer>
  <NeuralLayer numberOfNeurons="2" activationFunction="threshold" threshold="0.5">
   <Neuron id="54" bias="1.0">
    <Con from="53" weight="-1.0"/>
   </Neuron>
   <Neuron id="55" bias="0.0">
    <Con from="53" weight="1.0"/>
   </Neuron>
  </NeuralLayer>
  <NeuralOutputs numberOfOutputs="2">
   <NeuralOutput outputNeuron="54">
    <DerivedField name="derivedNO_Adjusted" optype="continuous" dataType="double">
     <NormDiscrete field="Adjusted" value="0"/>
    </DerivedField>
   </NeuralOutput>
   <NeuralOutput outputNeuron="55">
    <DerivedField name="derivedNO_Adjusted" optype="continuous" dataType="double">
     <NormDiscrete field="Adjusted" value="1"/>
    </DerivedField>
   </NeuralOutput>
  </NeuralOutputs>
 </NeuralNetwork>
</PMML>
