<?xml version="1.0"?>
<PMML version="4.3" xmlns="http://www.dmg.org/PMML-4_3" xmlns:xsi="http://www.w3.org/2001/XMLSchema-instance" xsi:schemaLocation="http://www.dmg.org/PMML-4_3 http://www.dmg.org/pmml/v4-3/pmml-4-3.xsd">
 <Header copyright="Copyright (c) 2017 vfed" description="Neural Network PMML Model">
  <Extension name="user" value="vfed" extender="Rattle/PMML"/>
  <Application name="Rattle/PMML" version="1.4"/>
  <Timestamp>2017-05-20 21:32:03</Timestamp>
 </Header>
 <DataDictionary numberOfFields="8">
  <DataField name="mpg" optype="continuous" dataType="double"/>
  <DataField name="cylinders" optype="categorical" dataType="string">
   <Value value="3"/>
   <Value value="4"/>
   <Value value="5"/>
   <Value value="6"/>
   <Value value="8"/>
  </DataField>
  <DataField name="displacement" optype="continuous" dataType="double"/>
  <DataField name="horsepower" optype="continuous" dataType="double"/>
  <DataField name="weight" optype="continuous" dataType="double"/>
  <DataField name="acceleration" optype="continuous" dataType="double"/>
  <DataField name="model_year" optype="categorical" dataType="string">
   <Value value="70"/>
   <Value value="71"/>
   <Value value="72"/>
   <Value value="73"/>
   <Value value="74"/>
   <Value value="75"/>
   <Value value="76"/>
   <Value value="77"/>
   <Value value="78"/>
   <Value value="79"/>
   <Value value="80"/>
   <Value value="81"/>
   <Value value="82"/>
  </DataField>
  <DataField name="origin" optype="categorical" dataType="string">
   <Value value="1"/>
   <Value value="2"/>
   <Value value="3"/>
  </DataField>
 </DataDictionary>
 <NeuralNetwork modelName="NeuralNet_model" functionName="regression" numberOfLayers="2" activationFunction="logistic">
  <MiningSchema>
   <MiningField name="mpg" usageType="predicted"/>
   <MiningField name="cylinders" usageType="active"/>
   <MiningField name="displacement" usageType="active"/>
   <MiningField name="horsepower" usageType="active"/>
   <MiningField name="weight" usageType="active"/>
   <MiningField name="acceleration" usageType="active"/>
   <MiningField name="model_year" usageType="active"/>
   <MiningField name="origin" usageType="active"/>
  </MiningSchema>
  <Output>
   <OutputField name="Predicted_mpg" feature="predictedValue"/>
  </Output>
  <NeuralInputs numberOfInputs="22">
   <NeuralInput id="1">
    <DerivedField name="derivedNI_cylinders4" optype="continuous" dataType="double">
     <NormDiscrete field="cylinders" value="4"/>
    </DerivedField>
   </NeuralInput>
   <NeuralInput id="2">
    <DerivedField name="derivedNI_cylinders5" optype="continuous" dataType="double">
     <NormDiscrete field="cylinders" value="5"/>
    </DerivedField>
   </NeuralInput>
   <NeuralInput id="3">
    <DerivedField name="derivedNI_cylinders6" optype="continuous" dataType="double">
     <NormDiscrete field="cylinders" value="6"/>
    </DerivedField>
   </NeuralInput>
   <NeuralInput id="4">
    <DerivedField name="derivedNI_cylinders8" optype="continuous" dataType="double">
     <NormDiscrete field="cylinders" value="8"/>
    </DerivedField>
   </NeuralInput>
   <NeuralInput id="5">
    <DerivedField name="derivedNI_displacement" optype="continuous" dataType="double">
     <FieldRef field="displacement"/>
    </DerivedField>
   </NeuralInput>
   <NeuralInput id="6">
    <DerivedField name="derivedNI_horsepower" optype="continuous" dataType="double">
     <FieldRef field="horsepower"/>
    </DerivedField>
   </NeuralInput>
   <NeuralInput id="7">
    <DerivedField name="derivedNI_weight" optype="continuous" dataType="double">
     <FieldRef field="weight"/>
    </DerivedField>
   </NeuralInput>
   <NeuralInput id="8">
    <DerivedField name="derivedNI_acceleration" optype="continuous" dataType="double">
     <FieldRef field="acceleration"/>
    </DerivedField>
   </NeuralInput>
   <NeuralInput id="9">
    <DerivedField name="derivedNI_model_year71" optype="continuous" dataType="double">
     <NormDiscrete field="model_year" value="71"/>
    </DerivedField>
   </NeuralInput>
   <NeuralInput id="10">
    <DerivedField name="derivedNI_model_year72" optype="continuous" dataType="double">
     <NormDiscrete field="model_year" value="72"/>
    </DerivedField>
   </NeuralInput>
   <NeuralInput id="11">
    <DerivedField name="derivedNI_model_year73" optype="continuous" dataType="double">
     <NormDiscrete field="model_year" value="73"/>
    </DerivedField>
   </NeuralInput>
   <NeuralInput id="12">
    <DerivedField name="derivedNI_model_year74" optype="continuous" dataType="double">
     <NormDiscrete field="model_year" value="74"/>
    </DerivedField>
   </NeuralInput>
   <NeuralInput id="13">
    <DerivedField name="derivedNI_model_year75" optype="continuous" dataType="double">
     <NormDiscrete field="model_year" value="75"/>
    </DerivedField>
   </NeuralInput>
   <NeuralInput id="14">
    <DerivedField name="derivedNI_model_year76" optype="continuous" dataType="double">
     <NormDiscrete field="model_year" value="76"/>
    </DerivedField>
   </NeuralInput>
   <NeuralInput id="15">
    <DerivedField name="derivedNI_model_year77" optype="continuous" dataType="double">
     <NormDiscrete field="model_year" value="77"/>
    </DerivedField>
   </NeuralInput>
   <NeuralInput id="16">
    <DerivedField name="derivedNI_model_year78" optype="continuous" dataType="double">
     <NormDiscrete field="model_year" value="78"/>
    </DerivedField>
   </NeuralInput>
   <NeuralInput id="17">
    <DerivedField name="derivedNI_model_year79" optype="continuous" dataType="double">
     <NormDiscrete field="model_year" value="79"/>
    </DerivedField>
   </NeuralInput>
   <NeuralInput id="18">
    <DerivedField name="derivedNI_model_year80" optype="continuous" dataType="double">
     <NormDiscrete field="model_year" value="80"/>
    </DerivedField>
   </NeuralInput>
   <NeuralInput id="19">
    <DerivedField name="derivedNI_model_year81" optype="continuous" dataType="double">
     <NormDiscrete field="model_year" value="81"/>
    </DerivedField>
   </NeuralInput>
   <NeuralInput id="20">
    <DerivedField name="derivedNI_model_year82" optype="continuous" dataType="double">
     <NormDiscrete field="model_year" value="82"/>
    </DerivedField>
   </NeuralInput>
   <NeuralInput id="21">
    <DerivedField name="derivedNI_origin2" optype="continuous" dataType="double">
     <NormDiscrete field="origin" value="2"/>
    </DerivedField>
   </NeuralInput>
   <NeuralInput id="22">
    <DerivedField name="derivedNI_origin3" optype="continuous" dataType="double">
     <NormDiscrete field="origin" value="3"/>
    </DerivedField>
   </NeuralInput>
  </NeuralInputs>
  <NeuralLayer numberOfNeurons="7">
   <Neuron id="23" bias="2.78008001816691">
    <Con from="1" weight="1.23353673365267"/>
    <Con from="2" weight="0.255473917386823"/>
    <Con from="3" weight="-1.24212800305026"/>
    <Con from="4" weight="-1.89336281318525"/>
    <Con from="5" weight="0.0572383945450897"/>
    <Con from="6" weight="-0.026426940023789"/>
    <Con from="7" weight="-0.00318912158873668"/>
    <Con from="8" weight="0.0835316141180396"/>
    <Con from="9" weight="0.846169717995432"/>
    <Con from="10" weight="1.10478634162814"/>
    <Con from="11" weight="0.776068376271013"/>
    <Con from="12" weight="0.711748301237399"/>
    <Con from="13" weight="0.0714270749339167"/>
    <Con from="14" weight="1.02005437558104"/>
    <Con from="15" weight="0.54349397775391"/>
    <Con from="16" weight="0.914340270073657"/>
    <Con from="17" weight="1.09555023001191"/>
    <Con from="18" weight="1.37808034989752"/>
    <Con from="19" weight="3.69389887641394"/>
    <Con from="20" weight="1.24523433081576"/>
    <Con from="21" weight="-1.91315417663982"/>
    <Con from="22" weight="3.73394230028831"/>
   </Neuron>
   <Neuron id="24" bias="-0.573868733258721">
    <Con from="1" weight="-0.979235888196807"/>
    <Con from="2" weight="4.09693716727959e-06"/>
    <Con from="3" weight="0.405362151702126"/>
    <Con from="4" weight="9.19293637379996e-07"/>
    <Con from="5" weight="-0.481476281455636"/>
    <Con from="6" weight="1.57427410539935"/>
    <Con from="7" weight="0.020512823628099"/>
    <Con from="8" weight="-3.05362748630446"/>
    <Con from="9" weight="4.4858682302583e-07"/>
    <Con from="10" weight="-0.00349290067747474"/>
    <Con from="11" weight="2.52673090536589"/>
    <Con from="12" weight="-3.46331741821597e-07"/>
    <Con from="13" weight="0.40561852140023"/>
    <Con from="14" weight="-0.000121205751001294"/>
    <Con from="15" weight="-3.47288341286668e-10"/>
    <Con from="16" weight="0.662215502542913"/>
    <Con from="17" weight="7.12343223926113e-06"/>
    <Con from="18" weight="0.314193136263872"/>
    <Con from="19" weight="-3.33997931458786e-07"/>
    <Con from="20" weight="2.5848580122763"/>
    <Con from="21" weight="-0.979298028205688"/>
    <Con from="22" weight="-2.3051589601953e-06"/>
   </Neuron>
   <Neuron id="25" bias="-6.94263673125278">
    <Con from="1" weight="-3.74338511581758"/>
    <Con from="2" weight="0.000320414102314445"/>
    <Con from="3" weight="-2.99165394552458"/>
    <Con from="4" weight="-0.207969338489142"/>
    <Con from="5" weight="-0.108946904286187"/>
    <Con from="6" weight="0.039170761924515"/>
    <Con from="7" weight="0.0111641337063862"/>
    <Con from="8" weight="0.268272119296433"/>
    <Con from="9" weight="-1.13390390467608"/>
    <Con from="10" weight="-6.83131582143236"/>
    <Con from="11" weight="-0.180864416971448"/>
    <Con from="12" weight="-2.63674988732725"/>
    <Con from="13" weight="-4.39153763337918"/>
    <Con from="14" weight="-2.41346943639198"/>
    <Con from="15" weight="-0.426888963430821"/>
    <Con from="16" weight="0.381174768637658"/>
    <Con from="17" weight="-1.09490415872329"/>
    <Con from="18" weight="0.228600175969433"/>
    <Con from="19" weight="-2.12473927074598"/>
    <Con from="20" weight="1.05722040207104"/>
    <Con from="21" weight="-8.32939494194861"/>
    <Con from="22" weight="-0.045659646182323"/>
   </Neuron>
   <Neuron id="26" bias="-2.7788137345316">
    <Con from="1" weight="-1.3970333634777"/>
    <Con from="2" weight="-2.52610823841511"/>
    <Con from="3" weight="-1.58309821121453"/>
    <Con from="4" weight="-3.63238713494969"/>
    <Con from="5" weight="-0.0161240419378757"/>
    <Con from="6" weight="-0.00512871439736622"/>
    <Con from="7" weight="0.00366930696274379"/>
    <Con from="8" weight="-0.0369269955194089"/>
    <Con from="9" weight="0.0798288879910771"/>
    <Con from="10" weight="0.0919944865522688"/>
    <Con from="11" weight="1.42366335289543"/>
    <Con from="12" weight="-0.68562010723275"/>
    <Con from="13" weight="-0.457575611310894"/>
    <Con from="14" weight="0.273715844155166"/>
    <Con from="15" weight="-0.125161419767088"/>
    <Con from="16" weight="-0.527929820313771"/>
    <Con from="17" weight="-1.0440361174524"/>
    <Con from="18" weight="-1.76540792086437"/>
    <Con from="19" weight="-1.50964518631784"/>
    <Con from="20" weight="-2.16459395004114"/>
    <Con from="21" weight="-1.48759492760779"/>
    <Con from="22" weight="-0.818418461050823"/>
   </Neuron>
   <Neuron id="27" bias="-5.03082112608387">
    <Con from="1" weight="3.67495871161894"/>
    <Con from="2" weight="-4.02749570014871"/>
    <Con from="3" weight="-0.343410890599902"/>
    <Con from="4" weight="-5.46936438317299"/>
    <Con from="5" weight="-0.0036736126609068"/>
    <Con from="6" weight="-0.0546753325432393"/>
    <Con from="7" weight="0.0057615031550017"/>
    <Con from="8" weight="-0.0778694944066642"/>
    <Con from="9" weight="1.41669960884955"/>
    <Con from="10" weight="1.29706140231015"/>
    <Con from="11" weight="1.8815836151472"/>
    <Con from="12" weight="-2.02232415371956"/>
    <Con from="13" weight="-0.816558438358473"/>
    <Con from="14" weight="-1.84246411304088"/>
    <Con from="15" weight="0.029358443237007"/>
    <Con from="16" weight="-0.387910912203697"/>
    <Con from="17" weight="-1.8968735393663"/>
    <Con from="18" weight="2.94750334181554"/>
    <Con from="19" weight="-1.35127052369744"/>
    <Con from="20" weight="-2.50722366675249"/>
    <Con from="21" weight="-0.144939691995602"/>
    <Con from="22" weight="-1.45870745327162"/>
   </Neuron>
   <Neuron id="28" bias="1.26510213824708">
    <Con from="1" weight="1.58925396909334"/>
    <Con from="2" weight="-0.849435775758911"/>
    <Con from="3" weight="1.43102881079743"/>
    <Con from="4" weight="2.18219006892411"/>
    <Con from="5" weight="-0.0507950394880023"/>
    <Con from="6" weight="0.0488858286662758"/>
    <Con from="7" weight="0.00151507447189177"/>
    <Con from="8" weight="-0.33268019359801"/>
    <Con from="9" weight="-3.52412390100408"/>
    <Con from="10" weight="0.485231952526536"/>
    <Con from="11" weight="1.3303104004545"/>
    <Con from="12" weight="2.26619017248206"/>
    <Con from="13" weight="0.969426465790823"/>
    <Con from="14" weight="4.02816235754085"/>
    <Con from="15" weight="2.50963972289294"/>
    <Con from="16" weight="2.86994963663686"/>
    <Con from="17" weight="2.14459859778027"/>
    <Con from="18" weight="4.56610659078269"/>
    <Con from="19" weight="1.23692756064725"/>
    <Con from="20" weight="0.0801181794917249"/>
    <Con from="21" weight="4.71228002683238"/>
    <Con from="22" weight="-2.71576999944305"/>
   </Neuron>
   <Neuron id="29" bias="1.97281237252748">
    <Con from="1" weight="-2.4150877917408"/>
    <Con from="2" weight="-0.575452869560265"/>
    <Con from="3" weight="4.99474371170796"/>
    <Con from="4" weight="0.934726011230349"/>
    <Con from="5" weight="-0.129067216508107"/>
    <Con from="6" weight="-0.290301455847469"/>
    <Con from="7" weight="0.0150427606374544"/>
    <Con from="8" weight="0.387401778636605"/>
    <Con from="9" weight="8.25222062695869"/>
    <Con from="10" weight="0.800404350333198"/>
    <Con from="11" weight="7.43974255590741"/>
    <Con from="12" weight="-3.98274436386069"/>
    <Con from="13" weight="8.8166960302449"/>
    <Con from="14" weight="4.64193022216428"/>
    <Con from="15" weight="2.41627131225658"/>
    <Con from="16" weight="-2.44916568814109"/>
    <Con from="17" weight="7.95569443302097"/>
    <Con from="18" weight="-10.1527950750833"/>
    <Con from="19" weight="-0.746195984668804"/>
    <Con from="20" weight="2.2517755503103"/>
    <Con from="21" weight="-2.14231301377302"/>
    <Con from="22" weight="2.50711886429099"/>
   </Neuron>
  </NeuralLayer>
  <NeuralLayer numberOfNeurons="1" activationFunction="identity">
   <Neuron id="30" bias="-0.46217453136496">
    <Con from="23" weight="8.3461309564722"/>
    <Con from="24" weight="5.71417188099002"/>
    <Con from="25" weight="10.6964867555869"/>
    <Con from="26" weight="-23.1965550266552"/>
    <Con from="27" weight="10.9846256259102"/>
    <Con from="28" weight="7.72350315239369"/>
    <Con from="29" weight="5.23194530227687"/>
   </Neuron>
  </NeuralLayer>
  <NeuralOutputs numberOfOutputs="1">
   <NeuralOutput outputNeuron="30">
    <DerivedField name="derivedNO_mpg" optype="continuous" dataType="double">
     <FieldRef field="mpg"/>
    </DerivedField>
   </NeuralOutput>
  </NeuralOutputs>
 </NeuralNetwork>
</PMML>
