<?xml version="1.0"?>
<PMML version="4.3" xmlns="http://www.dmg.org/PMML-4_3" xmlns:xsi="http://www.w3.org/2001/XMLSchema-instance" xsi:schemaLocation="http://www.dmg.org/PMML-4_3 http://www.dmg.org/pmml/v4-3/pmml-4-3.xsd">
 <Header copyright="Copyright (c) 2017 vfed" description="Neural Network PMML Model">
  <Extension name="user" value="vfed" extender="Rattle/PMML"/>
  <Application name="Rattle/PMML" version="1.4"/>
  <Timestamp>2017-05-20 21:29:26</Timestamp>
 </Header>
 <DataDictionary numberOfFields="10">
  <DataField name="Adjusted" optype="categorical" dataType="string">
   <Value value="0"/>
   <Value value="1"/>
  </DataField>
  <DataField name="Age" optype="continuous" dataType="double"/>
  <DataField name="Employment" optype="categorical" dataType="string">
   <Value value="Consultant"/>
   <Value value="Private"/>
   <Value value="PSFederal"/>
   <Value value="PSLocal"/>
   <Value value="PSState"/>
   <Value value="SelfEmp"/>
   <Value value="Volunteer"/>
  </DataField>
  <DataField name="Education" optype="categorical" dataType="string">
   <Value value="Associate"/>
   <Value value="Bachelor"/>
   <Value value="College"/>
   <Value value="Doctorate"/>
   <Value value="HSgrad"/>
   <Value value="Master"/>
   <Value value="Preschool"/>
   <Value value="Professional"/>
   <Value value="Vocational"/>
   <Value value="Yr10"/>
   <Value value="Yr11"/>
   <Value value="Yr12"/>
   <Value value="Yr1t4"/>
   <Value value="Yr5t6"/>
   <Value value="Yr7t8"/>
   <Value value="Yr9"/>
  </DataField>
  <DataField name="Marital" optype="categorical" dataType="string">
   <Value value="Absent"/>
   <Value value="Divorced"/>
   <Value value="Married"/>
   <Value value="Married-spouse-absent"/>
   <Value value="Unmarried"/>
   <Value value="Widowed"/>
  </DataField>
  <DataField name="Occupation" optype="categorical" dataType="string">
   <Value value="Cleaner"/>
   <Value value="Clerical"/>
   <Value value="Executive"/>
   <Value value="Farming"/>
   <Value value="Home"/>
   <Value value="Machinist"/>
   <Value value="Military"/>
   <Value value="Professional"/>
   <Value value="Protective"/>
   <Value value="Repair"/>
   <Value value="Sales"/>
   <Value value="Service"/>
   <Value value="Support"/>
   <Value value="Transport"/>
  </DataField>
  <DataField name="Income" optype="continuous" dataType="double"/>
  <DataField name="Gender" optype="categorical" dataType="string">
   <Value value="Female"/>
   <Value value="Male"/>
  </DataField>
  <DataField name="Deductions" optype="continuous" dataType="double"/>
  <DataField name="Hours" optype="continuous" dataType="double"/>
 </DataDictionary>
 <NeuralNetwork modelName="NeuralNet_model" functionName="classification" numberOfLayers="3" activationFunction="logistic">
  <MiningSchema>
   <MiningField name="Adjusted" usageType="predicted"/>
   <MiningField name="Age" usageType="active"/>
   <MiningField name="Employment" usageType="active"/>
   <MiningField name="Education" usageType="active"/>
   <MiningField name="Marital" usageType="active"/>
   <MiningField name="Occupation" usageType="active"/>
   <MiningField name="Income" usageType="active"/>
   <MiningField name="Gender" usageType="active"/>
   <MiningField name="Deductions" usageType="active"/>
   <MiningField name="Hours" usageType="active"/>
  </MiningSchema>
  <Output>
   <OutputField name="Predicted_Adjusted" feature="predictedValue"/>
   <OutputField name="Probability_0" optype="continuous" dataType="double" feature="probability" value="0"/>
   <OutputField name="Probability_1" optype="continuous" dataType="double" feature="probability" value="1"/>
  </Output>
  <NeuralInputs numberOfInputs="44">
   <NeuralInput id="1">
    <DerivedField name="derivedNI_Age" optype="continuous" dataType="double">
     <FieldRef field="Age"/>
    </DerivedField>
   </NeuralInput>
   <NeuralInput id="2">
    <DerivedField name="derivedNI_EmploymentPrivate" optype="continuous" dataType="double">
     <NormDiscrete field="Employment" value="Private"/>
    </DerivedField>
   </NeuralInput>
   <NeuralInput id="3">
    <DerivedField name="derivedNI_EmploymentPSFederal" optype="continuous" dataType="double">
     <NormDiscrete field="Employment" value="PSFederal"/>
    </DerivedField>
   </NeuralInput>
   <NeuralInput id="4">
    <DerivedField name="derivedNI_EmploymentPSLocal" optype="continuous" dataType="double">
     <NormDiscrete field="Employment" value="PSLocal"/>
    </DerivedField>
   </NeuralInput>
   <NeuralInput id="5">
    <DerivedField name="derivedNI_EmploymentPSState" optype="continuous" dataType="double">
     <NormDiscrete field="Employment" value="PSState"/>
    </DerivedField>
   </NeuralInput>
   <NeuralInput id="6">
    <DerivedField name="derivedNI_EmploymentSelfEmp" optype="continuous" dataType="double">
     <NormDiscrete field="Employment" value="SelfEmp"/>
    </DerivedField>
   </NeuralInput>
   <NeuralInput id="7">
    <DerivedField name="derivedNI_EmploymentVolunteer" optype="continuous" dataType="double">
     <NormDiscrete field="Employment" value="Volunteer"/>
    </DerivedField>
   </NeuralInput>
   <NeuralInput id="8">
    <DerivedField name="derivedNI_EducationBachelor" optype="continuous" dataType="double">
     <NormDiscrete field="Education" value="Bachelor"/>
    </DerivedField>
   </NeuralInput>
   <NeuralInput id="9">
    <DerivedField name="derivedNI_EducationCollege" optype="continuous" dataType="double">
     <NormDiscrete field="Education" value="College"/>
    </DerivedField>
   </NeuralInput>
   <NeuralInput id="10">
    <DerivedField name="derivedNI_EducationDoctorate" optype="continuous" dataType="double">
     <NormDiscrete field="Education" value="Doctorate"/>
    </DerivedField>
   </NeuralInput>
   <NeuralInput id="11">
    <DerivedField name="derivedNI_EducationHSgrad" optype="continuous" dataType="double">
     <NormDiscrete field="Education" value="HSgrad"/>
    </DerivedField>
   </NeuralInput>
   <NeuralInput id="12">
    <DerivedField name="derivedNI_EducationMaster" optype="continuous" dataType="double">
     <NormDiscrete field="Education" value="Master"/>
    </DerivedField>
   </NeuralInput>
   <NeuralInput id="13">
    <DerivedField name="derivedNI_EducationPreschool" optype="continuous" dataType="double">
     <NormDiscrete field="Education" value="Preschool"/>
    </DerivedField>
   </NeuralInput>
   <NeuralInput id="14">
    <DerivedField name="derivedNI_EducationProfessional" optype="continuous" dataType="double">
     <NormDiscrete field="Education" value="Professional"/>
    </DerivedField>
   </NeuralInput>
   <NeuralInput id="15">
    <DerivedField name="derivedNI_EducationVocational" optype="continuous" dataType="double">
     <NormDiscrete field="Education" value="Vocational"/>
    </DerivedField>
   </NeuralInput>
   <NeuralInput id="16">
    <DerivedField name="derivedNI_EducationYr10" optype="continuous" dataType="double">
     <NormDiscrete field="Education" value="Yr10"/>
    </DerivedField>
   </NeuralInput>
   <NeuralInput id="17">
    <DerivedField name="derivedNI_EducationYr11" optype="continuous" dataType="double">
     <NormDiscrete field="Education" value="Yr11"/>
    </DerivedField>
   </NeuralInput>
   <NeuralInput id="18">
    <DerivedField name="derivedNI_EducationYr12" optype="continuous" dataType="double">
     <NormDiscrete field="Education" value="Yr12"/>
    </DerivedField>
   </NeuralInput>
   <NeuralInput id="19">
    <DerivedField name="derivedNI_EducationYr1t4" optype="continuous" dataType="double">
     <NormDiscrete field="Education" value="Yr1t4"/>
    </DerivedField>
   </NeuralInput>
   <NeuralInput id="20">
    <DerivedField name="derivedNI_EducationYr5t6" optype="continuous" dataType="double">
     <NormDiscrete field="Education" value="Yr5t6"/>
    </DerivedField>
   </NeuralInput>
   <NeuralInput id="21">
    <DerivedField name="derivedNI_EducationYr7t8" optype="continuous" dataType="double">
     <NormDiscrete field="Education" value="Yr7t8"/>
    </DerivedField>
   </NeuralInput>
   <NeuralInput id="22">
    <DerivedField name="derivedNI_EducationYr9" optype="continuous" dataType="double">
     <NormDiscrete field="Education" value="Yr9"/>
    </DerivedField>
   </NeuralInput>
   <NeuralInput id="23">
    <DerivedField name="derivedNI_MaritalDivorced" optype="continuous" dataType="double">
     <NormDiscrete field="Marital" value="Divorced"/>
    </DerivedField>
   </NeuralInput>
   <NeuralInput id="24">
    <DerivedField name="derivedNI_MaritalMarried" optype="continuous" dataType="double">
     <NormDiscrete field="Marital" value="Married"/>
    </DerivedField>
   </NeuralInput>
   <NeuralInput id="25">
    <DerivedField name="derivedNI_MaritalMarried-spouse-absent" optype="continuous" dataType="double">
     <NormDiscrete field="Marital" value="Married-spouse-absent"/>
    </DerivedField>
   </NeuralInput>
   <NeuralInput id="26">
    <DerivedField name="derivedNI_MaritalUnmarried" optype="continuous" dataType="double">
     <NormDiscrete field="Marital" value="Unmarried"/>
    </DerivedField>
   </NeuralInput>
   <NeuralInput id="27">
    <DerivedField name="derivedNI_MaritalWidowed" optype="continuous" dataType="double">
     <NormDiscrete field="Marital" value="Widowed"/>
    </DerivedField>
   </NeuralInput>
   <NeuralInput id="28">
    <DerivedField name="derivedNI_OccupationClerical" optype="continuous" dataType="double">
     <NormDiscrete field="Occupation" value="Clerical"/>
    </DerivedField>
   </NeuralInput>
   <NeuralInput id="29">
    <DerivedField name="derivedNI_OccupationExecutive" optype="continuous" dataType="double">
     <NormDiscrete field="Occupation" value="Executive"/>
    </DerivedField>
   </NeuralInput>
   <NeuralInput id="30">
    <DerivedField name="derivedNI_OccupationFarming" optype="continuous" dataType="double">
     <NormDiscrete field="Occupation" value="Farming"/>
    </DerivedField>
   </NeuralInput>
   <NeuralInput id="31">
    <DerivedField name="derivedNI_OccupationHome" optype="continuous" dataType="double">
     <NormDiscrete field="Occupation" value="Home"/>
    </DerivedField>
   </NeuralInput>
   <NeuralInput id="32">
    <DerivedField name="derivedNI_OccupationMachinist" optype="continuous" dataType="double">
     <NormDiscrete field="Occupation" value="Machinist"/>
    </DerivedField>
   </NeuralInput>
   <NeuralInput id="33">
    <DerivedField name="derivedNI_OccupationMilitary" optype="continuous" dataType="double">
     <NormDiscrete field="Occupation" value="Military"/>
    </DerivedField>
   </NeuralInput>
   <NeuralInput id="34">
    <DerivedField name="derivedNI_OccupationProfessional" optype="continuous" dataType="double">
     <NormDiscrete field="Occupation" value="Professional"/>
    </DerivedField>
   </NeuralInput>
   <NeuralInput id="35">
    <DerivedField name="derivedNI_OccupationProtective" optype="continuous" dataType="double">
     <NormDiscrete field="Occupation" value="Protective"/>
    </DerivedField>
   </NeuralInput>
   <NeuralInput id="36">
    <DerivedField name="derivedNI_OccupationRepair" optype="continuous" dataType="double">
     <NormDiscrete field="Occupation" value="Repair"/>
    </DerivedField>
   </NeuralInput>
   <NeuralInput id="37">
    <DerivedField name="derivedNI_OccupationSales" optype="continuous" dataType="double">
     <NormDiscrete field="Occupation" value="Sales"/>
    </DerivedField>
   </NeuralInput>
   <NeuralInput id="38">
    <DerivedField name="derivedNI_OccupationService" optype="continuous" dataType="double">
     <NormDiscrete field="Occupation" value="Service"/>
    </DerivedField>
   </NeuralInput>
   <NeuralInput id="39">
    <DerivedField name="derivedNI_OccupationSupport" optype="continuous" dataType="double">
     <NormDiscrete field="Occupation" value="Support"/>
    </DerivedField>
   </NeuralInput>
   <NeuralInput id="40">
    <DerivedField name="derivedNI_OccupationTransport" optype="continuous" dataType="double">
     <NormDiscrete field="Occupation" value="Transport"/>
    </DerivedField>
   </NeuralInput>
   <NeuralInput id="41">
    <DerivedField name="derivedNI_Income" optype="continuous" dataType="double">
     <FieldRef field="Income"/>
    </DerivedField>
   </NeuralInput>
   <NeuralInput id="42">
    <DerivedField name="derivedNI_GenderMale" optype="continuous" dataType="double">
     <NormDiscrete field="Gender" value="Male"/>
    </DerivedField>
   </NeuralInput>
   <NeuralInput id="43">
    <DerivedField name="derivedNI_Deductions" optype="continuous" dataType="double">
     <FieldRef field="Deductions"/>
    </DerivedField>
   </NeuralInput>
   <NeuralInput id="44">
    <DerivedField name="derivedNI_Hours" optype="continuous" dataType="double">
     <FieldRef field="Hours"/>
    </DerivedField>
   </NeuralInput>
  </NeuralInputs>
  <NeuralLayer numberOfNeurons="9">
   <Neuron id="45" bias="0.00880643690341018">
    <Con from="1" weight="-0.0108585071461475"/>
    <Con from="2" weight="-0.00463197061273236"/>
    <Con from="3" weight="-0.0171230378828394"/>
    <Con from="4" weight="0.0193627814830811"/>
    <Con from="5" weight="-0.0204943036067715"/>
    <Con from="6" weight="0.00311333393317223"/>
    <Con from="7" weight="0.0110795784969389"/>
    <Con from="8" weight="0.0156465584459672"/>
    <Con from="9" weight="-0.0192388170196311"/>
    <Con from="10" weight="0.00675178896229859"/>
    <Con from="11" weight="0.0158556030655093"/>
    <Con from="12" weight="0.0163663477063468"/>
    <Con from="13" weight="0.00277747806944859"/>
    <Con from="14" weight="0.00392009473476654"/>
    <Con from="15" weight="-0.00567750929586329"/>
    <Con from="16" weight="-0.00597510421890829"/>
    <Con from="17" weight="0.00383250127372324"/>
    <Con from="18" weight="0.0153142168542623"/>
    <Con from="19" weight="0.00756483075530215"/>
    <Con from="20" weight="-0.0152086999895513"/>
    <Con from="21" weight="0.00196738926276255"/>
    <Con from="22" weight="0.00745543341043071"/>
    <Con from="23" weight="0.00117675179240882"/>
    <Con from="24" weight="-0.0173168219748452"/>
    <Con from="25" weight="0.00502819486349299"/>
    <Con from="26" weight="-0.0196230364918253"/>
    <Con from="27" weight="-0.00161699714015356"/>
    <Con from="28" weight="-0.00712296104670881"/>
    <Con from="29" weight="0.00558806817448271"/>
    <Con from="30" weight="-0.00322212312658482"/>
    <Con from="31" weight="-0.00397216930930918"/>
    <Con from="32" weight="0.0175459160868635"/>
    <Con from="33" weight="0.0129385774544469"/>
    <Con from="34" weight="0.00168001511248683"/>
    <Con from="35" weight="-0.0164566601342615"/>
    <Con from="36" weight="-0.00190897978503812"/>
    <Con from="37" weight="-0.0187748123042357"/>
    <Con from="38" weight="0.0108420889147679"/>
    <Con from="39" weight="-0.0174403260033483"/>
    <Con from="40" weight="0.00433919072515057"/>
    <Con from="41" weight="-0.0156514979850856"/>
    <Con from="42" weight="0.0195555035485524"/>
    <Con from="43" weight="0.00438135823729607"/>
    <Con from="44" weight="0.00556572661338164"/>
   </Neuron>
   <Neuron id="46" bias="0.0175574919555563">
    <Con from="1" weight="-0.0147721919683285"/>
    <Con from="2" weight="-0.00716100326201161"/>
    <Con from="3" weight="0.00974003440409444"/>
    <Con from="4" weight="0.00756907519855017"/>
    <Con from="5" weight="0.0024876044458644"/>
    <Con from="6" weight="-0.00428163874945875"/>
    <Con from="7" weight="-0.0179252956351827"/>
    <Con from="8" weight="0.0208620252355129"/>
    <Con from="9" weight="-0.0200592611054104"/>
    <Con from="10" weight="-0.00192599498907246"/>
    <Con from="11" weight="-0.0148651259393831"/>
    <Con from="12" weight="-0.00666277948856912"/>
    <Con from="13" weight="-0.0111776026641401"/>
    <Con from="14" weight="-0.0168819747209669"/>
    <Con from="15" weight="-0.000137261616052414"/>
    <Con from="16" weight="0.0030622564868567"/>
    <Con from="17" weight="0.0126437468924058"/>
    <Con from="18" weight="0.00531374260262701"/>
    <Con from="19" weight="-0.00625734080889039"/>
    <Con from="20" weight="-0.00195477982803321"/>
    <Con from="21" weight="-0.00841172577695994"/>
    <Con from="22" weight="-0.0173710189691667"/>
    <Con from="23" weight="-0.00451149461056037"/>
    <Con from="24" weight="-0.00293753294831101"/>
    <Con from="25" weight="-0.00953994252661203"/>
    <Con from="26" weight="-0.00859869576458951"/>
    <Con from="27" weight="-0.00546368049938863"/>
    <Con from="28" weight="-0.0142215851803873"/>
    <Con from="29" weight="-0.00399960446889312"/>
    <Con from="30" weight="0.0182491255861678"/>
    <Con from="31" weight="-0.0128174399295237"/>
    <Con from="32" weight="-0.00151144942414005"/>
    <Con from="33" weight="-0.0126340964767141"/>
    <Con from="34" weight="0.00626958429431529"/>
    <Con from="35" weight="0.00167464397299752"/>
    <Con from="36" weight="-0.00207903025889863"/>
    <Con from="37" weight="0.0186094070382489"/>
    <Con from="38" weight="-0.00319146372480671"/>
    <Con from="39" weight="0.00898740401442799"/>
    <Con from="40" weight="0.00383169870493957"/>
    <Con from="41" weight="0.0183652979173569"/>
    <Con from="42" weight="-0.00366437735991227"/>
    <Con from="43" weight="-0.00755714087704741"/>
    <Con from="44" weight="0.0209024782184741"/>
   </Neuron>
   <Neuron id="47" bias="-0.0111550566876238">
    <Con from="1" weight="0.018213936389802"/>
    <Con from="2" weight="-0.0145415832848095"/>
    <Con from="3" weight="0.0179335040584564"/>
    <Con from="4" weight="-0.0198494060481828"/>
    <Con from="5" weight="-0.00745084566260735"/>
    <Con from="6" weight="0.00457461400466339"/>
    <Con from="7" weight="0.0129610740454233"/>
    <Con from="8" weight="0.0176204697009468"/>
    <Con from="9" weight="0.0144875607646837"/>
    <Con from="10" weight="0.00450993594830175"/>
    <Con from="11" weight="0.00434426350570898"/>
    <Con from="12" weight="0.0115252379288799"/>
    <Con from="13" weight="0.00512794272288217"/>
    <Con from="14" weight="-0.00571844099242438"/>
    <Con from="15" weight="-0.0208548087961765"/>
    <Con from="16" weight="-0.00869663807541222"/>
    <Con from="17" weight="-0.0156205583757575"/>
    <Con from="18" weight="0.00388240871931968"/>
    <Con from="19" weight="0.00838182980001553"/>
    <Con from="20" weight="-0.00490634889279449"/>
    <Con from="21" weight="-0.0170618603907289"/>
    <Con from="22" weight="-0.0125580378215629"/>
    <Con from="23" weight="-0.00125192091234996"/>
    <Con from="24" weight="0.0123930756975194"/>
    <Con from="25" weight="-0.0131193951842917"/>
    <Con from="26" weight="0.0180633109299444"/>
    <Con from="27" weight="-0.00193538755617415"/>
    <Con from="28" weight="0.010808749816212"/>
    <Con from="29" weight="0.0177793896295654"/>
    <Con from="30" weight="-0.0166131651972652"/>
    <Con from="31" weight="-0.0153227496792867"/>
    <Con from="32" weight="0.00491344122318405"/>
    <Con from="33" weight="0.0031464315572709"/>
    <Con from="34" weight="-0.00246201924214859"/>
    <Con from="35" weight="-0.0202549798111448"/>
    <Con from="36" weight="-0.013115303173492"/>
    <Con from="37" weight="-0.0181255838052934"/>
    <Con from="38" weight="0.0144356460059921"/>
    <Con from="39" weight="0.0191569378120332"/>
    <Con from="40" weight="-0.0134661815124335"/>
    <Con from="41" weight="0.0129456168241188"/>
    <Con from="42" weight="-0.00909621320702695"/>
    <Con from="43" weight="-0.0136413938490889"/>
    <Con from="44" weight="0.0155678697364131"/>
   </Neuron>
   <Neuron id="48" bias="0.0185254007038207">
    <Con from="1" weight="0.0156330243647751"/>
    <Con from="2" weight="0.00287641211677976"/>
    <Con from="3" weight="-0.00396499654680703"/>
    <Con from="4" weight="-0.0125049702499115"/>
    <Con from="5" weight="-0.0151460279207769"/>
    <Con from="6" weight="-0.0159439246716356"/>
    <Con from="7" weight="-0.00102660315141122"/>
    <Con from="8" weight="0.00890504712454321"/>
    <Con from="9" weight="-0.00826932529226826"/>
    <Con from="10" weight="0.0160779374358166"/>
    <Con from="11" weight="-0.0197700449616053"/>
    <Con from="12" weight="0.00677449696754483"/>
    <Con from="13" weight="0.00178798177173308"/>
    <Con from="14" weight="0.00767137697893299"/>
    <Con from="15" weight="-0.0159438655131312"/>
    <Con from="16" weight="-0.00694863884124654"/>
    <Con from="17" weight="0.0192571873575205"/>
    <Con from="18" weight="0.00391143594947311"/>
    <Con from="19" weight="-0.00649284655197066"/>
    <Con from="20" weight="-0.00363413911172978"/>
    <Con from="21" weight="0.00716215427065986"/>
    <Con from="22" weight="0.0092004934351189"/>
    <Con from="23" weight="0.00728079363570389"/>
    <Con from="24" weight="0.0160612069438615"/>
    <Con from="25" weight="-0.00127035557172665"/>
    <Con from="26" weight="0.0148344990688335"/>
    <Con from="27" weight="0.00490131079485337"/>
    <Con from="28" weight="0.0130598046767599"/>
    <Con from="29" weight="-0.0160851851852748"/>
    <Con from="30" weight="0.0116567908190647"/>
    <Con from="31" weight="-0.019992029648833"/>
    <Con from="32" weight="0.0133219249747756"/>
    <Con from="33" weight="0.0174957077621213"/>
    <Con from="34" weight="0.0178840768148184"/>
    <Con from="35" weight="-0.00137736940079226"/>
    <Con from="36" weight="0.00387659752251599"/>
    <Con from="37" weight="0.00639724602317072"/>
    <Con from="38" weight="-0.00985061231244251"/>
    <Con from="39" weight="-0.0151085986105965"/>
    <Con from="40" weight="-0.0208693751473246"/>
    <Con from="41" weight="0.0181776354800612"/>
    <Con from="42" weight="-0.000913298189389423"/>
    <Con from="43" weight="0.0143452012775978"/>
    <Con from="44" weight="-0.00508199346917285"/>
   </Neuron>
   <Neuron id="49" bias="0.00620150431237191">
    <Con from="1" weight="-0.0198335916239672"/>
    <Con from="2" weight="-0.00897325696624626"/>
    <Con from="3" weight="0.0191907378677638"/>
    <Con from="4" weight="-0.0162416696320364"/>
    <Con from="5" weight="0.0124139993990331"/>
    <Con from="6" weight="-0.0173387365026015"/>
    <Con from="7" weight="0.00464602388713658"/>
    <Con from="8" weight="-0.0176684460558846"/>
    <Con from="9" weight="0.0207669029984227"/>
    <Con from="10" weight="-0.0042266006267959"/>
    <Con from="11" weight="-0.00251417497361158"/>
    <Con from="12" weight="-0.0163342309080366"/>
    <Con from="13" weight="-0.0197382289065674"/>
    <Con from="14" weight="0.00354774853811281"/>
    <Con from="15" weight="0.0170773293825021"/>
    <Con from="16" weight="0.00112297381693881"/>
    <Con from="17" weight="0.00416109798681513"/>
    <Con from="18" weight="0.0127465033828746"/>
    <Con from="19" weight="-0.00682348929482949"/>
    <Con from="20" weight="-0.00603433058632196"/>
    <Con from="21" weight="0.0200559704615995"/>
    <Con from="22" weight="0.00961989781593605"/>
    <Con from="23" weight="0.00372692643478845"/>
    <Con from="24" weight="-0.0187867251836083"/>
    <Con from="25" weight="0.00822160401705056"/>
    <Con from="26" weight="0.00237187134455095"/>
    <Con from="27" weight="0.0140330680775305"/>
    <Con from="28" weight="-0.0043739115838258"/>
    <Con from="29" weight="0.0206324493702799"/>
    <Con from="30" weight="-0.00804638609337059"/>
    <Con from="31" weight="-0.00678861726900543"/>
    <Con from="32" weight="0.0163182689239996"/>
    <Con from="33" weight="-0.0204956708362092"/>
    <Con from="34" weight="0.0070043355826264"/>
    <Con from="35" weight="-0.017310574896023"/>
    <Con from="36" weight="-0.000113853724529022"/>
    <Con from="37" weight="0.000909734238541142"/>
    <Con from="38" weight="0.0189761732339986"/>
    <Con from="39" weight="-0.00028101846121856"/>
    <Con from="40" weight="-0.0128604781483052"/>
    <Con from="41" weight="-0.0183267940804288"/>
    <Con from="42" weight="0.018819367116957"/>
    <Con from="43" weight="0.0115393862103532"/>
    <Con from="44" weight="-0.0145136027456499"/>
   </Neuron>
   <Neuron id="50" bias="0.0062467001332895">
    <Con from="1" weight="-0.0130544058404488"/>
    <Con from="2" weight="-0.00498998418774917"/>
    <Con from="3" weight="-0.000848236739497223"/>
    <Con from="4" weight="-0.010497711406523"/>
    <Con from="5" weight="-0.00187836969809385"/>
    <Con from="6" weight="-0.00763153782211425"/>
    <Con from="7" weight="0.0127002673739817"/>
    <Con from="8" weight="0.011190110099603"/>
    <Con from="9" weight="0.0114007161863871"/>
    <Con from="10" weight="0.0148450225441332"/>
    <Con from="11" weight="0.00635567810392659"/>
    <Con from="12" weight="-0.0128335490498995"/>
    <Con from="13" weight="-0.00309196749883292"/>
    <Con from="14" weight="-0.00641453111486103"/>
    <Con from="15" weight="0.0170760360091543"/>
    <Con from="16" weight="-0.0113673771473707"/>
    <Con from="17" weight="0.00733977814858394"/>
    <Con from="18" weight="-0.0196814796309232"/>
    <Con from="19" weight="-0.00139178128568788"/>
    <Con from="20" weight="-0.00644657480335207"/>
    <Con from="21" weight="-0.00119276641096103"/>
    <Con from="22" weight="0.016166565571709"/>
    <Con from="23" weight="-0.0172131925668897"/>
    <Con from="24" weight="0.0021666046950521"/>
    <Con from="25" weight="-0.00333573734132075"/>
    <Con from="26" weight="-0.0174768028678208"/>
    <Con from="27" weight="-0.00391454787650465"/>
    <Con from="28" weight="0.0104254832015104"/>
    <Con from="29" weight="-0.000987874719046256"/>
    <Con from="30" weight="-0.00466865220121235"/>
    <Con from="31" weight="-0.0146227183076711"/>
    <Con from="32" weight="-0.020476421283635"/>
    <Con from="33" weight="-0.0128608512080266"/>
    <Con from="34" weight="-0.0016480894612011"/>
    <Con from="35" weight="0.0126415714955174"/>
    <Con from="36" weight="0.00668840586250092"/>
    <Con from="37" weight="0.00205927325737196"/>
    <Con from="38" weight="0.0160400769107546"/>
    <Con from="39" weight="0.00653641604502056"/>
    <Con from="40" weight="-0.0129479237377044"/>
    <Con from="41" weight="0.00119783855004358"/>
    <Con from="42" weight="0.00747116002004468"/>
    <Con from="43" weight="0.0194019141565662"/>
    <Con from="44" weight="-0.0199169630240167"/>
   </Neuron>
   <Neuron id="51" bias="25.7303263390202">
    <Con from="1" weight="-0.176328777501065"/>
    <Con from="2" weight="-0.513304470124568"/>
    <Con from="3" weight="-1.19132655673657"/>
    <Con from="4" weight="1.55351084926756"/>
    <Con from="5" weight="0.295410463008652"/>
    <Con from="6" weight="0.382440905085778"/>
    <Con from="7" weight="5.99054041381315"/>
    <Con from="8" weight="-1.59664334378418"/>
    <Con from="9" weight="0.358844898667502"/>
    <Con from="10" weight="-1.73527220048399"/>
    <Con from="11" weight="1.21992519632022"/>
    <Con from="12" weight="-0.638433436230807"/>
    <Con from="13" weight="2.87847633024152"/>
    <Con from="14" weight="-2.70010829482323"/>
    <Con from="15" weight="1.33584009341344"/>
    <Con from="16" weight="10.0947158114658"/>
    <Con from="17" weight="9.69608025167724"/>
    <Con from="18" weight="4.66503343274784"/>
    <Con from="19" weight="5.81080498023562"/>
    <Con from="20" weight="7.93814892711413"/>
    <Con from="21" weight="12.6473196739573"/>
    <Con from="22" weight="10.0555219536956"/>
    <Con from="23" weight="4.98458407800953"/>
    <Con from="24" weight="-6.47045282389429"/>
    <Con from="25" weight="0.397761875457258"/>
    <Con from="26" weight="2.47995370370358"/>
    <Con from="27" weight="2.49835470203449"/>
    <Con from="28" weight="-5.94302377950916"/>
    <Con from="29" weight="-6.22328939857539"/>
    <Con from="30" weight="-0.254663169218387"/>
    <Con from="31" weight="-0.0292910810058226"/>
    <Con from="32" weight="-5.17165481722231"/>
    <Con from="33" weight="0.00793907489920554"/>
    <Con from="34" weight="-8.53443869950592"/>
    <Con from="35" weight="-8.19358374520313"/>
    <Con from="36" weight="-3.03898759445671"/>
    <Con from="37" weight="-4.51318694591428"/>
    <Con from="38" weight="1.1667284356386"/>
    <Con from="39" weight="-6.19781444786449"/>
    <Con from="40" weight="-2.44081570685265"/>
    <Con from="41" weight="-1.38851566434274e-05"/>
    <Con from="42" weight="-1.40292488696662"/>
    <Con from="43" weight="-0.00442141748524781"/>
    <Con from="44" weight="-0.176361693807523"/>
   </Neuron>
   <Neuron id="52" bias="-0.000506458917661098">
    <Con from="1" weight="0.000156081979263124"/>
    <Con from="2" weight="0.0170470779299649"/>
    <Con from="3" weight="0.0205548280925739"/>
    <Con from="4" weight="-0.0153886413229155"/>
    <Con from="5" weight="0.00106814529274083"/>
    <Con from="6" weight="0.00399926059497777"/>
    <Con from="7" weight="0.0153512101292305"/>
    <Con from="8" weight="0.0122453278237648"/>
    <Con from="9" weight="-0.00687992653567037"/>
    <Con from="10" weight="-0.0194897080550582"/>
    <Con from="11" weight="0.0102071961171951"/>
    <Con from="12" weight="0.0010285881819647"/>
    <Con from="13" weight="0.00937143846316248"/>
    <Con from="14" weight="-0.00193264537009277"/>
    <Con from="15" weight="-0.0141508896983119"/>
    <Con from="16" weight="0.00985657533425807"/>
    <Con from="17" weight="0.00468084915531256"/>
    <Con from="18" weight="0.0108911027812322"/>
    <Con from="19" weight="0.000492651014411882"/>
    <Con from="20" weight="-0.0166008268443931"/>
    <Con from="21" weight="0.0120709555890877"/>
    <Con from="22" weight="-0.00440168167005311"/>
    <Con from="23" weight="-0.0169194975522683"/>
    <Con from="24" weight="0.0189286921301558"/>
    <Con from="25" weight="0.0208351480230062"/>
    <Con from="26" weight="0.0196943751444164"/>
    <Con from="27" weight="-0.00566571296026385"/>
    <Con from="28" weight="-0.0163051140996216"/>
    <Con from="29" weight="0.0143723893136127"/>
    <Con from="30" weight="-0.0103943652570643"/>
    <Con from="31" weight="0.0208501377216899"/>
    <Con from="32" weight="-0.01780810966441"/>
    <Con from="33" weight="0.0124071607196231"/>
    <Con from="34" weight="-0.00644447252887422"/>
    <Con from="35" weight="0.0208694921476069"/>
    <Con from="36" weight="0.00189919204630593"/>
    <Con from="37" weight="0.00573698869653699"/>
    <Con from="38" weight="0.00265736254134507"/>
    <Con from="39" weight="-0.0133056945004703"/>
    <Con from="40" weight="0.0105469912318018"/>
    <Con from="41" weight="0.0139183645893822"/>
    <Con from="42" weight="0.0195116724916875"/>
    <Con from="43" weight="-0.00791990497360298"/>
    <Con from="44" weight="0.00244271479418567"/>
   </Neuron>
   <Neuron id="53" bias="-0.00847751403142936">
    <Con from="1" weight="-0.0195381481479156"/>
    <Con from="2" weight="0.00994064456418166"/>
    <Con from="3" weight="-0.018465898992207"/>
    <Con from="4" weight="-0.0201537423190581"/>
    <Con from="5" weight="-0.0179375035084992"/>
    <Con from="6" weight="-0.00322341160145162"/>
    <Con from="7" weight="-0.00382278944257189"/>
    <Con from="8" weight="0.00319763203396438"/>
    <Con from="9" weight="0.0147561422850596"/>
    <Con from="10" weight="-0.0167896040008295"/>
    <Con from="11" weight="-0.0017368594297578"/>
    <Con from="12" weight="0.00347985848905831"/>
    <Con from="13" weight="-0.0206242680754957"/>
    <Con from="14" weight="-0.00493590130542712"/>
    <Con from="15" weight="0.0205032259098611"/>
    <Con from="16" weight="-0.0147391412539766"/>
    <Con from="17" weight="-0.0041566541537921"/>
    <Con from="18" weight="0.0123043469446811"/>
    <Con from="19" weight="0.00809332783350713"/>
    <Con from="20" weight="0.0143197817306023"/>
    <Con from="21" weight="-0.0200035115031916"/>
    <Con from="22" weight="0.00704635525264419"/>
    <Con from="23" weight="0.00110395527135844"/>
    <Con from="24" weight="0.00750341912934374"/>
    <Con from="25" weight="0.000419033596538388"/>
    <Con from="26" weight="-0.0152550713950693"/>
    <Con from="27" weight="0.018293540970981"/>
    <Con from="28" weight="0.00961197113018636"/>
    <Con from="29" weight="-0.00678884143438855"/>
    <Con from="30" weight="0.000272308454954665"/>
    <Con from="31" weight="9.79442898000153e-05"/>
    <Con from="32" weight="0.0112821149462204"/>
    <Con from="33" weight="0.00623042322439573"/>
    <Con from="34" weight="0.0164961491673525"/>
    <Con from="35" weight="-0.00698460083982827"/>
    <Con from="36" weight="-0.0112350206047864"/>
    <Con from="37" weight="0.00911816173995413"/>
    <Con from="38" weight="-0.00119113862931699"/>
    <Con from="39" weight="-0.017429626494805"/>
    <Con from="40" weight="0.0146192373719923"/>
    <Con from="41" weight="-0.015581280594447"/>
    <Con from="42" weight="0.012302875051691"/>
    <Con from="43" weight="0.0117568472748959"/>
    <Con from="44" weight="-0.00731457456200892"/>
   </Neuron>
  </NeuralLayer>
  <NeuralLayer numberOfNeurons="1">
   <Neuron id="54" bias="0.114888035943341">
    <Con from="45" weight="0.01494561009909"/>
    <Con from="46" weight="0.107806008887187"/>
    <Con from="47" weight="0.116107157521679"/>
    <Con from="48" weight="0.117139119299779"/>
    <Con from="49" weight="-0.00955133928383383"/>
    <Con from="50" weight="0.102069749810322"/>
    <Con from="51" weight="-3.79865902790149"/>
    <Con from="52" weight="0.0849789762686271"/>
    <Con from="53" weight="0.0190082612525336"/>
   </Neuron>
  </NeuralLayer>
  <NeuralLayer numberOfNeurons="2" activationFunction="identity">
   <Neuron id="55" bias="1.0">
    <Con from="54" weight="-1.0"/>
   </Neuron>
   <Neuron id="56" bias="0.0">
    <Con from="54" weight="1.0"/>
   </Neuron>
  </NeuralLayer>
  <NeuralOutputs numberOfOutputs="2">
   <NeuralOutput outputNeuron="55">
    <DerivedField name="derivedNO_Adjusted" optype="continuous" dataType="double">
     <NormDiscrete field="Adjusted" value="0"/>
    </DerivedField>
   </NeuralOutput>
   <NeuralOutput outputNeuron="56">
    <DerivedField name="derivedNO_Adjusted" optype="continuous" dataType="double">
     <NormDiscrete field="Adjusted" value="1"/>
    </DerivedField>
   </NeuralOutput>
  </NeuralOutputs>
 </NeuralNetwork>
</PMML>
