<?xml version="1.0"?>
<PMML version="4.1" xmlns="http://www.dmg.org/PMML-4_1" xmlns:xsi="http://www.w3.org/2001/XMLSchema-instance" xsi:schemaLocation="http://www.dmg.org/PMML-4_1 http://www.dmg.org/v4-1/pmml-4-1.xsd">
 <Header copyright="Copyright (c) 2014 Vfed" description="Neural Network PMML Model">
  <Extension name="user" value="Vfed" extender="Rattle/PMML"/>
  <Application name="Rattle/PMML" version="1.4"/>
  <Timestamp>2014-04-28 17:41:11</Timestamp>
 </Header>
 <DataDictionary numberOfFields="9">
  <DataField name="Adjusted" optype="categorical" dataType="string">
   <Value value="0"/>
   <Value value="1"/>
  </DataField>
  <DataField name="Employment" optype="categorical" dataType="string">
   <Value value="Consultant"/>
   <Value value="Private"/>
   <Value value="PSFederal"/>
   <Value value="PSLocal"/>
   <Value value="PSState"/>
   <Value value="SelfEmp"/>
   <Value value="Volunteer"/>
  </DataField>
  <DataField name="Education" optype="categorical" dataType="string">
   <Value value="Associate"/>
   <Value value="Bachelor"/>
   <Value value="College"/>
   <Value value="Doctorate"/>
   <Value value="HSgrad"/>
   <Value value="Master"/>
   <Value value="Preschool"/>
   <Value value="Professional"/>
   <Value value="Vocational"/>
   <Value value="Yr10"/>
   <Value value="Yr11"/>
   <Value value="Yr12"/>
   <Value value="Yr1t4"/>
   <Value value="Yr5t6"/>
   <Value value="Yr7t8"/>
   <Value value="Yr9"/>
  </DataField>
  <DataField name="Marital" optype="categorical" dataType="string">
   <Value value="Absent"/>
   <Value value="Divorced"/>
   <Value value="Married"/>
   <Value value="Married-spouse-absent"/>
   <Value value="Unmarried"/>
   <Value value="Widowed"/>
  </DataField>
  <DataField name="Occupation" optype="categorical" dataType="string">
   <Value value="Cleaner"/>
   <Value value="Clerical"/>
   <Value value="Executive"/>
   <Value value="Farming"/>
   <Value value="Home"/>
   <Value value="Machinist"/>
   <Value value="Military"/>
   <Value value="Professional"/>
   <Value value="Protective"/>
   <Value value="Repair"/>
   <Value value="Sales"/>
   <Value value="Service"/>
   <Value value="Support"/>
   <Value value="Transport"/>
  </DataField>
  <DataField name="Income" optype="continuous" dataType="double"/>
  <DataField name="Gender" optype="categorical" dataType="string">
   <Value value="Female"/>
   <Value value="Male"/>
  </DataField>
  <DataField name="Deductions" optype="continuous" dataType="double"/>
  <DataField name="Hours" optype="continuous" dataType="double"/>
 </DataDictionary>
 <NeuralNetwork modelName="NeuralNet_model" functionName="classification" numberOfLayers="3" activationFunction="logistic">
  <MiningSchema>
   <MiningField name="Adjusted" usageType="predicted"/>
   <MiningField name="Employment" usageType="active"/>
   <MiningField name="Education" usageType="active"/>
   <MiningField name="Marital" usageType="active"/>
   <MiningField name="Occupation" usageType="active"/>
   <MiningField name="Income" usageType="active"/>
   <MiningField name="Gender" usageType="active"/>
   <MiningField name="Deductions" usageType="active"/>
   <MiningField name="Hours" usageType="active"/>
  </MiningSchema>
  <Output>
   <OutputField name="Predicted_Adjusted" feature="predictedValue"/>
   <OutputField name="Probability_0" optype="continuous" dataType="double" feature="probability" value="0"/>
   <OutputField name="Probability_1" optype="continuous" dataType="double" feature="probability" value="1"/>
  </Output>
  <NeuralInputs numberOfInputs="43">
   <NeuralInput id="1">
    <DerivedField name="derivedNI_EmploymentPrivate" optype="continuous" dataType="double">
     <NormDiscrete field="Employment" value="Private"/>
    </DerivedField>
   </NeuralInput>
   <NeuralInput id="2">
    <DerivedField name="derivedNI_EmploymentPSFederal" optype="continuous" dataType="double">
     <NormDiscrete field="Employment" value="PSFederal"/>
    </DerivedField>
   </NeuralInput>
   <NeuralInput id="3">
    <DerivedField name="derivedNI_EmploymentPSLocal" optype="continuous" dataType="double">
     <NormDiscrete field="Employment" value="PSLocal"/>
    </DerivedField>
   </NeuralInput>
   <NeuralInput id="4">
    <DerivedField name="derivedNI_EmploymentPSState" optype="continuous" dataType="double">
     <NormDiscrete field="Employment" value="PSState"/>
    </DerivedField>
   </NeuralInput>
   <NeuralInput id="5">
    <DerivedField name="derivedNI_EmploymentSelfEmp" optype="continuous" dataType="double">
     <NormDiscrete field="Employment" value="SelfEmp"/>
    </DerivedField>
   </NeuralInput>
   <NeuralInput id="6">
    <DerivedField name="derivedNI_EmploymentVolunteer" optype="continuous" dataType="double">
     <NormDiscrete field="Employment" value="Volunteer"/>
    </DerivedField>
   </NeuralInput>
   <NeuralInput id="7">
    <DerivedField name="derivedNI_EducationBachelor" optype="continuous" dataType="double">
     <NormDiscrete field="Education" value="Bachelor"/>
    </DerivedField>
   </NeuralInput>
   <NeuralInput id="8">
    <DerivedField name="derivedNI_EducationCollege" optype="continuous" dataType="double">
     <NormDiscrete field="Education" value="College"/>
    </DerivedField>
   </NeuralInput>
   <NeuralInput id="9">
    <DerivedField name="derivedNI_EducationDoctorate" optype="continuous" dataType="double">
     <NormDiscrete field="Education" value="Doctorate"/>
    </DerivedField>
   </NeuralInput>
   <NeuralInput id="10">
    <DerivedField name="derivedNI_EducationHSgrad" optype="continuous" dataType="double">
     <NormDiscrete field="Education" value="HSgrad"/>
    </DerivedField>
   </NeuralInput>
   <NeuralInput id="11">
    <DerivedField name="derivedNI_EducationMaster" optype="continuous" dataType="double">
     <NormDiscrete field="Education" value="Master"/>
    </DerivedField>
   </NeuralInput>
   <NeuralInput id="12">
    <DerivedField name="derivedNI_EducationPreschool" optype="continuous" dataType="double">
     <NormDiscrete field="Education" value="Preschool"/>
    </DerivedField>
   </NeuralInput>
   <NeuralInput id="13">
    <DerivedField name="derivedNI_EducationProfessional" optype="continuous" dataType="double">
     <NormDiscrete field="Education" value="Professional"/>
    </DerivedField>
   </NeuralInput>
   <NeuralInput id="14">
    <DerivedField name="derivedNI_EducationVocational" optype="continuous" dataType="double">
     <NormDiscrete field="Education" value="Vocational"/>
    </DerivedField>
   </NeuralInput>
   <NeuralInput id="15">
    <DerivedField name="derivedNI_EducationYr10" optype="continuous" dataType="double">
     <NormDiscrete field="Education" value="Yr10"/>
    </DerivedField>
   </NeuralInput>
   <NeuralInput id="16">
    <DerivedField name="derivedNI_EducationYr11" optype="continuous" dataType="double">
     <NormDiscrete field="Education" value="Yr11"/>
    </DerivedField>
   </NeuralInput>
   <NeuralInput id="17">
    <DerivedField name="derivedNI_EducationYr12" optype="continuous" dataType="double">
     <NormDiscrete field="Education" value="Yr12"/>
    </DerivedField>
   </NeuralInput>
   <NeuralInput id="18">
    <DerivedField name="derivedNI_EducationYr1t4" optype="continuous" dataType="double">
     <NormDiscrete field="Education" value="Yr1t4"/>
    </DerivedField>
   </NeuralInput>
   <NeuralInput id="19">
    <DerivedField name="derivedNI_EducationYr5t6" optype="continuous" dataType="double">
     <NormDiscrete field="Education" value="Yr5t6"/>
    </DerivedField>
   </NeuralInput>
   <NeuralInput id="20">
    <DerivedField name="derivedNI_EducationYr7t8" optype="continuous" dataType="double">
     <NormDiscrete field="Education" value="Yr7t8"/>
    </DerivedField>
   </NeuralInput>
   <NeuralInput id="21">
    <DerivedField name="derivedNI_EducationYr9" optype="continuous" dataType="double">
     <NormDiscrete field="Education" value="Yr9"/>
    </DerivedField>
   </NeuralInput>
   <NeuralInput id="22">
    <DerivedField name="derivedNI_MaritalDivorced" optype="continuous" dataType="double">
     <NormDiscrete field="Marital" value="Divorced"/>
    </DerivedField>
   </NeuralInput>
   <NeuralInput id="23">
    <DerivedField name="derivedNI_MaritalMarried" optype="continuous" dataType="double">
     <NormDiscrete field="Marital" value="Married"/>
    </DerivedField>
   </NeuralInput>
   <NeuralInput id="24">
    <DerivedField name="derivedNI_MaritalMarried-spouse-absent" optype="continuous" dataType="double">
     <NormDiscrete field="Marital" value="Married-spouse-absent"/>
    </DerivedField>
   </NeuralInput>
   <NeuralInput id="25">
    <DerivedField name="derivedNI_MaritalUnmarried" optype="continuous" dataType="double">
     <NormDiscrete field="Marital" value="Unmarried"/>
    </DerivedField>
   </NeuralInput>
   <NeuralInput id="26">
    <DerivedField name="derivedNI_MaritalWidowed" optype="continuous" dataType="double">
     <NormDiscrete field="Marital" value="Widowed"/>
    </DerivedField>
   </NeuralInput>
   <NeuralInput id="27">
    <DerivedField name="derivedNI_OccupationClerical" optype="continuous" dataType="double">
     <NormDiscrete field="Occupation" value="Clerical"/>
    </DerivedField>
   </NeuralInput>
   <NeuralInput id="28">
    <DerivedField name="derivedNI_OccupationExecutive" optype="continuous" dataType="double">
     <NormDiscrete field="Occupation" value="Executive"/>
    </DerivedField>
   </NeuralInput>
   <NeuralInput id="29">
    <DerivedField name="derivedNI_OccupationFarming" optype="continuous" dataType="double">
     <NormDiscrete field="Occupation" value="Farming"/>
    </DerivedField>
   </NeuralInput>
   <NeuralInput id="30">
    <DerivedField name="derivedNI_OccupationHome" optype="continuous" dataType="double">
     <NormDiscrete field="Occupation" value="Home"/>
    </DerivedField>
   </NeuralInput>
   <NeuralInput id="31">
    <DerivedField name="derivedNI_OccupationMachinist" optype="continuous" dataType="double">
     <NormDiscrete field="Occupation" value="Machinist"/>
    </DerivedField>
   </NeuralInput>
   <NeuralInput id="32">
    <DerivedField name="derivedNI_OccupationMilitary" optype="continuous" dataType="double">
     <NormDiscrete field="Occupation" value="Military"/>
    </DerivedField>
   </NeuralInput>
   <NeuralInput id="33">
    <DerivedField name="derivedNI_OccupationProfessional" optype="continuous" dataType="double">
     <NormDiscrete field="Occupation" value="Professional"/>
    </DerivedField>
   </NeuralInput>
   <NeuralInput id="34">
    <DerivedField name="derivedNI_OccupationProtective" optype="continuous" dataType="double">
     <NormDiscrete field="Occupation" value="Protective"/>
    </DerivedField>
   </NeuralInput>
   <NeuralInput id="35">
    <DerivedField name="derivedNI_OccupationRepair" optype="continuous" dataType="double">
     <NormDiscrete field="Occupation" value="Repair"/>
    </DerivedField>
   </NeuralInput>
   <NeuralInput id="36">
    <DerivedField name="derivedNI_OccupationSales" optype="continuous" dataType="double">
     <NormDiscrete field="Occupation" value="Sales"/>
    </DerivedField>
   </NeuralInput>
   <NeuralInput id="37">
    <DerivedField name="derivedNI_OccupationService" optype="continuous" dataType="double">
     <NormDiscrete field="Occupation" value="Service"/>
    </DerivedField>
   </NeuralInput>
   <NeuralInput id="38">
    <DerivedField name="derivedNI_OccupationSupport" optype="continuous" dataType="double">
     <NormDiscrete field="Occupation" value="Support"/>
    </DerivedField>
   </NeuralInput>
   <NeuralInput id="39">
    <DerivedField name="derivedNI_OccupationTransport" optype="continuous" dataType="double">
     <NormDiscrete field="Occupation" value="Transport"/>
    </DerivedField>
   </NeuralInput>
   <NeuralInput id="40">
    <DerivedField name="derivedNI_Income" optype="continuous" dataType="double">
     <FieldRef field="Income"/>
    </DerivedField>
   </NeuralInput>
   <NeuralInput id="41">
    <DerivedField name="derivedNI_GenderMale" optype="continuous" dataType="double">
     <NormDiscrete field="Gender" value="Male"/>
    </DerivedField>
   </NeuralInput>
   <NeuralInput id="42">
    <DerivedField name="derivedNI_Deductions" optype="continuous" dataType="double">
     <FieldRef field="Deductions"/>
    </DerivedField>
   </NeuralInput>
   <NeuralInput id="43">
    <DerivedField name="derivedNI_Hours" optype="continuous" dataType="double">
     <FieldRef field="Hours"/>
    </DerivedField>
   </NeuralInput>
  </NeuralInputs>
  <NeuralLayer numberOfNeurons="9">
   <Neuron id="44" bias="0.0206813784574477">
    <Con from="1" weight="0.0218112267301794"/>
    <Con from="2" weight="-0.0108503239823095"/>
    <Con from="3" weight="0.0167654353432332"/>
    <Con from="4" weight="0.00719153398218567"/>
    <Con from="5" weight="0.00096884309404659"/>
    <Con from="6" weight="0.0120034334617242"/>
    <Con from="7" weight="-0.0185353837024839"/>
    <Con from="8" weight="0.00760106113289922"/>
    <Con from="9" weight="0.0104040704388281"/>
    <Con from="10" weight="-0.00214399336578224"/>
    <Con from="11" weight="0.0111167761490983"/>
    <Con from="12" weight="0.0220533267007388"/>
    <Con from="13" weight="-0.0124084481439065"/>
    <Con from="14" weight="-0.00191309362135899"/>
    <Con from="15" weight="0.0223243698831826"/>
    <Con from="16" weight="0.0242630711557722"/>
    <Con from="17" weight="-0.0194069813194788"/>
    <Con from="18" weight="-0.00126853631079137"/>
    <Con from="19" weight="0.00306101383837496"/>
    <Con from="20" weight="0.0204987464458205"/>
    <Con from="21" weight="-0.0183302310120029"/>
    <Con from="22" weight="0.0248041808277248"/>
    <Con from="23" weight="0.0226619493744139"/>
    <Con from="24" weight="-0.0211852516683485"/>
    <Con from="25" weight="0.000721042406821577"/>
    <Con from="26" weight="-0.00557058525454587"/>
    <Con from="27" weight="0.0205853389870565"/>
    <Con from="28" weight="-0.0030545498857729"/>
    <Con from="29" weight="0.0170473541089075"/>
    <Con from="30" weight="0.0120545395195781"/>
    <Con from="31" weight="0.0157815473549621"/>
    <Con from="32" weight="-0.00567688553924038"/>
    <Con from="33" weight="0.00939468430382428"/>
    <Con from="34" weight="-0.0251674437846815"/>
    <Con from="35" weight="0.0168906736738748"/>
    <Con from="36" weight="-0.0249956630179989"/>
    <Con from="37" weight="-0.0148320768638151"/>
    <Con from="38" weight="0.0206291377972226"/>
    <Con from="39" weight="0.00567114868332897"/>
    <Con from="40" weight="-0.228064483967272"/>
    <Con from="41" weight="-0.00362268853519762"/>
    <Con from="42" weight="-0.0234686815657586"/>
    <Con from="43" weight="0.00946426324065916"/>
   </Neuron>
   <Neuron id="45" bias="-0.00345422189987458">
    <Con from="1" weight="0.023223805642595"/>
    <Con from="2" weight="0.0196729505204968"/>
    <Con from="3" weight="0.00710189701428801"/>
    <Con from="4" weight="0.023894740442753"/>
    <Con from="5" weight="0.00602931939629234"/>
    <Con from="6" weight="-0.00845115866812964"/>
    <Con from="7" weight="-0.00777530880302789"/>
    <Con from="8" weight="-0.00514198178439736"/>
    <Con from="9" weight="0.0144440387735185"/>
    <Con from="10" weight="-0.0233923013434224"/>
    <Con from="11" weight="0.0126227657017569"/>
    <Con from="12" weight="0.00899423388135005"/>
    <Con from="13" weight="-0.0166785783255373"/>
    <Con from="14" weight="-0.0121213287046876"/>
    <Con from="15" weight="0.000731247874310816"/>
    <Con from="16" weight="0.00890952809011103"/>
    <Con from="17" weight="0.0244959862796435"/>
    <Con from="18" weight="0.0131681158921853"/>
    <Con from="19" weight="0.00337332541409849"/>
    <Con from="20" weight="0.0177416930986472"/>
    <Con from="21" weight="-0.0157547043698026"/>
    <Con from="22" weight="-0.0116038947500773"/>
    <Con from="23" weight="0.0166492945707065"/>
    <Con from="24" weight="0.00980234890104428"/>
    <Con from="25" weight="-0.0131636000649004"/>
    <Con from="26" weight="-0.0231867055080565"/>
    <Con from="27" weight="-0.0182404835945495"/>
    <Con from="28" weight="-0.0143809215565981"/>
    <Con from="29" weight="-0.00104522475754462"/>
    <Con from="30" weight="-0.0153520465628792"/>
    <Con from="31" weight="0.0111291346149691"/>
    <Con from="32" weight="-0.0249677284487333"/>
    <Con from="33" weight="-0.00631708259691864"/>
    <Con from="34" weight="0.000730982712702326"/>
    <Con from="35" weight="-0.0252880819447146"/>
    <Con from="36" weight="0.00414022229211072"/>
    <Con from="37" weight="-0.0173563604670975"/>
    <Con from="38" weight="-0.0071522735735334"/>
    <Con from="39" weight="0.00738871049054238"/>
    <Con from="40" weight="0.0191246176278351"/>
    <Con from="41" weight="0.0032375708579301"/>
    <Con from="42" weight="-0.0135106991260243"/>
    <Con from="43" weight="-0.0204659701567651"/>
   </Neuron>
   <Neuron id="46" bias="-0.021020203903351">
    <Con from="1" weight="-0.00987855830929817"/>
    <Con from="2" weight="0.00849466954774442"/>
    <Con from="3" weight="-0.0253556443003203"/>
    <Con from="4" weight="-0.014785857601987"/>
    <Con from="5" weight="0.0219702158245935"/>
    <Con from="6" weight="0.0215953117804549"/>
    <Con from="7" weight="0.0118768983588743"/>
    <Con from="8" weight="-0.0084653904516571"/>
    <Con from="9" weight="0.000764246017949082"/>
    <Con from="10" weight="0.0123783795019836"/>
    <Con from="11" weight="0.00604560716099988"/>
    <Con from="12" weight="0.00640512442525547"/>
    <Con from="13" weight="-0.0143501539986527"/>
    <Con from="14" weight="-0.0143801076093077"/>
    <Con from="15" weight="-0.00563443279604714"/>
    <Con from="16" weight="0.0224482238970541"/>
    <Con from="17" weight="0.0234706626172267"/>
    <Con from="18" weight="0.0121691846398286"/>
    <Con from="19" weight="0.0118338545747452"/>
    <Con from="20" weight="0.00181436799038758"/>
    <Con from="21" weight="-0.0252524447065838"/>
    <Con from="22" weight="0.00552699935803511"/>
    <Con from="23" weight="0.0170878054663966"/>
    <Con from="24" weight="0.0127611304474749"/>
    <Con from="25" weight="-0.00239818870390983"/>
    <Con from="26" weight="0.00181582429427653"/>
    <Con from="27" weight="0.00189652307647889"/>
    <Con from="28" weight="-0.0252939161250094"/>
    <Con from="29" weight="-0.00732286428470064"/>
    <Con from="30" weight="0.00568913172457896"/>
    <Con from="31" weight="0.0166890532308592"/>
    <Con from="32" weight="-0.00726928525553315"/>
    <Con from="33" weight="-0.0045339742270127"/>
    <Con from="34" weight="0.00372783865224964"/>
    <Con from="35" weight="0.00454987623337144"/>
    <Con from="36" weight="0.0111444290262417"/>
    <Con from="37" weight="-0.00532859818271943"/>
    <Con from="38" weight="0.0212685333928196"/>
    <Con from="39" weight="0.0234687488631956"/>
    <Con from="40" weight="-0.0104874579831505"/>
    <Con from="41" weight="0.0113939921293796"/>
    <Con from="42" weight="0.0207746228060388"/>
    <Con from="43" weight="0.00540931065204158"/>
   </Neuron>
   <Neuron id="47" bias="0.153286909902484">
    <Con from="1" weight="0.500562951015"/>
    <Con from="2" weight="-0.133907998472617"/>
    <Con from="3" weight="-0.0581616579428844"/>
    <Con from="4" weight="0.0660837243851762"/>
    <Con from="5" weight="-0.000525328417680221"/>
    <Con from="6" weight="0.0134199412428627"/>
    <Con from="7" weight="0.0542801948592964"/>
    <Con from="8" weight="0.14310539091066"/>
    <Con from="9" weight="-0.021230303638188"/>
    <Con from="10" weight="-0.0766034099581227"/>
    <Con from="11" weight="0.0653774952581618"/>
    <Con from="12" weight="0.0118481647255067"/>
    <Con from="13" weight="0.0167520518141186"/>
    <Con from="14" weight="-0.0829496162939648"/>
    <Con from="15" weight="0.0225586123381361"/>
    <Con from="16" weight="-0.0104754471568773"/>
    <Con from="17" weight="-0.0178045153021315"/>
    <Con from="18" weight="0.0373960116718405"/>
    <Con from="19" weight="-0.00892616829271493"/>
    <Con from="20" weight="0.0141231926481086"/>
    <Con from="21" weight="-0.00567110020466967"/>
    <Con from="22" weight="0.0693470974242593"/>
    <Con from="23" weight="-0.258419347421614"/>
    <Con from="24" weight="-0.0158361293841647"/>
    <Con from="25" weight="-0.0239896770294007"/>
    <Con from="26" weight="-0.0178938007263606"/>
    <Con from="27" weight="0.00963174154067497"/>
    <Con from="28" weight="0.0414648942987883"/>
    <Con from="29" weight="0.0308517076524587"/>
    <Con from="30" weight="0.00516316385896699"/>
    <Con from="31" weight="-0.0156838958970922"/>
    <Con from="32" weight="0.00178774810150442"/>
    <Con from="33" weight="0.0962319953523839"/>
    <Con from="34" weight="-0.00474960975246546"/>
    <Con from="35" weight="0.0506988599570402"/>
    <Con from="36" weight="-0.0903048148640867"/>
    <Con from="37" weight="-0.0162678500413884"/>
    <Con from="38" weight="0.0114550341012135"/>
    <Con from="39" weight="-0.00451656464347525"/>
    <Con from="40" weight="-0.0370685666145762"/>
    <Con from="41" weight="0.077943006478944"/>
    <Con from="42" weight="-0.00357147593185001"/>
    <Con from="43" weight="0.686626557745546"/>
   </Neuron>
   <Neuron id="48" bias="0.0168569655569588">
    <Con from="1" weight="0.00506728853392209"/>
    <Con from="2" weight="0.0149363865995714"/>
    <Con from="3" weight="0.0136495026222537"/>
    <Con from="4" weight="0.0212103137696929"/>
    <Con from="5" weight="0.0183982138200678"/>
    <Con from="6" weight="-0.00928585825646525"/>
    <Con from="7" weight="-0.0122140421945743"/>
    <Con from="8" weight="0.0126757006611699"/>
    <Con from="9" weight="0.0125499972859751"/>
    <Con from="10" weight="0.0212025825257026"/>
    <Con from="11" weight="0.0148752112992639"/>
    <Con from="12" weight="-0.018603216039289"/>
    <Con from="13" weight="-0.0107686287504595"/>
    <Con from="14" weight="-0.0154907675704171"/>
    <Con from="15" weight="0.014414440018939"/>
    <Con from="16" weight="-0.0188293674571719"/>
    <Con from="17" weight="-0.0188183516680047"/>
    <Con from="18" weight="-0.0217019649721435"/>
    <Con from="19" weight="-0.0226722123583625"/>
    <Con from="20" weight="0.00161716641530302"/>
    <Con from="21" weight="-0.0196697467157258"/>
    <Con from="22" weight="0.0123382577742021"/>
    <Con from="23" weight="0.0117359132655153"/>
    <Con from="24" weight="0.0195391498454775"/>
    <Con from="25" weight="0.000868138467029663"/>
    <Con from="26" weight="0.0178554049379194"/>
    <Con from="27" weight="-0.00290226162967699"/>
    <Con from="28" weight="-0.0169734504265725"/>
    <Con from="29" weight="-0.00292618999888582"/>
    <Con from="30" weight="0.0237307153607419"/>
    <Con from="31" weight="-0.000781939563254613"/>
    <Con from="32" weight="-0.0125591521951724"/>
    <Con from="33" weight="-0.0121922561449902"/>
    <Con from="34" weight="0.00213170101607297"/>
    <Con from="35" weight="0.00760403000889311"/>
    <Con from="36" weight="-0.00829936196960113"/>
    <Con from="37" weight="-0.022275447182563"/>
    <Con from="38" weight="-0.00247026980452435"/>
    <Con from="39" weight="0.0171869160568797"/>
    <Con from="40" weight="0.238031369726604"/>
    <Con from="41" weight="-0.0070561623850209"/>
    <Con from="42" weight="0.00240618720039575"/>
    <Con from="43" weight="0.0352921417143537"/>
   </Neuron>
   <Neuron id="49" bias="-0.000499759597890084">
    <Con from="1" weight="-0.0166518445660193"/>
    <Con from="2" weight="0.0021832002743229"/>
    <Con from="3" weight="0.0234128079855836"/>
    <Con from="4" weight="-0.00945284997792645"/>
    <Con from="5" weight="0.0162614753713196"/>
    <Con from="6" weight="-0.00978919719477367"/>
    <Con from="7" weight="-0.0159586791719532"/>
    <Con from="8" weight="-0.022906791412253"/>
    <Con from="9" weight="-0.0129033568520256"/>
    <Con from="10" weight="-0.00755416917225013"/>
    <Con from="11" weight="-0.0172996800736516"/>
    <Con from="12" weight="-0.00993919190004508"/>
    <Con from="13" weight="-0.0244774412923408"/>
    <Con from="14" weight="0.0251928631991895"/>
    <Con from="15" weight="0.0154435559518728"/>
    <Con from="16" weight="-0.0209750521540426"/>
    <Con from="17" weight="0.018768760387339"/>
    <Con from="18" weight="0.00276944269167162"/>
    <Con from="19" weight="-0.00398890741349411"/>
    <Con from="20" weight="-0.0219361750017589"/>
    <Con from="21" weight="0.00311708726725504"/>
    <Con from="22" weight="-0.021779652078422"/>
    <Con from="23" weight="-0.0146426828551571"/>
    <Con from="24" weight="0.00251751796002489"/>
    <Con from="25" weight="-0.000914180761519143"/>
    <Con from="26" weight="-0.0172769773046156"/>
    <Con from="27" weight="-0.017778795299462"/>
    <Con from="28" weight="-2.88166937070812e-05"/>
    <Con from="29" weight="0.0223522924506608"/>
    <Con from="30" weight="-0.00841036145145474"/>
    <Con from="31" weight="-0.0158074493217686"/>
    <Con from="32" weight="-0.0116835716729312"/>
    <Con from="33" weight="0.00155981708740139"/>
    <Con from="34" weight="-0.0242794761387623"/>
    <Con from="35" weight="0.0151577624506198"/>
    <Con from="36" weight="-0.0197698550923704"/>
    <Con from="37" weight="0.00201918711142196"/>
    <Con from="38" weight="0.00361408952000175"/>
    <Con from="39" weight="0.00603506974240378"/>
    <Con from="40" weight="0.0158236595515227"/>
    <Con from="41" weight="-0.019103970569089"/>
    <Con from="42" weight="-0.00958649767737261"/>
    <Con from="43" weight="0.0229377767390372"/>
   </Neuron>
   <Neuron id="50" bias="2.20722209527498e-06">
    <Con from="1" weight="-0.0185058396971584"/>
    <Con from="2" weight="0.0187344911170267"/>
    <Con from="3" weight="-0.0149644641626147"/>
    <Con from="4" weight="0.0215649284206274"/>
    <Con from="5" weight="0.0196221486655016"/>
    <Con from="6" weight="-0.0184527239566643"/>
    <Con from="7" weight="0.0144773550945542"/>
    <Con from="8" weight="-0.00236824187075486"/>
    <Con from="9" weight="-0.0184808012952769"/>
    <Con from="10" weight="0.0195443933522001"/>
    <Con from="11" weight="-0.00828442503241278"/>
    <Con from="12" weight="-0.0091692234968455"/>
    <Con from="13" weight="-0.00488162985936252"/>
    <Con from="14" weight="-0.00106152390977295"/>
    <Con from="15" weight="-0.00670207112199499"/>
    <Con from="16" weight="-0.00174070722495769"/>
    <Con from="17" weight="-0.022836460040506"/>
    <Con from="18" weight="-0.0158621228410106"/>
    <Con from="19" weight="0.0244879810144177"/>
    <Con from="20" weight="-0.00871260604097208"/>
    <Con from="21" weight="-0.0166921723970078"/>
    <Con from="22" weight="-0.000595894148679438"/>
    <Con from="23" weight="-0.024419649114891"/>
    <Con from="24" weight="-0.00814380930124916"/>
    <Con from="25" weight="-0.0238627777724831"/>
    <Con from="26" weight="0.0186315407376506"/>
    <Con from="27" weight="0.0117558078045526"/>
    <Con from="28" weight="-0.0093719071820896"/>
    <Con from="29" weight="-0.00576081585651903"/>
    <Con from="30" weight="-0.00850094142224676"/>
    <Con from="31" weight="-0.0208128319239825"/>
    <Con from="32" weight="0.0130418521526542"/>
    <Con from="33" weight="0.00522416124688694"/>
    <Con from="34" weight="-0.0179908202199809"/>
    <Con from="35" weight="-0.0237179730974433"/>
    <Con from="36" weight="-0.00082353193399389"/>
    <Con from="37" weight="-0.00281229436446478"/>
    <Con from="38" weight="-0.0223040699529481"/>
    <Con from="39" weight="-0.00875157333896922"/>
    <Con from="40" weight="0.0197693658659364"/>
    <Con from="41" weight="0.0218479011378978"/>
    <Con from="42" weight="-0.00547038309619649"/>
    <Con from="43" weight="-0.0172712237307378"/>
   </Neuron>
   <Neuron id="51" bias="-0.00913195480652931">
    <Con from="1" weight="-0.00979060247915002"/>
    <Con from="2" weight="-0.0198979037438766"/>
    <Con from="3" weight="0.0243192797820029"/>
    <Con from="4" weight="-0.000157106215093818"/>
    <Con from="5" weight="-0.020645572064098"/>
    <Con from="6" weight="-0.014623316123217"/>
    <Con from="7" weight="0.0218416833922511"/>
    <Con from="8" weight="-0.0103040061356029"/>
    <Con from="9" weight="0.00777360901399911"/>
    <Con from="10" weight="0.0203485231395001"/>
    <Con from="11" weight="0.0249007845397548"/>
    <Con from="12" weight="-0.00353458091753513"/>
    <Con from="13" weight="-0.00538928411472565"/>
    <Con from="14" weight="-0.0181679418661679"/>
    <Con from="15" weight="-0.0111716238951078"/>
    <Con from="16" weight="0.00328878979784471"/>
    <Con from="17" weight="0.0220770332966732"/>
    <Con from="18" weight="-0.0071841436433565"/>
    <Con from="19" weight="0.0173519154810979"/>
    <Con from="20" weight="0.0112840492983688"/>
    <Con from="21" weight="0.0127212232297322"/>
    <Con from="22" weight="0.021511278703748"/>
    <Con from="23" weight="-0.0252471103359085"/>
    <Con from="24" weight="-0.0172282681319297"/>
    <Con from="25" weight="-0.00511044017000385"/>
    <Con from="26" weight="0.00889493162104343"/>
    <Con from="27" weight="-0.000995836148840282"/>
    <Con from="28" weight="0.00171942013572922"/>
    <Con from="29" weight="-0.00928713072978232"/>
    <Con from="30" weight="0.0159693930617536"/>
    <Con from="31" weight="-0.010541852648825"/>
    <Con from="32" weight="-0.00461023147824689"/>
    <Con from="33" weight="-0.020754976347327"/>
    <Con from="34" weight="0.0151494585936199"/>
    <Con from="35" weight="-0.00711386962731091"/>
    <Con from="36" weight="-0.0233136061930211"/>
    <Con from="37" weight="-0.0232832276291972"/>
    <Con from="38" weight="0.0230559617930547"/>
    <Con from="39" weight="-0.00642609903094224"/>
    <Con from="40" weight="0.0174359019320407"/>
    <Con from="41" weight="0.0208076600501096"/>
    <Con from="42" weight="-0.0030402650813416"/>
    <Con from="43" weight="0.00399693393343253"/>
   </Neuron>
   <Neuron id="52" bias="-0.0210213062574593">
    <Con from="1" weight="-0.0164064228095706"/>
    <Con from="2" weight="0.0121709855817624"/>
    <Con from="3" weight="-0.00123231463503451"/>
    <Con from="4" weight="0.00941250383248634"/>
    <Con from="5" weight="0.0229078497859946"/>
    <Con from="6" weight="-0.000128640566579078"/>
    <Con from="7" weight="-0.00149666633489922"/>
    <Con from="8" weight="0.00366275444813519"/>
    <Con from="9" weight="0.00773768174830699"/>
    <Con from="10" weight="-0.0111834552980962"/>
    <Con from="11" weight="0.0243483657553532"/>
    <Con from="12" weight="0.00729902172356399"/>
    <Con from="13" weight="0.00418966067989498"/>
    <Con from="14" weight="0.005878777877157"/>
    <Con from="15" weight="0.0215697180328575"/>
    <Con from="16" weight="-0.00557974666075526"/>
    <Con from="17" weight="-0.0107600071176938"/>
    <Con from="18" weight="-0.0207642276133995"/>
    <Con from="19" weight="-0.00902920414598557"/>
    <Con from="20" weight="0.0131034709640028"/>
    <Con from="21" weight="-0.0200703195541087"/>
    <Con from="22" weight="0.0106685582337992"/>
    <Con from="23" weight="0.0236669771465815"/>
    <Con from="24" weight="-0.0151450007553072"/>
    <Con from="25" weight="-0.0198635354942474"/>
    <Con from="26" weight="-0.0225569059583568"/>
    <Con from="27" weight="0.0167286971888516"/>
    <Con from="28" weight="0.0047284951681407"/>
    <Con from="29" weight="-0.00151737918106278"/>
    <Con from="30" weight="-0.00684858012217947"/>
    <Con from="31" weight="-0.011155493500342"/>
    <Con from="32" weight="0.00505913672049952"/>
    <Con from="33" weight="0.0161627980546532"/>
    <Con from="34" weight="-0.0204041922757899"/>
    <Con from="35" weight="0.0235255337171162"/>
    <Con from="36" weight="-0.0168068320115554"/>
    <Con from="37" weight="-0.0210002776498382"/>
    <Con from="38" weight="0.0183262159759734"/>
    <Con from="39" weight="0.00125776432570944"/>
    <Con from="40" weight="0.379204622292793"/>
    <Con from="41" weight="-0.0131140939128337"/>
    <Con from="42" weight="0.0112240198855653"/>
    <Con from="43" weight="0.0238860755373779"/>
   </Neuron>
  </NeuralLayer>
  <NeuralLayer numberOfNeurons="1">
   <Neuron id="53" bias="-0.150504871811204">
    <Con from="44" weight="0.0115196981772917"/>
    <Con from="45" weight="-0.171460638205095"/>
    <Con from="46" weight="-0.0217069093392991"/>
    <Con from="47" weight="-3.69569361909831"/>
    <Con from="48" weight="-0.171256183996136"/>
    <Con from="49" weight="-0.167428866884505"/>
    <Con from="50" weight="-0.178225803583265"/>
    <Con from="51" weight="-0.154847470225516"/>
    <Con from="52" weight="-0.19117733307625"/>
   </Neuron>
  </NeuralLayer>
  <NeuralLayer numberOfNeurons="2" activationFunction="threshold" threshold="0.5">
   <Neuron id="54" bias="1.0">
    <Con from="53" weight="-1.0"/>
   </Neuron>
   <Neuron id="55" bias="0.0">
    <Con from="53" weight="1.0"/>
   </Neuron>
  </NeuralLayer>
  <NeuralOutputs numberOfOutputs="2">
   <NeuralOutput outputNeuron="54">
    <DerivedField name="derivedNO_Adjusted" optype="continuous" dataType="double">
     <NormDiscrete field="Adjusted" value="0"/>
    </DerivedField>
   </NeuralOutput>
   <NeuralOutput outputNeuron="55">
    <DerivedField name="derivedNO_Adjusted" optype="continuous" dataType="double">
     <NormDiscrete field="Adjusted" value="1"/>
    </DerivedField>
   </NeuralOutput>
  </NeuralOutputs>
 </NeuralNetwork>
</PMML>
