<?xml version="1.0"?>
<PMML version="4.2" xmlns="http://www.dmg.org/PMML-4_2" xmlns:xsi="http://www.w3.org/2001/XMLSchema-instance" xsi:schemaLocation="http://www.dmg.org/PMML-4_2 http://www.dmg.org/v4-2/pmml-4-2.xsd">
 <Header copyright="Copyright (c) 2014 vfed" description="Linear Regression Model">
  <Extension name="user" value="vfed" extender="Rattle/PMML"/>
  <Application name="Rattle/PMML" version="1.4"/>
  <Timestamp>2014-07-06 23:38:36</Timestamp>
 </Header>
 <DataDictionary numberOfFields="4">
  <DataField name="O3" optype="continuous" dataType="double"/>
  <DataField name="temp" optype="continuous" dataType="double"/>
  <DataField name="ibh" optype="continuous" dataType="double"/>
  <DataField name="ibt" optype="continuous" dataType="double"/>
 </DataDictionary>
 <RegressionModel modelName="Linear_Regression_Model" functionName="regression" algorithmName="least squares">
  <MiningSchema>
   <MiningField name="O3" usageType="predicted"/>
   <MiningField name="temp" usageType="active"/>
   <MiningField name="ibh" usageType="active"/>
   <MiningField name="ibt" usageType="active"/>
  </MiningSchema>
  <Output>
   <OutputField name="Predicted_O3" feature="predictedValue"/>
  </Output>
  <RegressionTable intercept="-7.72798221395543">
   <NumericPredictor name="temp" exponent="1" coefficient="0.380440828716889"/>
   <NumericPredictor name="ibh" exponent="1" coefficient="-0.00118622776964311"/>
   <NumericPredictor name="ibt" exponent="1" coefficient="-0.00582148461403966"/>
  </RegressionTable>
 </RegressionModel>
</PMML>
