<?xml version="1.0" encoding="utf-8" standalone="yes"?>
  <PMML version="4.1"
   xmlns="http://www.dmg.org/PMML-4_1"
   xmlns:xsi="http://www.w3.org/2001/XMLSchema-instance">
    <Header copyright="Copyright(c) 2002 SAS Institute Inc., Cary, NC, USA. All Rights Reserved.">
    <Application name="SAS(r)" version="9.4"/>
    <Timestamp>2015-12-04 11:15:18</Timestamp>
    </Header>
    <DataDictionary numberOfFields="10">
      <DataField name="Age" optype="continuous" dataType="double"/>
      <DataField name="Deductions" optype="continuous" dataType="double"/>
      <DataField name="Hours" optype="continuous" dataType="double"/>
      <DataField name="Income" optype="continuous" dataType="double"/>
      <DataField name="Adjusted" optype="categorical" dataType="double"/>
      <DataField name="Education" optype="categorical" dataType="string"/>
      <DataField name="Employment" optype="categorical" dataType="string"/>
      <DataField name="Gender" optype="categorical" dataType="string"/>
      <DataField name="Marital" optype="categorical" dataType="string"/>
      <DataField name="Occupation" optype="categorical" dataType="string"/>
    </DataDictionary>
    <TransformationDictionary>
      <DefineFunction name="SAS-EM-String-Normalize" optype="categorical" dataType="string">
        <ParameterField name="FMTWIDTH" optype="continuous"/>
        <ParameterField name="AnyCInput" optype="categorical"/>
        <Apply function="trimBlanks">
          <Apply function="uppercase">
            <Apply function="substring">
              <FieldRef field="AnyCInput"/>
              <Constant>1</Constant>
              <Constant>FMTWIDTH</Constant>
            </Apply>
          </Apply>
        </Apply>
      </DefineFunction>
      <DefineFunction name="SAS-FORMAT-BESTw" optype="categorical" dataType="string">
        <ParameterField name="FMTWIDTH" optype="continuous"/>
        <ParameterField name="AnyNInput" optype="continuous"/>
        <Apply function="formatNumber">
          <FieldRef field="AnyNInput"/>
          <Constant>FMTWIDTH</Constant>
        </Apply>
      </DefineFunction>
      <DefineFunction name="SAS-FORMAT-$CHARw" optype="categorical" dataType="string">
        <ParameterField name="FMTWIDTH" optype="continuous"/>
        <ParameterField name="AnyCInput" optype="continuous"/>
        <Apply function="substring">
          <FieldRef field="AnyCInput"/>
          <Constant>1</Constant>
          <Constant>FMTWIDTH</Constant>
        </Apply>
      </DefineFunction>
    </TransformationDictionary>
    <RegressionModel functionName="classification" targetFieldName="Adjusted" normalizationMethod="logit">
      <MiningSchema>
        <MiningField name="Age" usageType="active" optype="continuous"/>
        <MiningField name="Deductions" usageType="active" optype="continuous"/>
        <MiningField name="Hours" usageType="active" optype="continuous"/>
        <MiningField name="Education" usageType="active" optype="categorical"/>
        <MiningField name="Marital" usageType="active" optype="categorical"/>
        <MiningField name="Occupation" usageType="active" optype="categorical"/>
        <MiningField name="Adjusted" usageType="predicted" optype="categorical"/>
      </MiningSchema>
      <Output>
        <OutputField name="I_Adjusted" displayName="Into: Adjusted" optype="categorical" dataType="string" targetField="Adjusted" feature="predictedValue"/>
        <OutputField name="U_Adjusted" displayName="Unnormalized Into: Adjusted" optype="categorical" dataType="string" targetField="Adjusted" feature="predictedDisplayValue"/>
        <OutputField name="P_Adjusted1" displayName="Predicted: Adjusted=1" optype="continuous" dataType="double" targetField="Adjusted" feature="probability" value="1"/>
        <OutputField name="P_Adjusted0" displayName="Predicted: Adjusted=0" optype="continuous" dataType="double" targetField="Adjusted" feature="probability" value="0"/>
      </Output>
      <Targets>
        <Target field="Adjusted" optype="categorical">
          <TargetValue value="1" displayValue="1" priorProbability="0.2353870458"/>
          <TargetValue value="0" displayValue="0" priorProbability="0.7646129542"/>
        </Target>
      </Targets>
      <LocalTransformations>
        <DerivedField name="Education+" optype="categorical" dataType="string">
          <!-- SAS Format: $12.0 -->
          <Apply function="SAS-EM-String-Normalize">
            <Constant>12</Constant>
            <Apply function="SAS-FORMAT-$CHARw">
              <Constant>12</Constant>
              <FieldRef field="Education"/>
            </Apply>
          </Apply>
        </DerivedField>
        <DerivedField name="_1_0" optype="continuous" dataType="double">
          <MapValues outputColumn="To">
            <FieldColumnPair field="Education+" column="From"/>
            <InlineTable>
              <row>
                <From>ASSOCIATE</From>
                <To>1</To>
              </row>
              <row>
                <From>BACHELOR</From>
                <To>0</To>
              </row>
              <row>
                <From>COLLEGE</From>
                <To>0</To>
              </row>
              <row>
                <From>DOCTORATE</From>
                <To>0</To>
              </row>
              <row>
                <From>HSGRAD</From>
                <To>0</To>
              </row>
              <row>
                <From>MASTER</From>
                <To>0</To>
              </row>
              <row>
                <From>PRESCHOOL</From>
                <To>0</To>
              </row>
              <row>
                <From>PROFESSIONAL</From>
                <To>0</To>
              </row>
              <row>
                <From>VOCATIONAL</From>
                <To>0</To>
              </row>
              <row>
                <From>YR10</From>
                <To>0</To>
              </row>
              <row>
                <From>YR11</From>
                <To>0</To>
              </row>
              <row>
                <From>YR12</From>
                <To>0</To>
              </row>
              <row>
                <From>YR1T4</From>
                <To>0</To>
              </row>
              <row>
                <From>YR5T6</From>
                <To>0</To>
              </row>
              <row>
                <From>YR7T8</From>
                <To>0</To>
              </row>
              <row>
                <From>YR9</From>
                <To>-1</To>
              </row>
            </InlineTable>
          </MapValues>
        </DerivedField>
        <DerivedField name="_1_1" optype="continuous" dataType="double">
          <MapValues outputColumn="To">
            <FieldColumnPair field="Education+" column="From"/>
            <InlineTable>
              <row>
                <From>ASSOCIATE</From>
                <To>0</To>
              </row>
              <row>
                <From>BACHELOR</From>
                <To>1</To>
              </row>
              <row>
                <From>COLLEGE</From>
                <To>0</To>
              </row>
              <row>
                <From>DOCTORATE</From>
                <To>0</To>
              </row>
              <row>
                <From>HSGRAD</From>
                <To>0</To>
              </row>
              <row>
                <From>MASTER</From>
                <To>0</To>
              </row>
              <row>
                <From>PRESCHOOL</From>
                <To>0</To>
              </row>
              <row>
                <From>PROFESSIONAL</From>
                <To>0</To>
              </row>
              <row>
                <From>VOCATIONAL</From>
                <To>0</To>
              </row>
              <row>
                <From>YR10</From>
                <To>0</To>
              </row>
              <row>
                <From>YR11</From>
                <To>0</To>
              </row>
              <row>
                <From>YR12</From>
                <To>0</To>
              </row>
              <row>
                <From>YR1T4</From>
                <To>0</To>
              </row>
              <row>
                <From>YR5T6</From>
                <To>0</To>
              </row>
              <row>
                <From>YR7T8</From>
                <To>0</To>
              </row>
              <row>
                <From>YR9</From>
                <To>-1</To>
              </row>
            </InlineTable>
          </MapValues>
        </DerivedField>
        <DerivedField name="_1_2" optype="continuous" dataType="double">
          <MapValues outputColumn="To">
            <FieldColumnPair field="Education+" column="From"/>
            <InlineTable>
              <row>
                <From>ASSOCIATE</From>
                <To>0</To>
              </row>
              <row>
                <From>BACHELOR</From>
                <To>0</To>
              </row>
              <row>
                <From>COLLEGE</From>
                <To>1</To>
              </row>
              <row>
                <From>DOCTORATE</From>
                <To>0</To>
              </row>
              <row>
                <From>HSGRAD</From>
                <To>0</To>
              </row>
              <row>
                <From>MASTER</From>
                <To>0</To>
              </row>
              <row>
                <From>PRESCHOOL</From>
                <To>0</To>
              </row>
              <row>
                <From>PROFESSIONAL</From>
                <To>0</To>
              </row>
              <row>
                <From>VOCATIONAL</From>
                <To>0</To>
              </row>
              <row>
                <From>YR10</From>
                <To>0</To>
              </row>
              <row>
                <From>YR11</From>
                <To>0</To>
              </row>
              <row>
                <From>YR12</From>
                <To>0</To>
              </row>
              <row>
                <From>YR1T4</From>
                <To>0</To>
              </row>
              <row>
                <From>YR5T6</From>
                <To>0</To>
              </row>
              <row>
                <From>YR7T8</From>
                <To>0</To>
              </row>
              <row>
                <From>YR9</From>
                <To>-1</To>
              </row>
            </InlineTable>
          </MapValues>
        </DerivedField>
        <DerivedField name="_1_3" optype="continuous" dataType="double">
          <MapValues outputColumn="To">
            <FieldColumnPair field="Education+" column="From"/>
            <InlineTable>
              <row>
                <From>ASSOCIATE</From>
                <To>0</To>
              </row>
              <row>
                <From>BACHELOR</From>
                <To>0</To>
              </row>
              <row>
                <From>COLLEGE</From>
                <To>0</To>
              </row>
              <row>
                <From>DOCTORATE</From>
                <To>1</To>
              </row>
              <row>
                <From>HSGRAD</From>
                <To>0</To>
              </row>
              <row>
                <From>MASTER</From>
                <To>0</To>
              </row>
              <row>
                <From>PRESCHOOL</From>
                <To>0</To>
              </row>
              <row>
                <From>PROFESSIONAL</From>
                <To>0</To>
              </row>
              <row>
                <From>VOCATIONAL</From>
                <To>0</To>
              </row>
              <row>
                <From>YR10</From>
                <To>0</To>
              </row>
              <row>
                <From>YR11</From>
                <To>0</To>
              </row>
              <row>
                <From>YR12</From>
                <To>0</To>
              </row>
              <row>
                <From>YR1T4</From>
                <To>0</To>
              </row>
              <row>
                <From>YR5T6</From>
                <To>0</To>
              </row>
              <row>
                <From>YR7T8</From>
                <To>0</To>
              </row>
              <row>
                <From>YR9</From>
                <To>-1</To>
              </row>
            </InlineTable>
          </MapValues>
        </DerivedField>
        <DerivedField name="_1_4" optype="continuous" dataType="double">
          <MapValues outputColumn="To">
            <FieldColumnPair field="Education+" column="From"/>
            <InlineTable>
              <row>
                <From>ASSOCIATE</From>
                <To>0</To>
              </row>
              <row>
                <From>BACHELOR</From>
                <To>0</To>
              </row>
              <row>
                <From>COLLEGE</From>
                <To>0</To>
              </row>
              <row>
                <From>DOCTORATE</From>
                <To>0</To>
              </row>
              <row>
                <From>HSGRAD</From>
                <To>1</To>
              </row>
              <row>
                <From>MASTER</From>
                <To>0</To>
              </row>
              <row>
                <From>PRESCHOOL</From>
                <To>0</To>
              </row>
              <row>
                <From>PROFESSIONAL</From>
                <To>0</To>
              </row>
              <row>
                <From>VOCATIONAL</From>
                <To>0</To>
              </row>
              <row>
                <From>YR10</From>
                <To>0</To>
              </row>
              <row>
                <From>YR11</From>
                <To>0</To>
              </row>
              <row>
                <From>YR12</From>
                <To>0</To>
              </row>
              <row>
                <From>YR1T4</From>
                <To>0</To>
              </row>
              <row>
                <From>YR5T6</From>
                <To>0</To>
              </row>
              <row>
                <From>YR7T8</From>
                <To>0</To>
              </row>
              <row>
                <From>YR9</From>
                <To>-1</To>
              </row>
            </InlineTable>
          </MapValues>
        </DerivedField>
        <DerivedField name="_1_5" optype="continuous" dataType="double">
          <MapValues outputColumn="To">
            <FieldColumnPair field="Education+" column="From"/>
            <InlineTable>
              <row>
                <From>ASSOCIATE</From>
                <To>0</To>
              </row>
              <row>
                <From>BACHELOR</From>
                <To>0</To>
              </row>
              <row>
                <From>COLLEGE</From>
                <To>0</To>
              </row>
              <row>
                <From>DOCTORATE</From>
                <To>0</To>
              </row>
              <row>
                <From>HSGRAD</From>
                <To>0</To>
              </row>
              <row>
                <From>MASTER</From>
                <To>1</To>
              </row>
              <row>
                <From>PRESCHOOL</From>
                <To>0</To>
              </row>
              <row>
                <From>PROFESSIONAL</From>
                <To>0</To>
              </row>
              <row>
                <From>VOCATIONAL</From>
                <To>0</To>
              </row>
              <row>
                <From>YR10</From>
                <To>0</To>
              </row>
              <row>
                <From>YR11</From>
                <To>0</To>
              </row>
              <row>
                <From>YR12</From>
                <To>0</To>
              </row>
              <row>
                <From>YR1T4</From>
                <To>0</To>
              </row>
              <row>
                <From>YR5T6</From>
                <To>0</To>
              </row>
              <row>
                <From>YR7T8</From>
                <To>0</To>
              </row>
              <row>
                <From>YR9</From>
                <To>-1</To>
              </row>
            </InlineTable>
          </MapValues>
        </DerivedField>
        <DerivedField name="_1_6" optype="continuous" dataType="double">
          <MapValues outputColumn="To">
            <FieldColumnPair field="Education+" column="From"/>
            <InlineTable>
              <row>
                <From>ASSOCIATE</From>
                <To>0</To>
              </row>
              <row>
                <From>BACHELOR</From>
                <To>0</To>
              </row>
              <row>
                <From>COLLEGE</From>
                <To>0</To>
              </row>
              <row>
                <From>DOCTORATE</From>
                <To>0</To>
              </row>
              <row>
                <From>HSGRAD</From>
                <To>0</To>
              </row>
              <row>
                <From>MASTER</From>
                <To>0</To>
              </row>
              <row>
                <From>PRESCHOOL</From>
                <To>1</To>
              </row>
              <row>
                <From>PROFESSIONAL</From>
                <To>0</To>
              </row>
              <row>
                <From>VOCATIONAL</From>
                <To>0</To>
              </row>
              <row>
                <From>YR10</From>
                <To>0</To>
              </row>
              <row>
                <From>YR11</From>
                <To>0</To>
              </row>
              <row>
                <From>YR12</From>
                <To>0</To>
              </row>
              <row>
                <From>YR1T4</From>
                <To>0</To>
              </row>
              <row>
                <From>YR5T6</From>
                <To>0</To>
              </row>
              <row>
                <From>YR7T8</From>
                <To>0</To>
              </row>
              <row>
                <From>YR9</From>
                <To>-1</To>
              </row>
            </InlineTable>
          </MapValues>
        </DerivedField>
        <DerivedField name="_1_7" optype="continuous" dataType="double">
          <MapValues outputColumn="To">
            <FieldColumnPair field="Education+" column="From"/>
            <InlineTable>
              <row>
                <From>ASSOCIATE</From>
                <To>0</To>
              </row>
              <row>
                <From>BACHELOR</From>
                <To>0</To>
              </row>
              <row>
                <From>COLLEGE</From>
                <To>0</To>
              </row>
              <row>
                <From>DOCTORATE</From>
                <To>0</To>
              </row>
              <row>
                <From>HSGRAD</From>
                <To>0</To>
              </row>
              <row>
                <From>MASTER</From>
                <To>0</To>
              </row>
              <row>
                <From>PRESCHOOL</From>
                <To>0</To>
              </row>
              <row>
                <From>PROFESSIONAL</From>
                <To>1</To>
              </row>
              <row>
                <From>VOCATIONAL</From>
                <To>0</To>
              </row>
              <row>
                <From>YR10</From>
                <To>0</To>
              </row>
              <row>
                <From>YR11</From>
                <To>0</To>
              </row>
              <row>
                <From>YR12</From>
                <To>0</To>
              </row>
              <row>
                <From>YR1T4</From>
                <To>0</To>
              </row>
              <row>
                <From>YR5T6</From>
                <To>0</To>
              </row>
              <row>
                <From>YR7T8</From>
                <To>0</To>
              </row>
              <row>
                <From>YR9</From>
                <To>-1</To>
              </row>
            </InlineTable>
          </MapValues>
        </DerivedField>
        <DerivedField name="_1_8" optype="continuous" dataType="double">
          <MapValues outputColumn="To">
            <FieldColumnPair field="Education+" column="From"/>
            <InlineTable>
              <row>
                <From>ASSOCIATE</From>
                <To>0</To>
              </row>
              <row>
                <From>BACHELOR</From>
                <To>0</To>
              </row>
              <row>
                <From>COLLEGE</From>
                <To>0</To>
              </row>
              <row>
                <From>DOCTORATE</From>
                <To>0</To>
              </row>
              <row>
                <From>HSGRAD</From>
                <To>0</To>
              </row>
              <row>
                <From>MASTER</From>
                <To>0</To>
              </row>
              <row>
                <From>PRESCHOOL</From>
                <To>0</To>
              </row>
              <row>
                <From>PROFESSIONAL</From>
                <To>0</To>
              </row>
              <row>
                <From>VOCATIONAL</From>
                <To>1</To>
              </row>
              <row>
                <From>YR10</From>
                <To>0</To>
              </row>
              <row>
                <From>YR11</From>
                <To>0</To>
              </row>
              <row>
                <From>YR12</From>
                <To>0</To>
              </row>
              <row>
                <From>YR1T4</From>
                <To>0</To>
              </row>
              <row>
                <From>YR5T6</From>
                <To>0</To>
              </row>
              <row>
                <From>YR7T8</From>
                <To>0</To>
              </row>
              <row>
                <From>YR9</From>
                <To>-1</To>
              </row>
            </InlineTable>
          </MapValues>
        </DerivedField>
        <DerivedField name="_1_9" optype="continuous" dataType="double">
          <MapValues outputColumn="To">
            <FieldColumnPair field="Education+" column="From"/>
            <InlineTable>
              <row>
                <From>ASSOCIATE</From>
                <To>0</To>
              </row>
              <row>
                <From>BACHELOR</From>
                <To>0</To>
              </row>
              <row>
                <From>COLLEGE</From>
                <To>0</To>
              </row>
              <row>
                <From>DOCTORATE</From>
                <To>0</To>
              </row>
              <row>
                <From>HSGRAD</From>
                <To>0</To>
              </row>
              <row>
                <From>MASTER</From>
                <To>0</To>
              </row>
              <row>
                <From>PRESCHOOL</From>
                <To>0</To>
              </row>
              <row>
                <From>PROFESSIONAL</From>
                <To>0</To>
              </row>
              <row>
                <From>VOCATIONAL</From>
                <To>0</To>
              </row>
              <row>
                <From>YR10</From>
                <To>1</To>
              </row>
              <row>
                <From>YR11</From>
                <To>0</To>
              </row>
              <row>
                <From>YR12</From>
                <To>0</To>
              </row>
              <row>
                <From>YR1T4</From>
                <To>0</To>
              </row>
              <row>
                <From>YR5T6</From>
                <To>0</To>
              </row>
              <row>
                <From>YR7T8</From>
                <To>0</To>
              </row>
              <row>
                <From>YR9</From>
                <To>-1</To>
              </row>
            </InlineTable>
          </MapValues>
        </DerivedField>
        <DerivedField name="_1_10" optype="continuous" dataType="double">
          <MapValues outputColumn="To">
            <FieldColumnPair field="Education+" column="From"/>
            <InlineTable>
              <row>
                <From>ASSOCIATE</From>
                <To>0</To>
              </row>
              <row>
                <From>BACHELOR</From>
                <To>0</To>
              </row>
              <row>
                <From>COLLEGE</From>
                <To>0</To>
              </row>
              <row>
                <From>DOCTORATE</From>
                <To>0</To>
              </row>
              <row>
                <From>HSGRAD</From>
                <To>0</To>
              </row>
              <row>
                <From>MASTER</From>
                <To>0</To>
              </row>
              <row>
                <From>PRESCHOOL</From>
                <To>0</To>
              </row>
              <row>
                <From>PROFESSIONAL</From>
                <To>0</To>
              </row>
              <row>
                <From>VOCATIONAL</From>
                <To>0</To>
              </row>
              <row>
                <From>YR10</From>
                <To>0</To>
              </row>
              <row>
                <From>YR11</From>
                <To>1</To>
              </row>
              <row>
                <From>YR12</From>
                <To>0</To>
              </row>
              <row>
                <From>YR1T4</From>
                <To>0</To>
              </row>
              <row>
                <From>YR5T6</From>
                <To>0</To>
              </row>
              <row>
                <From>YR7T8</From>
                <To>0</To>
              </row>
              <row>
                <From>YR9</From>
                <To>-1</To>
              </row>
            </InlineTable>
          </MapValues>
        </DerivedField>
        <DerivedField name="_1_11" optype="continuous" dataType="double">
          <MapValues outputColumn="To">
            <FieldColumnPair field="Education+" column="From"/>
            <InlineTable>
              <row>
                <From>ASSOCIATE</From>
                <To>0</To>
              </row>
              <row>
                <From>BACHELOR</From>
                <To>0</To>
              </row>
              <row>
                <From>COLLEGE</From>
                <To>0</To>
              </row>
              <row>
                <From>DOCTORATE</From>
                <To>0</To>
              </row>
              <row>
                <From>HSGRAD</From>
                <To>0</To>
              </row>
              <row>
                <From>MASTER</From>
                <To>0</To>
              </row>
              <row>
                <From>PRESCHOOL</From>
                <To>0</To>
              </row>
              <row>
                <From>PROFESSIONAL</From>
                <To>0</To>
              </row>
              <row>
                <From>VOCATIONAL</From>
                <To>0</To>
              </row>
              <row>
                <From>YR10</From>
                <To>0</To>
              </row>
              <row>
                <From>YR11</From>
                <To>0</To>
              </row>
              <row>
                <From>YR12</From>
                <To>1</To>
              </row>
              <row>
                <From>YR1T4</From>
                <To>0</To>
              </row>
              <row>
                <From>YR5T6</From>
                <To>0</To>
              </row>
              <row>
                <From>YR7T8</From>
                <To>0</To>
              </row>
              <row>
                <From>YR9</From>
                <To>-1</To>
              </row>
            </InlineTable>
          </MapValues>
        </DerivedField>
        <DerivedField name="_1_12" optype="continuous" dataType="double">
          <MapValues outputColumn="To">
            <FieldColumnPair field="Education+" column="From"/>
            <InlineTable>
              <row>
                <From>ASSOCIATE</From>
                <To>0</To>
              </row>
              <row>
                <From>BACHELOR</From>
                <To>0</To>
              </row>
              <row>
                <From>COLLEGE</From>
                <To>0</To>
              </row>
              <row>
                <From>DOCTORATE</From>
                <To>0</To>
              </row>
              <row>
                <From>HSGRAD</From>
                <To>0</To>
              </row>
              <row>
                <From>MASTER</From>
                <To>0</To>
              </row>
              <row>
                <From>PRESCHOOL</From>
                <To>0</To>
              </row>
              <row>
                <From>PROFESSIONAL</From>
                <To>0</To>
              </row>
              <row>
                <From>VOCATIONAL</From>
                <To>0</To>
              </row>
              <row>
                <From>YR10</From>
                <To>0</To>
              </row>
              <row>
                <From>YR11</From>
                <To>0</To>
              </row>
              <row>
                <From>YR12</From>
                <To>0</To>
              </row>
              <row>
                <From>YR1T4</From>
                <To>1</To>
              </row>
              <row>
                <From>YR5T6</From>
                <To>0</To>
              </row>
              <row>
                <From>YR7T8</From>
                <To>0</To>
              </row>
              <row>
                <From>YR9</From>
                <To>-1</To>
              </row>
            </InlineTable>
          </MapValues>
        </DerivedField>
        <DerivedField name="_1_13" optype="continuous" dataType="double">
          <MapValues outputColumn="To">
            <FieldColumnPair field="Education+" column="From"/>
            <InlineTable>
              <row>
                <From>ASSOCIATE</From>
                <To>0</To>
              </row>
              <row>
                <From>BACHELOR</From>
                <To>0</To>
              </row>
              <row>
                <From>COLLEGE</From>
                <To>0</To>
              </row>
              <row>
                <From>DOCTORATE</From>
                <To>0</To>
              </row>
              <row>
                <From>HSGRAD</From>
                <To>0</To>
              </row>
              <row>
                <From>MASTER</From>
                <To>0</To>
              </row>
              <row>
                <From>PRESCHOOL</From>
                <To>0</To>
              </row>
              <row>
                <From>PROFESSIONAL</From>
                <To>0</To>
              </row>
              <row>
                <From>VOCATIONAL</From>
                <To>0</To>
              </row>
              <row>
                <From>YR10</From>
                <To>0</To>
              </row>
              <row>
                <From>YR11</From>
                <To>0</To>
              </row>
              <row>
                <From>YR12</From>
                <To>0</To>
              </row>
              <row>
                <From>YR1T4</From>
                <To>0</To>
              </row>
              <row>
                <From>YR5T6</From>
                <To>1</To>
              </row>
              <row>
                <From>YR7T8</From>
                <To>0</To>
              </row>
              <row>
                <From>YR9</From>
                <To>-1</To>
              </row>
            </InlineTable>
          </MapValues>
        </DerivedField>
        <DerivedField name="_1_14" optype="continuous" dataType="double">
          <MapValues outputColumn="To">
            <FieldColumnPair field="Education+" column="From"/>
            <InlineTable>
              <row>
                <From>ASSOCIATE</From>
                <To>0</To>
              </row>
              <row>
                <From>BACHELOR</From>
                <To>0</To>
              </row>
              <row>
                <From>COLLEGE</From>
                <To>0</To>
              </row>
              <row>
                <From>DOCTORATE</From>
                <To>0</To>
              </row>
              <row>
                <From>HSGRAD</From>
                <To>0</To>
              </row>
              <row>
                <From>MASTER</From>
                <To>0</To>
              </row>
              <row>
                <From>PRESCHOOL</From>
                <To>0</To>
              </row>
              <row>
                <From>PROFESSIONAL</From>
                <To>0</To>
              </row>
              <row>
                <From>VOCATIONAL</From>
                <To>0</To>
              </row>
              <row>
                <From>YR10</From>
                <To>0</To>
              </row>
              <row>
                <From>YR11</From>
                <To>0</To>
              </row>
              <row>
                <From>YR12</From>
                <To>0</To>
              </row>
              <row>
                <From>YR1T4</From>
                <To>0</To>
              </row>
              <row>
                <From>YR5T6</From>
                <To>0</To>
              </row>
              <row>
                <From>YR7T8</From>
                <To>1</To>
              </row>
              <row>
                <From>YR9</From>
                <To>-1</To>
              </row>
            </InlineTable>
          </MapValues>
        </DerivedField>
        <DerivedField name="Marital+" optype="categorical" dataType="string">
          <!-- SAS Format: $21.0 -->
          <Apply function="SAS-EM-String-Normalize">
            <Constant>21</Constant>
            <Apply function="SAS-FORMAT-$CHARw">
              <Constant>21</Constant>
              <FieldRef field="Marital"/>
            </Apply>
          </Apply>
        </DerivedField>
        <DerivedField name="_4_0" optype="continuous" dataType="double">
          <MapValues outputColumn="To">
            <FieldColumnPair field="Marital+" column="From"/>
            <InlineTable>
              <row>
                <From>ABSENT</From>
                <To>1</To>
              </row>
              <row>
                <From>DIVORCED</From>
                <To>0</To>
              </row>
              <row>
                <From>MARRIED</From>
                <To>0</To>
              </row>
              <row>
                <From>MARRIED-SPOUSE-ABSENT</From>
                <To>0</To>
              </row>
              <row>
                <From>UNMARRIED</From>
                <To>0</To>
              </row>
              <row>
                <From>WIDOWED</From>
                <To>-1</To>
              </row>
            </InlineTable>
          </MapValues>
        </DerivedField>
        <DerivedField name="_4_1" optype="continuous" dataType="double">
          <MapValues outputColumn="To">
            <FieldColumnPair field="Marital+" column="From"/>
            <InlineTable>
              <row>
                <From>ABSENT</From>
                <To>0</To>
              </row>
              <row>
                <From>DIVORCED</From>
                <To>1</To>
              </row>
              <row>
                <From>MARRIED</From>
                <To>0</To>
              </row>
              <row>
                <From>MARRIED-SPOUSE-ABSENT</From>
                <To>0</To>
              </row>
              <row>
                <From>UNMARRIED</From>
                <To>0</To>
              </row>
              <row>
                <From>WIDOWED</From>
                <To>-1</To>
              </row>
            </InlineTable>
          </MapValues>
        </DerivedField>
        <DerivedField name="_4_2" optype="continuous" dataType="double">
          <MapValues outputColumn="To">
            <FieldColumnPair field="Marital+" column="From"/>
            <InlineTable>
              <row>
                <From>ABSENT</From>
                <To>0</To>
              </row>
              <row>
                <From>DIVORCED</From>
                <To>0</To>
              </row>
              <row>
                <From>MARRIED</From>
                <To>1</To>
              </row>
              <row>
                <From>MARRIED-SPOUSE-ABSENT</From>
                <To>0</To>
              </row>
              <row>
                <From>UNMARRIED</From>
                <To>0</To>
              </row>
              <row>
                <From>WIDOWED</From>
                <To>-1</To>
              </row>
            </InlineTable>
          </MapValues>
        </DerivedField>
        <DerivedField name="_4_3" optype="continuous" dataType="double">
          <MapValues outputColumn="To">
            <FieldColumnPair field="Marital+" column="From"/>
            <InlineTable>
              <row>
                <From>ABSENT</From>
                <To>0</To>
              </row>
              <row>
                <From>DIVORCED</From>
                <To>0</To>
              </row>
              <row>
                <From>MARRIED</From>
                <To>0</To>
              </row>
              <row>
                <From>MARRIED-SPOUSE-ABSENT</From>
                <To>1</To>
              </row>
              <row>
                <From>UNMARRIED</From>
                <To>0</To>
              </row>
              <row>
                <From>WIDOWED</From>
                <To>-1</To>
              </row>
            </InlineTable>
          </MapValues>
        </DerivedField>
        <DerivedField name="_4_4" optype="continuous" dataType="double">
          <MapValues outputColumn="To">
            <FieldColumnPair field="Marital+" column="From"/>
            <InlineTable>
              <row>
                <From>ABSENT</From>
                <To>0</To>
              </row>
              <row>
                <From>DIVORCED</From>
                <To>0</To>
              </row>
              <row>
                <From>MARRIED</From>
                <To>0</To>
              </row>
              <row>
                <From>MARRIED-SPOUSE-ABSENT</From>
                <To>0</To>
              </row>
              <row>
                <From>UNMARRIED</From>
                <To>1</To>
              </row>
              <row>
                <From>WIDOWED</From>
                <To>-1</To>
              </row>
            </InlineTable>
          </MapValues>
        </DerivedField>
        <DerivedField name="Occupation+" optype="categorical" dataType="string">
          <!-- SAS Format: $12.0 -->
          <Apply function="SAS-EM-String-Normalize">
            <Constant>12</Constant>
            <Apply function="SAS-FORMAT-$CHARw">
              <Constant>12</Constant>
              <FieldRef field="Occupation"/>
            </Apply>
          </Apply>
        </DerivedField>
        <DerivedField name="_5_0" optype="continuous" dataType="double">
          <MapValues outputColumn="To">
            <FieldColumnPair field="Occupation+" column="From"/>
            <InlineTable>
              <row>
                <From>CLEANER</From>
                <To>1</To>
              </row>
              <row>
                <From>CLERICAL</From>
                <To>0</To>
              </row>
              <row>
                <From>EXECUTIVE</From>
                <To>0</To>
              </row>
              <row>
                <From>FARMING</From>
                <To>0</To>
              </row>
              <row>
                <From>HOME</From>
                <To>0</To>
              </row>
              <row>
                <From>MACHINIST</From>
                <To>0</To>
              </row>
              <row>
                <From>MILITARY</From>
                <To>0</To>
              </row>
              <row>
                <From>PROFESSIONAL</From>
                <To>0</To>
              </row>
              <row>
                <From>PROTECTIVE</From>
                <To>0</To>
              </row>
              <row>
                <From>REPAIR</From>
                <To>0</To>
              </row>
              <row>
                <From>SALES</From>
                <To>0</To>
              </row>
              <row>
                <From>SERVICE</From>
                <To>0</To>
              </row>
              <row>
                <From>SUPPORT</From>
                <To>0</To>
              </row>
              <row>
                <From>TRANSPORT</From>
                <To>-1</To>
              </row>
            </InlineTable>
          </MapValues>
        </DerivedField>
        <DerivedField name="_5_1" optype="continuous" dataType="double">
          <MapValues outputColumn="To">
            <FieldColumnPair field="Occupation+" column="From"/>
            <InlineTable>
              <row>
                <From>CLEANER</From>
                <To>0</To>
              </row>
              <row>
                <From>CLERICAL</From>
                <To>1</To>
              </row>
              <row>
                <From>EXECUTIVE</From>
                <To>0</To>
              </row>
              <row>
                <From>FARMING</From>
                <To>0</To>
              </row>
              <row>
                <From>HOME</From>
                <To>0</To>
              </row>
              <row>
                <From>MACHINIST</From>
                <To>0</To>
              </row>
              <row>
                <From>MILITARY</From>
                <To>0</To>
              </row>
              <row>
                <From>PROFESSIONAL</From>
                <To>0</To>
              </row>
              <row>
                <From>PROTECTIVE</From>
                <To>0</To>
              </row>
              <row>
                <From>REPAIR</From>
                <To>0</To>
              </row>
              <row>
                <From>SALES</From>
                <To>0</To>
              </row>
              <row>
                <From>SERVICE</From>
                <To>0</To>
              </row>
              <row>
                <From>SUPPORT</From>
                <To>0</To>
              </row>
              <row>
                <From>TRANSPORT</From>
                <To>-1</To>
              </row>
            </InlineTable>
          </MapValues>
        </DerivedField>
        <DerivedField name="_5_2" optype="continuous" dataType="double">
          <MapValues outputColumn="To">
            <FieldColumnPair field="Occupation+" column="From"/>
            <InlineTable>
              <row>
                <From>CLEANER</From>
                <To>0</To>
              </row>
              <row>
                <From>CLERICAL</From>
                <To>0</To>
              </row>
              <row>
                <From>EXECUTIVE</From>
                <To>1</To>
              </row>
              <row>
                <From>FARMING</From>
                <To>0</To>
              </row>
              <row>
                <From>HOME</From>
                <To>0</To>
              </row>
              <row>
                <From>MACHINIST</From>
                <To>0</To>
              </row>
              <row>
                <From>MILITARY</From>
                <To>0</To>
              </row>
              <row>
                <From>PROFESSIONAL</From>
                <To>0</To>
              </row>
              <row>
                <From>PROTECTIVE</From>
                <To>0</To>
              </row>
              <row>
                <From>REPAIR</From>
                <To>0</To>
              </row>
              <row>
                <From>SALES</From>
                <To>0</To>
              </row>
              <row>
                <From>SERVICE</From>
                <To>0</To>
              </row>
              <row>
                <From>SUPPORT</From>
                <To>0</To>
              </row>
              <row>
                <From>TRANSPORT</From>
                <To>-1</To>
              </row>
            </InlineTable>
          </MapValues>
        </DerivedField>
        <DerivedField name="_5_3" optype="continuous" dataType="double">
          <MapValues outputColumn="To">
            <FieldColumnPair field="Occupation+" column="From"/>
            <InlineTable>
              <row>
                <From>CLEANER</From>
                <To>0</To>
              </row>
              <row>
                <From>CLERICAL</From>
                <To>0</To>
              </row>
              <row>
                <From>EXECUTIVE</From>
                <To>0</To>
              </row>
              <row>
                <From>FARMING</From>
                <To>1</To>
              </row>
              <row>
                <From>HOME</From>
                <To>0</To>
              </row>
              <row>
                <From>MACHINIST</From>
                <To>0</To>
              </row>
              <row>
                <From>MILITARY</From>
                <To>0</To>
              </row>
              <row>
                <From>PROFESSIONAL</From>
                <To>0</To>
              </row>
              <row>
                <From>PROTECTIVE</From>
                <To>0</To>
              </row>
              <row>
                <From>REPAIR</From>
                <To>0</To>
              </row>
              <row>
                <From>SALES</From>
                <To>0</To>
              </row>
              <row>
                <From>SERVICE</From>
                <To>0</To>
              </row>
              <row>
                <From>SUPPORT</From>
                <To>0</To>
              </row>
              <row>
                <From>TRANSPORT</From>
                <To>-1</To>
              </row>
            </InlineTable>
          </MapValues>
        </DerivedField>
        <DerivedField name="_5_4" optype="continuous" dataType="double">
          <MapValues outputColumn="To">
            <FieldColumnPair field="Occupation+" column="From"/>
            <InlineTable>
              <row>
                <From>CLEANER</From>
                <To>0</To>
              </row>
              <row>
                <From>CLERICAL</From>
                <To>0</To>
              </row>
              <row>
                <From>EXECUTIVE</From>
                <To>0</To>
              </row>
              <row>
                <From>FARMING</From>
                <To>0</To>
              </row>
              <row>
                <From>HOME</From>
                <To>1</To>
              </row>
              <row>
                <From>MACHINIST</From>
                <To>0</To>
              </row>
              <row>
                <From>MILITARY</From>
                <To>0</To>
              </row>
              <row>
                <From>PROFESSIONAL</From>
                <To>0</To>
              </row>
              <row>
                <From>PROTECTIVE</From>
                <To>0</To>
              </row>
              <row>
                <From>REPAIR</From>
                <To>0</To>
              </row>
              <row>
                <From>SALES</From>
                <To>0</To>
              </row>
              <row>
                <From>SERVICE</From>
                <To>0</To>
              </row>
              <row>
                <From>SUPPORT</From>
                <To>0</To>
              </row>
              <row>
                <From>TRANSPORT</From>
                <To>-1</To>
              </row>
            </InlineTable>
          </MapValues>
        </DerivedField>
        <DerivedField name="_5_5" optype="continuous" dataType="double">
          <MapValues outputColumn="To">
            <FieldColumnPair field="Occupation+" column="From"/>
            <InlineTable>
              <row>
                <From>CLEANER</From>
                <To>0</To>
              </row>
              <row>
                <From>CLERICAL</From>
                <To>0</To>
              </row>
              <row>
                <From>EXECUTIVE</From>
                <To>0</To>
              </row>
              <row>
                <From>FARMING</From>
                <To>0</To>
              </row>
              <row>
                <From>HOME</From>
                <To>0</To>
              </row>
              <row>
                <From>MACHINIST</From>
                <To>1</To>
              </row>
              <row>
                <From>MILITARY</From>
                <To>0</To>
              </row>
              <row>
                <From>PROFESSIONAL</From>
                <To>0</To>
              </row>
              <row>
                <From>PROTECTIVE</From>
                <To>0</To>
              </row>
              <row>
                <From>REPAIR</From>
                <To>0</To>
              </row>
              <row>
                <From>SALES</From>
                <To>0</To>
              </row>
              <row>
                <From>SERVICE</From>
                <To>0</To>
              </row>
              <row>
                <From>SUPPORT</From>
                <To>0</To>
              </row>
              <row>
                <From>TRANSPORT</From>
                <To>-1</To>
              </row>
            </InlineTable>
          </MapValues>
        </DerivedField>
        <DerivedField name="_5_6" optype="continuous" dataType="double">
          <MapValues outputColumn="To">
            <FieldColumnPair field="Occupation+" column="From"/>
            <InlineTable>
              <row>
                <From>CLEANER</From>
                <To>0</To>
              </row>
              <row>
                <From>CLERICAL</From>
                <To>0</To>
              </row>
              <row>
                <From>EXECUTIVE</From>
                <To>0</To>
              </row>
              <row>
                <From>FARMING</From>
                <To>0</To>
              </row>
              <row>
                <From>HOME</From>
                <To>0</To>
              </row>
              <row>
                <From>MACHINIST</From>
                <To>0</To>
              </row>
              <row>
                <From>MILITARY</From>
                <To>1</To>
              </row>
              <row>
                <From>PROFESSIONAL</From>
                <To>0</To>
              </row>
              <row>
                <From>PROTECTIVE</From>
                <To>0</To>
              </row>
              <row>
                <From>REPAIR</From>
                <To>0</To>
              </row>
              <row>
                <From>SALES</From>
                <To>0</To>
              </row>
              <row>
                <From>SERVICE</From>
                <To>0</To>
              </row>
              <row>
                <From>SUPPORT</From>
                <To>0</To>
              </row>
              <row>
                <From>TRANSPORT</From>
                <To>-1</To>
              </row>
            </InlineTable>
          </MapValues>
        </DerivedField>
        <DerivedField name="_5_7" optype="continuous" dataType="double">
          <MapValues outputColumn="To">
            <FieldColumnPair field="Occupation+" column="From"/>
            <InlineTable>
              <row>
                <From>CLEANER</From>
                <To>0</To>
              </row>
              <row>
                <From>CLERICAL</From>
                <To>0</To>
              </row>
              <row>
                <From>EXECUTIVE</From>
                <To>0</To>
              </row>
              <row>
                <From>FARMING</From>
                <To>0</To>
              </row>
              <row>
                <From>HOME</From>
                <To>0</To>
              </row>
              <row>
                <From>MACHINIST</From>
                <To>0</To>
              </row>
              <row>
                <From>MILITARY</From>
                <To>0</To>
              </row>
              <row>
                <From>PROFESSIONAL</From>
                <To>1</To>
              </row>
              <row>
                <From>PROTECTIVE</From>
                <To>0</To>
              </row>
              <row>
                <From>REPAIR</From>
                <To>0</To>
              </row>
              <row>
                <From>SALES</From>
                <To>0</To>
              </row>
              <row>
                <From>SERVICE</From>
                <To>0</To>
              </row>
              <row>
                <From>SUPPORT</From>
                <To>0</To>
              </row>
              <row>
                <From>TRANSPORT</From>
                <To>-1</To>
              </row>
            </InlineTable>
          </MapValues>
        </DerivedField>
        <DerivedField name="_5_8" optype="continuous" dataType="double">
          <MapValues outputColumn="To">
            <FieldColumnPair field="Occupation+" column="From"/>
            <InlineTable>
              <row>
                <From>CLEANER</From>
                <To>0</To>
              </row>
              <row>
                <From>CLERICAL</From>
                <To>0</To>
              </row>
              <row>
                <From>EXECUTIVE</From>
                <To>0</To>
              </row>
              <row>
                <From>FARMING</From>
                <To>0</To>
              </row>
              <row>
                <From>HOME</From>
                <To>0</To>
              </row>
              <row>
                <From>MACHINIST</From>
                <To>0</To>
              </row>
              <row>
                <From>MILITARY</From>
                <To>0</To>
              </row>
              <row>
                <From>PROFESSIONAL</From>
                <To>0</To>
              </row>
              <row>
                <From>PROTECTIVE</From>
                <To>1</To>
              </row>
              <row>
                <From>REPAIR</From>
                <To>0</To>
              </row>
              <row>
                <From>SALES</From>
                <To>0</To>
              </row>
              <row>
                <From>SERVICE</From>
                <To>0</To>
              </row>
              <row>
                <From>SUPPORT</From>
                <To>0</To>
              </row>
              <row>
                <From>TRANSPORT</From>
                <To>-1</To>
              </row>
            </InlineTable>
          </MapValues>
        </DerivedField>
        <DerivedField name="_5_9" optype="continuous" dataType="double">
          <MapValues outputColumn="To">
            <FieldColumnPair field="Occupation+" column="From"/>
            <InlineTable>
              <row>
                <From>CLEANER</From>
                <To>0</To>
              </row>
              <row>
                <From>CLERICAL</From>
                <To>0</To>
              </row>
              <row>
                <From>EXECUTIVE</From>
                <To>0</To>
              </row>
              <row>
                <From>FARMING</From>
                <To>0</To>
              </row>
              <row>
                <From>HOME</From>
                <To>0</To>
              </row>
              <row>
                <From>MACHINIST</From>
                <To>0</To>
              </row>
              <row>
                <From>MILITARY</From>
                <To>0</To>
              </row>
              <row>
                <From>PROFESSIONAL</From>
                <To>0</To>
              </row>
              <row>
                <From>PROTECTIVE</From>
                <To>0</To>
              </row>
              <row>
                <From>REPAIR</From>
                <To>1</To>
              </row>
              <row>
                <From>SALES</From>
                <To>0</To>
              </row>
              <row>
                <From>SERVICE</From>
                <To>0</To>
              </row>
              <row>
                <From>SUPPORT</From>
                <To>0</To>
              </row>
              <row>
                <From>TRANSPORT</From>
                <To>-1</To>
              </row>
            </InlineTable>
          </MapValues>
        </DerivedField>
        <DerivedField name="_5_10" optype="continuous" dataType="double">
          <MapValues outputColumn="To">
            <FieldColumnPair field="Occupation+" column="From"/>
            <InlineTable>
              <row>
                <From>CLEANER</From>
                <To>0</To>
              </row>
              <row>
                <From>CLERICAL</From>
                <To>0</To>
              </row>
              <row>
                <From>EXECUTIVE</From>
                <To>0</To>
              </row>
              <row>
                <From>FARMING</From>
                <To>0</To>
              </row>
              <row>
                <From>HOME</From>
                <To>0</To>
              </row>
              <row>
                <From>MACHINIST</From>
                <To>0</To>
              </row>
              <row>
                <From>MILITARY</From>
                <To>0</To>
              </row>
              <row>
                <From>PROFESSIONAL</From>
                <To>0</To>
              </row>
              <row>
                <From>PROTECTIVE</From>
                <To>0</To>
              </row>
              <row>
                <From>REPAIR</From>
                <To>0</To>
              </row>
              <row>
                <From>SALES</From>
                <To>1</To>
              </row>
              <row>
                <From>SERVICE</From>
                <To>0</To>
              </row>
              <row>
                <From>SUPPORT</From>
                <To>0</To>
              </row>
              <row>
                <From>TRANSPORT</From>
                <To>-1</To>
              </row>
            </InlineTable>
          </MapValues>
        </DerivedField>
        <DerivedField name="_5_11" optype="continuous" dataType="double">
          <MapValues outputColumn="To">
            <FieldColumnPair field="Occupation+" column="From"/>
            <InlineTable>
              <row>
                <From>CLEANER</From>
                <To>0</To>
              </row>
              <row>
                <From>CLERICAL</From>
                <To>0</To>
              </row>
              <row>
                <From>EXECUTIVE</From>
                <To>0</To>
              </row>
              <row>
                <From>FARMING</From>
                <To>0</To>
              </row>
              <row>
                <From>HOME</From>
                <To>0</To>
              </row>
              <row>
                <From>MACHINIST</From>
                <To>0</To>
              </row>
              <row>
                <From>MILITARY</From>
                <To>0</To>
              </row>
              <row>
                <From>PROFESSIONAL</From>
                <To>0</To>
              </row>
              <row>
                <From>PROTECTIVE</From>
                <To>0</To>
              </row>
              <row>
                <From>REPAIR</From>
                <To>0</To>
              </row>
              <row>
                <From>SALES</From>
                <To>0</To>
              </row>
              <row>
                <From>SERVICE</From>
                <To>1</To>
              </row>
              <row>
                <From>SUPPORT</From>
                <To>0</To>
              </row>
              <row>
                <From>TRANSPORT</From>
                <To>-1</To>
              </row>
            </InlineTable>
          </MapValues>
        </DerivedField>
        <DerivedField name="_5_12" optype="continuous" dataType="double">
          <MapValues outputColumn="To">
            <FieldColumnPair field="Occupation+" column="From"/>
            <InlineTable>
              <row>
                <From>CLEANER</From>
                <To>0</To>
              </row>
              <row>
                <From>CLERICAL</From>
                <To>0</To>
              </row>
              <row>
                <From>EXECUTIVE</From>
                <To>0</To>
              </row>
              <row>
                <From>FARMING</From>
                <To>0</To>
              </row>
              <row>
                <From>HOME</From>
                <To>0</To>
              </row>
              <row>
                <From>MACHINIST</From>
                <To>0</To>
              </row>
              <row>
                <From>MILITARY</From>
                <To>0</To>
              </row>
              <row>
                <From>PROFESSIONAL</From>
                <To>0</To>
              </row>
              <row>
                <From>PROTECTIVE</From>
                <To>0</To>
              </row>
              <row>
                <From>REPAIR</From>
                <To>0</To>
              </row>
              <row>
                <From>SALES</From>
                <To>0</To>
              </row>
              <row>
                <From>SERVICE</From>
                <To>0</To>
              </row>
              <row>
                <From>SUPPORT</From>
                <To>1</To>
              </row>
              <row>
                <From>TRANSPORT</From>
                <To>-1</To>
              </row>
            </InlineTable>
          </MapValues>
        </DerivedField>
      </LocalTransformations>
      <RegressionTable intercept="-8.423464327" targetCategory="1">
        <NumericPredictor name="Age" coefficient="0.026138452"/>
        <NumericPredictor name="Deductions" coefficient="0.0011080657"/>
        <NumericPredictor name="_1_0" coefficient="2.7763228005"/>
        <NumericPredictor name="_1_1" coefficient="2.8414766536"/>
        <NumericPredictor name="_1_2" coefficient="1.941231983"/>
        <NumericPredictor name="_1_3" coefficient="3.7155973948"/>
        <NumericPredictor name="_1_4" coefficient="1.6680060751"/>
        <NumericPredictor name="_1_5" coefficient="3.2455058212"/>
        <NumericPredictor name="_1_6" coefficient="-7.881681245"/>
        <NumericPredictor name="_1_7" coefficient="4.5005737116"/>
        <NumericPredictor name="_1_8" coefficient="1.760905549"/>
        <NumericPredictor name="_1_9" coefficient="1.2670858113"/>
        <NumericPredictor name="_1_10" coefficient="1.3412503156"/>
        <NumericPredictor name="_1_11" coefficient="1.2552410944"/>
        <NumericPredictor name="_1_12" coefficient="-9.554151248"/>
        <NumericPredictor name="_1_13" coefficient="0.0160691255"/>
        <NumericPredictor name="_1_14" coefficient="-8.798273518"/>
        <NumericPredictor name="Hours" coefficient="0.0338472093"/>
        <NumericPredictor name="_4_0" coefficient="-0.648276793"/>
        <NumericPredictor name="_4_1" coefficient="-0.654608437"/>
        <NumericPredictor name="_4_2" coefficient="2.0214969245"/>
        <NumericPredictor name="_4_3" coefficient="-0.216856589"/>
        <NumericPredictor name="_4_4" coefficient="-0.013275331"/>
        <NumericPredictor name="_5_0" coefficient="0.4969062675"/>
        <NumericPredictor name="_5_1" coefficient="1.6863576893"/>
        <NumericPredictor name="_5_2" coefficient="2.052142803"/>
        <NumericPredictor name="_5_3" coefficient="0.2305394031"/>
        <NumericPredictor name="_5_4" coefficient="-7.093393878"/>
        <NumericPredictor name="_5_5" coefficient="0.9805900007"/>
        <NumericPredictor name="_5_6" coefficient="-7.437843933"/>
        <NumericPredictor name="_5_7" coefficient="1.7270407258"/>
        <NumericPredictor name="_5_8" coefficient="2.2592364685"/>
        <NumericPredictor name="_5_9" coefficient="1.1040415764"/>
        <NumericPredictor name="_5_10" coefficient="1.4135735901"/>
        <NumericPredictor name="_5_11" coefficient="0.1037208678"/>
        <NumericPredictor name="_5_12" coefficient="1.7826623988"/>
      </RegressionTable>
      <RegressionTable intercept="0" targetCategory="0"/>
    </RegressionModel>
  </PMML>
